tree
version=v4
num_class=4
num_tree_per_iteration=4
label_index=0
max_feature_idx=99
objective=multiclass num_class:4
feature_names=volume_vox_raw volume_um3_raw bbox_z_extent_um bbox_y_extent_um bbox_x_extent_um aspect_zy aspect_zx aspect_yx equivalent_diameter_um_raw solidity_raw bbox_occupancy_raw volume_vox_opened frac_kept_opening solidity_opened equivalent_diameter_um_opened c405_raw_mean c405_raw_std c405_raw_p10 c405_raw_p50 c405_raw_p90 c405_opened_mean c405_opened_std c405_opened_p10 c405_opened_p50 c405_opened_p90 c405_core_p50_opened c405_shell_p50_opened c405_shell_minus_core_p50 c405_shell_minus_core_p90 c405_outside_p50 c405_inside_minus_outside_p50 c405_inside_minus_outside_p90 n_touching_neighbors surface_touching_frac top_neighbor_overlap_frac knn_d1 n_neighbors_30um axis3d_extent_um axis3d_lambda1_um2 axis3d_lambda2_um2 axis3d_lambda3_um2 axis3d_lambda_ratio_l1_l3 axis3d_lambda_ratio_l1_l2 axis3d_peak_prom_max_intens axis3d_peak_sep_um_intens axis3d_min_over_max_inner_intens axis3d_section_min_over_med_area axis3d_section_min_over_max_area axis3d_peak_prom_max_area axis3d_raw_extent_um axis3d_raw_section_min_over_med_area axis3d_raw_peak_prom_max_intens proj_xy_main_extent_um proj_xy_main_peak_prom_max proj_xy_main_min_over_max_inner proj_xy_orth_fwhm_um proj_xy_aspect_ratio proj_yz_main_extent_um proj_yz_main_peak_prom_max proj_yz_main_min_over_max_inner proj_yz_orth_fwhm_um proj_yz_aspect_ratio proj_zx_main_extent_um proj_zx_main_peak_prom_max proj_zx_main_min_over_max_inner proj_zx_orth_fwhm_um proj_zx_aspect_ratio surface_area_um2_raw sa_to_vol_um_inv_raw sphericity_raw surface_area_um2_opened volume_um3_opened sa_to_vol_um_inv_opened sphericity_opened core4um_voxel_frac_opened c405_core4um_p50_opened c405_shell4um_p50_opened c405_shell_minus_core4um_p50 c405_shell_minus_core4um_p90 c405_shell_over_core4um_p50_ratio n_protrusion_voxels protrusion_voxel_frac protrusion_rim_voxels protrusion_rim_other_frac protrusion_rim_bg_frac protrusion_top_neighbor_frac n_distinct_neighbor_ids_at_protrusion protrusion_into_neighbor_frac nbr_mean_solidity_opened nbr_min_solidity_opened nbr_mean_sphericity_opened nbr_min_sphericity_opened nbr_mean_bbox_occupancy_raw nbr_min_bbox_occupancy_raw nbr_mean_frac_kept_opening nbr_min_frac_kept_opening nbr_mean_volume_um3_opened nbr_min_volume_um3_opened nbr_mean_c405_shell_minus_core_p50 nbr_min_c405_shell_minus_core_p50
feature_infos=[25:58602] [24.474797567600895:57034.377026907532] [2:78] [2.9683205898851832:75.963131055986139] [2.9683205898851832:67.084323529961793] [0.11925289812942616:4.800694388792822] [0.11925289812942616:5.7271441831212622] [0.25:4.7999999999999998] [3.6022470582617068:47.757988500727151] [0.040617384240454905:1.6038062283737022] [0.0070028011204481795:0.69050925925925921] [0:56197] [0:0.98707824838478109] [0.35803292878653975:1.7500000000000009] [4.8715111418769732:47.09551943417766] [166.49703979492188:1261.2921142578125] [13.756925582885742:991.92962646484375] [119:724.79999999999995] [134:1193] [241.80000000000018:2585] [166.53807067871094:1356.90625] [13.229116439819336:1003.99365234375] [119:777] [131:1279] [227:2638] [131:1430] [131:1000.5] [-646:151] [-2025.2000000000007:363.89999999999986] [164:810] [-83:645] [-391.80000000000007:2052] [0:21] [0:0.8125] [0:0.7688984881209503] [0.98653416955812645:81.43136390412181] [0:90] [5.5449747884191307:84.602648857793525] [1.3548387096774193:453.24163220596438] [1.3017775271941108:162.67642613578778] [1.3017775271941108:68.023489491719843] [1.0214589081257353:61.240202522976197] [1:18.842563308711352] [0.050235026550584122:0.96257504889420842] [5:30] [0.0027559512608839208:0.97531226540075289] [0.0035149384885764497:1] [0.0016806722689075631:0.73170731707317072] [0.05023974494916069:0.7102979956351303] [7.0332783236536542:87.335384302242431] [0.0027322404371584699:0.88461538461538458] [0.050199384387990861:0.99223516044333748] [5.5449747884191343:82.746982383961722] [0.050101981919702131:0.78648751394649397] [0.0060452541623151603:0.95311315930939455] [3:33] [1.0000000000000004:25.780165592791519] [5.8325601044175093:77.159946189525385] [0.050005617694505143:0.68843036016936388] [0.015215745375624338:0.93337505294285161] [3:37] [1.0138211221954163:25.185172626736911] [5.9765088231381238:73.83374022535213] [0.050160462298970754:0.74594581014277062] [0.049711295117337108:0.93369258912726505] [4:35] [1.0017224234082329:15.764517002284235] [132.10436482768435:14415.747927152999] [0.23088347511965907:5.4310220908128102] [0.17773214248808442:0.70485229031737784] [0:13347.925103444148] [0:54693.71157607458] [0.23004266198041334:2.4129789370548389] [0.32786395255914236:0.68744159395144555] [0:0.53310674947061232] [141:2237.5] [131:1268] [-1225.5:464] [-1085.9000000000001:636.00000000000045] [0.37906371911573472:2.5416666666666665] [25:5667] [0.012921751615218953:1] [128:5565] [0:0.8125] [0.1875:1] [0:0.7688984881209503] [0:20] [0:3.6800000000000002] [0.42356722987946993:1.75] [0.30625000000000002:1.75] [0.30964038253972354:0.66831285190036249] [0.27410680589893932:0.6600905718850526] [0.035579844551855568:0.55823587983168987] [0.0022045855379188711:0.50797101449275361] [0:0.97562573693456722] [0:0.97244222632092869] [0:23434.87874869299] [0:12617.208692140697] [-490.89999999999998:76] [-1129:56]
tree_sizes=2497 3292 3306 3002 2561 3385 3387 3173 2871 3391 3398 3391 2984 3397 3409 3303 2455 3393 3403 3402 3404 3388 3393 3190 3111 3401 3388 2764 2988 3396 3409 2768 3200 3406 3404 3093 3305 3405 3417 2985 3093 3391 3412 3088 3097 3399 3416 3394 3198 3401 3409 3414 3205 3404 3411 3302 2878 3402 3414 3410 3297 3417 3402 3415 2977 3410 3400 3423 3081 3403 3421 3410 3185 3410 3395 3418 3202 3415 3408 3424 3198 3409 3401 3403 3197 3403 3408 3415 3091 3408 3415 3413 3406 3398 3400 3413 3420 3416 3423 3398 3193 3412 3414 3424 3196 3431 3413 3425 3299 3406 3404 3414 3406 3392 3423 3425 3400 3408 3409 3406 3411 3403 3406 3414 3291 3410 3407 3419 3412 3404 3417 3408 3407 3420 3403 3408 3403 3418 3407 3405 3398 3421 3419 3434 3412 3407 3424 3421 3412 3421 3410 3417 3310 3412 3414 3408 3410 3401 3398 3418 3404 3408 3420 3410 3411 3408 3422 3408 3184 3409 3434 3409 3408 3412 3415 3427 3406 3403 3408 3407 3411 3412 3419 3425 3402 3423 3414 3404 3421 3420 3419 3427 3418 3407 3413 3406 3404 3410 3420 3415 3415 3415 3406 3436 3406 3417 3409 3427 3414 3405 3423 3418 3417 3429 3399 3420 3409 3405 3424 3435 3428 3429 3415 3422 3423 3416 3417 3407 3431 3417 3433 3409 3421 3417 3421 3422 3427 3437 3424 3434 3437 3425 3401 3423 3433 3410 3405 3438 3427 3429 3426 3424 3429 3425 3426 3422 3445 3416 3426 3429 3429 3425 3417 3439 3439 3434 3411 3430 3432 3418 3426 3448 3437 3425 3419 3431 3440 3430 3421 3438 3441 3411 3429 3442 3452 3421 3430 3440 3444 3432 3430 3439 3439 3429 3438 3448 3442 3435 3444 3438 3440 3444 3452 3463 3451 3437 3455 3451 3448 3444 3446 3455 3457 3446 3446 3450 3454 3443 3447 3459

Tree=0
num_leaves=23
num_cat=0
split_feature=12 79 94 7 68 69 35 64 9 74 53 79 47 32 28 69 98 58 31 26 7 10
split_gain=408.747 92.2397 39.1485 36.0257 24.5465 18.1746 17.0608 11.3045 10.4832 10.0754 7.99535 7.44776 4.06589 5.69588 3.85911 3.24544 4.8265 6.31921 2.54762 0.360719 0.106095 0.0309254
threshold=0.74685379422874465 0.89237810244675242 0.68240703127339131 0.60263157894736863 0.85003273022494485 0.472292058697594 24.053216199882467 0.4930898440529155 1.0629624185107869 0.29014866424364011 0.1228634897463685 0.77424629291544589 0.28945568538045036 1.0000000180025095e-35 -24.900000000000087 0.53430419731569512 -42.708333333333321 0.22035944059277524 49.300000000000018 359.50000000000006 1.3969696969696972 0.29044134130443444
decision_type=2 10 2 2 2 2 2 10 2 8 10 10 10 2 8 2 10 10 2 10 2 2
left_child=4 2 6 -3 7 -5 -2 -1 12 10 -4 -12 15 -14 -6 16 17 -7 -9 -18 21 -17
right_child=1 3 9 5 14 8 -8 18 -10 -11 11 -13 13 -15 -16 20 19 -19 -20 -21 -22 -23
leaf_value=-1.7954436998300147 -1.6115913548592655 -1.6907197051025662 -1.7974019591936683 -1.7321446324918699 -1.6953851066514773 -1.8132643747358177 -1.7513825372450811 -1.7408630778164453 -1.7408630778164453 -1.8195820650080188 -1.6720219312484306 -1.7717738606947802 -1.7451230526734833 -1.8192760853939776 -1.5972401238016882 -1.8090924226844314 -1.8044452283164809 -1.7276656070020719 -1.6484807821158307 -1.8284945400797468 -1.8068504318883132 -1.8314065477264092
leaf_weight=2.9745116233825666 6.6926511526107806 4.2758604586124411 4.6476744115352648 4.4617674350738517 4.0899534821510315 4.0899534821510342 3.904046505689621 2.7886046469211578 2.7886046469211569 6.6926511526107779 3.3463255763053894 3.904046505689621 2.9745116233825666 6.5067441761493683 23.052465081214908 3.160418599843978 4.2758604586124447 2.7886046469211578 2.7886046469211578 12.083953469991682 2.7886046469211569 178.09888345003128
leaf_count=16 36 23 25 24 22 22 21 15 15 36 18 21 16 35 124 17 23 15 15 65 15 958
internal_value=-1.78793 -1.8101 -1.72775 -1.82084 -1.63177 -1.82374 -1.65559 -1.71729 -1.82584 -1.77349 -1.74704 -1.71739 -1.82714 -1.79425 -1.60825 -1.8286 -1.80945 -1.77545 -1.68065 -1.82358 -1.83088 -1.83114
internal_weight=293.175 257.481 29.1874 228.294 35.6941 224.018 10.5967 8.55172 219.556 18.5907 11.898 7.25037 216.768 9.48126 27.1424 207.286 23.2384 6.87856 5.57721 16.3598 184.048 181.259
internal_count=1577 1385 157 1228 192 1205 57 46 1181 100 64 39 1166 51 146 1115 125 37 30 88 990 975
is_linear=0
shrinkage=1


Tree=1
num_leaves=31
num_cat=0
split_feature=72 78 5 69 69 80 37 72 69 42 13 41 99 11 16 78 45 88 25 50 63 48 52 33 45 13 99 50 14 27
split_gain=160.364 49.3269 42.9699 24.124 21.2362 17.8139 30.6245 13.1445 13.0106 11.0629 10.6858 8.85675 8.53216 8.52348 7.9064 6.925 6.17649 6.56182 5.92602 7.1717 5.33371 5.09902 7.2208 4.74011 4.43471 4.39357 4.20241 4.69845 7.00689 3.1169
threshold=0.48829853316850363 -75.349999999999838 1.082044836170885 0.49030086903682107 0.59781974050981046 468.50000000000006 35.592513148473294 0.53349962619341562 0.5865650832857876 2.1429314422358101 0.98139363101557031 2.155475492505055 -173.74999999999997 1020.5000000000001 92.100322723388686 43.949999999999825 0.58589684376943396 1.0037971397962513 440.50000000000006 0.17982035928143716 0.11205258559827928 0.43576322742324275 32.652847200754429 0.2006080610631851 0.72503487357735696 1.0339285970358536 -242.99999999999997 0.1197269624573379 28.858978962533559 -38.249999999999993
decision_type=10 10 2 2 2 2 8 10 2 8 10 10 10 2 2 10 10 10 10 2 8 10 8 2 8 10 8 2 8 10
left_child=5 25 3 -3 7 -1 8 23 12 20 -11 18 -7 -9 -14 -6 -13 -18 19 -4 24 26 -23 -5 -8 -2 -22 -28 -29 -16
right_child=1 2 11 4 15 6 9 13 -10 10 -12 16 14 -15 29 -17 17 -19 -20 -21 21 22 -24 -25 -26 -27 27 28 -30 -31
leaf_value=-1.3983048102963551 -1.3419286588199517 -1.3688902114563475 -1.3855795630005927 -1.3560747243889444 -1.3016956163433568 -1.3625256930760077 -1.297065047165648 -1.3106713309246925 -1.3692719161249332 -1.3955517766137893 -1.3266560270163201 -1.3068999933695307 -1.3534697351991316 -1.2354861524721221 -1.3224052638856669 -1.3855795630005927 -1.3167349395734136 -1.3811483573496992 -1.2803224016402239 -1.3022419926496527 -1.3337590645267103 -1.3070461714331743 -1.3855795630005927 -1.2873486813338901 -1.3625256930760077 -1.3870240675096592 -1.3888928266074732 -1.3954145092044754 -1.3179486909911493 -1.2568939260419059
leaf_weight=77.083837032318115 6.8916013240814236 5.8706233501434317 4.0839118957519513 4.0839118957519513 3.8286674022674552 4.8496453762054434 4.0839118957519505 5.8706233501434317 11.486002206802366 80.657259941101074 5.3601343631744376 4.0839118957519558 3.8286674022674623 41.094363451004028 3.8286674022674587 4.0839118957519531 4.0839118957519558 17.611870050430298 7.4020903110504142 4.3391563892364502 4.5944008827209473 6.125867843627927 4.083911895751954 5.3601343631744385 4.8496453762054452 18.122359037399292 35.478984594345093 4.0839118957519505 5.8706233501434335 9.4440462589263863
leaf_count=302 27 23 16 16 15 19 16 23 45 316 21 16 15 161 15 16 16 69 29 17 18 24 16 21 19 71 139 16 23 37
internal_value=-1.35554 -1.31175 -1.29764 -1.27401 -1.26527 -1.37817 -1.36976 -1.25467 -1.32694 -1.3791 -1.39098 -1.33845 -1.30512 -1.24377 -1.28931 -1.34358 -1.35679 -1.36788 -1.31023 -1.34162 -1.36402 -1.36942 -1.3384 -1.31434 -1.3298 -1.37458 -1.37595 -1.38058 -1.35053 -1.2722
internal_weight=402.521 136.811 111.797 70.1922 64.3216 265.71 188.626 56.409 33.437 155.189 86.0174 41.6049 21.951 46.965 17.1014 7.91258 25.7797 21.6958 15.8252 8.42307 69.1713 60.2377 10.2098 9.44405 8.93356 25.014 50.0279 45.4335 9.95454 13.2727
internal_count=1577 536 438 275 252 1041 739 221 131 608 337 163 86 184 67 31 101 85 62 33 271 236 40 37 35 98 196 178 39 52
is_linear=0
shrinkage=1


Tree=2
num_leaves=31
num_cat=0
split_feature=73 73 13 12 80 21 21 21 88 12 35 47 13 26 53 43 55 58 82 55 6 24 73 53 53 65 45 78 45 43
split_gain=330.738 62.3471 29.3732 29.5793 23.5284 20.8112 16.6471 14.9647 12.8103 11.682 11.1058 9.59074 9.31543 9.09381 9.90662 8.76109 7.1453 5.94929 5.21736 5.21791 4.63722 4.38567 3.99794 5.73413 5.20931 3.87966 3.22681 3.10132 3.28407 2.87732
threshold=0.60929521001579856 0.57416179101237574 0.96364365527123452 0.84621496390862505 472.50000000000006 122.63451004028322 159.18669891357425 245.0166931152344 1.0365253098379663 0.90828583642063276 13.477842768046282 0.041230437128980037 0.94448122267402812 414.75000000000006 0.14544684425011403 0.080220637748802878 10.500000000000002 0.10429372677701622 858.50000000000011 18.500000000000004 1.1023434215391295 737.40000000000009 0.53679767062132477 0.1120718831220243 0.096718786619498565 10.500000000000002 0.7995454119016242 63.200000000000109 0.67631412235510624 0.12001924479308616
decision_type=10 10 10 2 2 10 10 10 10 2 2 8 10 10 10 10 8 8 2 8 2 10 10 10 10 10 10 10 10 8
left_child=1 7 6 26 9 -6 17 22 10 -2 -5 -8 -9 14 20 -13 -10 -3 -15 -20 -12 -18 -1 24 27 -14 -4 -24 -29 -19
right_child=4 2 3 8 5 -7 11 12 16 -11 13 15 25 18 -16 -17 21 29 19 -21 -22 -23 23 -25 -26 -27 -28 28 -30 -31
leaf_value=-1.2207014717674896 -1.1373410409179949 -1.154653482038084 -1.2134410651460326 -1.1786057950331035 -1.1935382541223096 -1.0915936476679364 -1.0985300052791789 -1.197915188083414 -1.1171417775215313 -1.057309366746584 -1.154653482038084 -1.1282545443299417 -1.1631956797350278 -1.0768814965379765 -1.186333972037136 -1.2152747784379658 -1.1964606003009448 -1.1741563396976744 -1.0995242911792202 -1.1660114022439396 -1.0873070629934232 -1.1494662443552315 -1.2090513841011352 -1.2136914205474101 -1.1485685248608535 -1.0998579242735247 -1.1685768691744511 -1.1556108656355488 -1.195064845899583 -1.2149064146978932
leaf_weight=66.233197450637817 5.995246320962905 4.8532946407794944 13.988908082246782 6.851710081100463 7.4226859211921719 12.275980561971663 5.4242704808711979 8.8501255214214343 5.1387825608253506 58.810511529445648 4.853294640779497 4.2823188006877899 4.8532946407794935 17.414763122797016 7.1371980011463156 5.4242704808712006 11.990492641925814 5.138782560825347 6.2807342410087559 5.1387825608253488 5.9952463209629059 7.1371980011463156 23.124521523714066 69.088076651096344 5.7097584009170523 4.2823188006877899 5.4242704808711997 7.1371980011463192 14.845371842384337 39.111845046281815
leaf_count=232 21 17 49 24 26 43 19 31 18 206 17 15 17 61 25 19 42 18 22 18 21 25 81 242 20 15 19 25 52 137
internal_value=-1.16722 -1.18787 -1.16467 -1.14744 -1.07867 -1.12932 -1.19072 -1.20617 -1.13374 -1.06411 -1.12032 -1.14598 -1.16294 -1.11177 -1.14187 -1.17663 -1.1642 -1.20469 -1.09455 -1.12677 -1.11365 -1.17881 -1.21036 -1.20427 -1.19085 -1.12958 -1.20148 -1.19654 -1.18221 -1.21038
internal_weight=450.214 365.71 161.586 97.3514 84.5044 19.6987 64.2348 204.124 77.9382 64.8058 53.6717 15.1309 17.9857 46.82 17.9857 9.70659 24.2665 49.1039 28.8343 11.4195 10.8485 19.1277 186.138 119.905 50.8168 9.13561 19.4132 45.1071 21.9826 44.2506
internal_count=1577 1281 566 341 296 69 225 715 273 227 188 53 63 164 63 34 85 172 101 40 38 67 652 420 178 32 68 158 77 155
is_linear=0
shrinkage=1


Tree=3
num_leaves=28
num_cat=0
split_feature=38 27 13 13 47 2 13 16 79 13 90 43 41 70 4 43 45 43 64 10 96 70 38 78 47 43 51
split_gain=437.817 87.8597 42.3012 31.6516 28.0638 25.813 21.5123 14.3336 13.2569 10.4145 10.1027 9.9746 8.5114 7.95005 6.79824 5.78779 5.12495 3.87822 3.01067 2.77509 2.30259 2.09751 1.59449 0.448431 0.365134 0.272274 0.161047
threshold=73.91520700222469 -53.499999999999993 0.96592742928535158 0.98674511001709708 0.066826993560610351 29.500000000000004 0.97234880325860173 132.13542938232425 1.2806415071233215 0.89288183517297215 0.60177681699246588 0.43078598377935712 2.7475681214778427 6703.8125444921652 27.663641126613189 0.17385412111594681 0.8185409057537546 0.4406008178464661 0.60137901537311855 0.30304576376004955 8190.9160689872397 4399.1759081912123 47.612734311360867 -3.4999999999999996 0.054351306779670074 0.059944314469357378 0.55004286811128378
decision_type=10 10 8 10 10 2 10 2 10 10 10 10 10 2 2 10 10 10 10 2 2 2 10 10 8 8 8
left_child=2 4 5 8 11 23 9 10 12 -6 16 13 -3 18 -9 -10 -7 25 24 -14 -12 -16 -19 -1 -2 -4 -11
right_child=1 3 17 -5 6 7 -8 14 15 26 20 -13 19 -15 21 -17 -18 22 -20 -21 -22 -23 -24 -25 -26 -27 -28
leaf_value=-1.3520224360948991 -1.3789739644303194 -1.27120388809675 -1.3584967960107279 -1.3474329084954781 -1.300573164955632 -1.3489851869836236 -1.3529217170055499 -1.2965509376828053 -1.3315544174420968 -1.2117042580676713 -1.2149897086389805 -1.2767965352386794 -1.2701503614836893 -1.3006749862958678 -1.3758591352273966 -1.2496823428308867 -1.2809620904007386 -1.3622564454213004 -1.3324806556027851 -1.1972896956559862 -1.2855471303936832 -1.3359759621301333 -1.3213204081156955 -1.3798862062657051 -1.3520224360948991 -1.3809614159614485 -1.2701503614836893
leaf_weight=3.8856706023216274 11.916056513786319 7.512296497821807 5.1808941364288321 4.6628047227859488 7.5122964978218141 4.9218494296073931 5.6989835500717154 5.9580282568931606 3.8856706023216239 10.102743566036221 4.6628047227859479 4.6628047227859488 3.8856706023216239 5.6989835500717154 6.2170729637145978 3.8856706023216248 4.4037600159645081 3.8856706023216239 5.9580282568931571 52.067986071109772 4.1447153091430664 6.4761176705360413 3.8856706023216248 15.801727116107939 3.8856706023216256 203.86818426847458 3.8856706023216256
leaf_count=15 46 29 20 18 29 19 22 23 15 39 18 18 15 22 24 15 17 15 23 201 16 25 15 61 15 787 15
internal_value=-1.33286 -1.25958 -1.36924 -1.22426 -1.30582 -1.3307 -1.26941 -1.30614 -1.21609 -1.24733 -1.27572 -1.3376 -1.20839 -1.3495 -1.33707 -1.2859 -1.31503 -1.37924 -1.36311 -1.20118 -1.24007 -1.35729 -1.34291 -1.37562 -1.37393 -1.38053 -1.22273
internal_weight=408.514 135.221 273.292 75.9001 59.3212 56.4717 27.1997 36.7843 71.2373 21.5007 18.1331 32.1215 63.466 27.4587 18.6512 7.77134 9.32561 216.82 21.7598 55.9537 8.80752 12.6932 7.77134 19.6874 15.8017 209.049 13.9884
internal_count=1577 522 1055 293 229 218 105 142 275 83 70 124 245 106 72 30 36 837 84 216 34 49 30 76 61 807 54
is_linear=0
shrinkage=1


Tree=4
num_leaves=23
num_cat=0
split_feature=81 79 95 7 59 68 31 39 9 54 63 95 60 53 62 4 46 3 89 98 46 10
split_gain=338.131 84.7084 33.0546 32.8313 18.109 13.5345 10.8381 8.33635 7.49169 7.09008 6.11405 3.80538 6.33053 3.75141 6.57299 3.18148 2.90382 1.49728 3.32654 1.17244 0.63175 0.0837437
threshold=0.25441178370449197 0.89237810244675242 0.50842827687526737 0.60263157894736863 0.46289874117081425 0.73851236909637208 485.79999999999978 14.795338111451313 0.82187476886888311 0.50758112440174952 0.22502482259874804 0.83693000080366486 5.5000000000000009 0.15961981075026549 37.086272902060379 15.80779492949325 0.43283384517632112 18.771756478773238 0.94499681611968211 -22.449999999999996 0.13191946442845728 0.28825879274726213
decision_type=2 10 2 2 8 2 2 10 2 10 8 2 10 10 8 2 10 2 10 10 10 2
left_child=1 2 6 -3 -2 8 10 -4 13 -7 -1 -6 -13 20 -15 -10 17 18 -17 -16 -5 -19
right_child=4 3 7 5 11 9 -8 -9 15 -11 -12 12 -14 14 19 16 -18 21 -20 -21 -22 -23
leaf_value=0.051356058585266075 0.041891656076488419 0.08741524510452614 0.042349039005945922 -0.0061735567356930605 0.16064356279408076 -0.020098872415664593 0.025014852103750086 -0.034764896116878052 0.0014594212003276074 0.077945286469819075 0.14407299866533302 0.12931157700179735 0.034603913032470839 0.06570250456243347 0.0069561127173208767 0.020552660105178221 0.0067657626484453025 -0.020574881147512651 -0.035835696312640587 -0.033513112846971414 -0.037725659983479765 -0.044122506790166036
leaf_weight=4.1066018193960234 5.7829277068376532 4.5940233319997779 4.6382326781749716 2.7433865070343044 25.027811661362648 2.800027295947074 4.6093921810388556 8.3022372275590879 4.2691992968320838 3.0200619101524353 8.7039919942617416 4.9388336390256864 3.8964108675718307 3.01377001404762 2.7564700245857248 2.7426632195711127 2.7684128731489173 2.9120057970285407 9.6052623242139799 2.9377655833959579 5.1810248643159866 173.07403282821178
leaf_count=21 29 23 24 15 119 15 24 45 23 16 43 23 19 16 15 15 15 16 53 16 28 964
internal_value=-0.000970171 -0.0224109 0.0547198 -0.0331372 0.132922 -0.0360676 0.0977556 -0.00606992 -0.0381656 0.0347457 0.120222 0.14682 0.0953098 -0.00558147 0.0162627 -0.040897 -0.0418459 -0.0425924 -0.0227095 -0.0158101 -0.0287182 -0.0438513
internal_weight=292.425 252.779 30.3605 222.418 39.646 217.824 17.42 12.9405 212.004 5.82009 12.8106 33.8631 8.83524 16.6324 8.70801 195.372 191.102 188.334 12.3479 5.69424 7.92441 175.986
internal_count=1577 1387 157 1230 190 1207 88 69 1176 31 64 161 42 90 47 1086 1063 1048 68 31 43 980
is_linear=0
shrinkage=0.05


Tree=5
num_leaves=31
num_cat=0
split_feature=38 77 5 38 69 19 68 73 83 96 92 63 96 5 80 48 61 50 69 15 35 50 70 96 13 83 53 35 38 61
split_gain=147.166 44.5618 24.3852 20.4867 28.2115 20.2524 23.842 16.5551 12.4175 9.61449 9.19066 8.68835 8.48875 7.72861 8.7783 7.55556 7.07111 8.71645 6.51103 5.98359 6.12385 5.98053 5.29232 8.33014 5.83818 4.78032 5.51062 4.71663 4.7013 4.3472
threshold=40.431877617904206 67.250000000000014 1.1259948126978265 91.45286241083825 0.60263593164653229 670.20000000000016 0.83219483731846655 0.59621359735622381 0.32240346774653517 5763.0979073211311 0.28808648344494009 0.20108023679677306 7534.8472764168555 1.1918393584296993 522.50000000000011 0.26086401395190967 2.1106544335031008 0.23450021562634768 0.56927803976375124 534.12051391601574 14.136910775558087 0.11651515151515153 4399.1759081912123 8408.3260612640461 0.99093985676644236 0.18379537879470323 0.32510990908104759 17.389295981954508 59.403891541096961 2.2412819439847755
decision_type=8 8 2 8 2 2 2 10 2 2 2 8 2 2 2 8 8 2 2 2 2 2 2 2 10 2 8 2 8 8
left_child=1 2 5 4 9 6 7 10 -3 27 -1 -10 19 14 -11 25 17 -7 -14 20 -4 -16 24 -24 29 26 -15 28 -2 -17
right_child=3 8 12 -5 -6 16 -8 -9 11 13 -12 -13 18 15 21 22 -18 -19 -20 -21 -22 -23 23 -25 -26 -27 -28 -29 -30 -31
leaf_value=0.024358894330059819 0.036563655238288591 -0.031050058104115486 -0.019542265552534886 -0.041355728213774548 -0.040863740102712598 -0.0075579393591645979 -0.012882076646563429 0.0061676210872327088 -0.020033609828205685 -0.018846364550206773 0.10789285779033622 0.05524210161334181 0.026780550220204497 0.037525032014216357 0.01408822161295944 0.080630902450990222 -0.031194930207641875 0.069948513099250972 -0.03924423898207708 0.085150562227352344 0.045396900638707958 0.090886639967223209 0.032338957617854852 -0.038192102557422815 -0.0027727340033295695 -0.032311244154885239 -0.026327337474668429 -0.046024329109443832 -0.020691730241126808 0.019637832919736965
leaf_weight=4.268903821706771 4.1484864205122003 22.443828955292702 5.4150195717811638 98.541840299963951 54.638320103287697 5.9394901692867297 5.6359348744153968 5.1526595056056967 5.5892198681831333 3.7848883718252173 46.108259290456772 8.8726080805063248 5.4413994848728171 6.3843658864498147 4.3957037031650525 6.580948233604432 4.1238662600517264 7.6530570536851883 8.0811987519264203 4.1482067406177512 7.815290704369545 6.7556189000606537 7.4374201446771604 7.3148034960031509 6.3505883961915961 15.677542284131048 5.2896162569522867 10.850699499249457 10.847943753004074 6.1278868168592462
leaf_count=16 16 89 21 396 220 23 22 20 22 15 170 34 21 25 17 25 16 29 32 16 30 26 29 29 25 62 21 43 43 24
internal_value=-0.000674848 0.0390767 0.0549338 -0.0235939 -0.0122246 0.0695579 0.0830594 0.0928525 -0.00829835 0.00337245 0.101426 0.0267354 0.0165924 0.0123154 0.0433428 0.00416306 0.0209966 0.0378837 -0.0126617 0.0388059 0.0193125 0.0642644 0.0197104 -0.00283785 0.0364344 -0.0150737 0.00879832 -0.0224355 -0.00355748 0.0547993
internal_weight=401.816 146.689 109.783 255.127 156.585 78.8822 61.1658 55.5298 36.9057 101.947 50.3772 14.4618 30.9011 76.0994 14.9362 61.1632 17.7164 13.5925 13.5226 17.3785 13.2303 11.1513 33.8116 14.7522 19.0594 27.3515 11.674 25.8471 14.9964 12.7088
internal_count=1577 561 416 1016 620 296 228 206 145 400 186 56 120 298 58 240 68 52 53 67 51 43 132 58 74 108 46 102 59 49
is_linear=0
shrinkage=0.05


Tree=6
num_leaves=31
num_cat=0
split_feature=69 79 68 69 13 15 80 35 16 42 33 99 89 6 42 12 91 59 96 13 13 60 38 92 93 69 79 10 79 76
split_gain=272.014 44.4448 32.7959 20.3556 20.082 19.4887 18.7508 16.96 15.7961 12.582 12.1414 9.86993 9.13563 7.21597 5.79262 13.9647 8.68947 6.71291 5.66345 5.47631 5.1921 9.72555 5.99481 4.98918 4.60071 4.57439 4.41958 4.41255 4.21539 4.18512
threshold=0.60449635516942368 1.1637399401806914 0.62574431499860506 0.57077454774611447 0.963020201600853 556.02633666992199 472.50000000000006 13.128485762180858 121.30891418457033 1.8522488411967093 0.21042969343105997 -39.749999999999993 1.0005715656992951 1.1023434215391295 1.6947305546769769 0.87170198368257201 0.57243248127902968 0.58460204060189702 8329.8257642400331 1.0102661133018893 0.9654328521191099 11.500000000000002 60.711789133464798 0.44778276072428153 0.28984861626710157 0.56597128013986342 1.0279345118400915 0.37408328339172664 1.076011695906433 623.75000000000011
decision_type=2 10 2 2 10 2 2 2 2 10 2 8 10 2 8 2 10 8 2 10 10 10 8 2 2 2 10 2 10 10
left_child=1 3 6 14 9 10 26 24 -8 11 20 27 25 -12 15 -1 28 -18 19 -7 -5 -22 -23 -14 -6 -9 -2 -3 -17 -20
right_child=2 4 -4 5 7 18 8 12 -10 -11 13 -13 23 -15 -16 16 17 -19 29 -21 21 22 -24 -25 -26 -27 -28 -29 -30 -31
leaf_value=-0.046036852391684153 0.054374517944298234 0.067289185480466793 -0.031944632761948068 -0.046659098657911596 0.01861703221376779 -0.026580310433353179 -0.021801723418309077 0.028441210665074518 0.071115932974385274 -0.037056728073923829 -0.014316088322142912 -0.027631580320878452 0.040184642328419222 0.063483631970447249 -0.045857099198691485 -0.036089740930994339 0.059782837152902106 -0.015233310241284612 0.017294645364844579 0.036363032157347416 -0.039135622160359124 0.055629904802399592 -0.012859422052540211 -0.018144010148401907 -0.041285250321389057 0.080477592145215715 0.10189583114223864 0.0033236915848369841 0.01037669945921651 0.077678334780201641
leaf_weight=39.196203142404556 9.4575439989566785 6.8425764441490156 5.9518221616744986 28.524348497390747 4.5482898950576764 6.2984996438026446 6.8290045559406307 7.4707304835319546 10.863450288772581 23.285892844200134 5.3861061632633191 6.7655743360519436 6.9301682114601117 4.9379818439483643 104.17690840363503 13.454775422811514 6.8989089429378483 4.2489076852798471 6.0141876041889173 5.5734193623065948 16.525752216577533 4.9177727997302982 6.2990470230579385 5.9998971223831177 7.0918517410755157 17.368192851543427 60.994527846574783 4.2737865746021271 6.8108882009983054 6.162443071603775
leaf_count=140 32 24 21 102 16 22 24 26 37 83 19 24 24 17 373 48 24 15 21 19 59 17 22 21 25 59 203 15 24 21
internal_value=0.00200718 -0.0180141 0.0771484 -0.0283074 0.0121291 -0.00894667 0.0847904 0.0333279 0.0360035 -0.0135004 -0.0228222 0.0175127 0.0492871 0.0252153 -0.0382394 -0.0265169 -0.00149188 0.0322907 0.0288523 0.00349855 -0.0319227 -0.0156749 0.0192639 0.0137591 -0.0182578 0.0665332 0.0963668 0.045001 -0.0207197 0.05143
internal_weight=450.099 356.003 94.0963 265.426 90.577 90.6396 88.1445 49.4091 17.6925 41.1678 66.591 17.8819 37.769 10.3241 174.787 70.6097 31.4135 11.1478 24.0485 11.8719 56.2669 27.7426 11.2168 12.9301 11.6401 24.8389 70.4521 11.1164 20.2657 12.1766
internal_count=1577 1260 317 943 317 319 296 171 61 146 236 63 130 36 624 251 111 39 83 41 200 98 39 45 41 85 235 39 72 42
is_linear=0
shrinkage=0.05


Tree=7
num_leaves=29
num_cat=0
split_feature=38 27 13 13 47 2 13 21 82 90 59 45 13 88 26 49 43 58 38 30 3 38 69 96 45 21 82 98
split_gain=389.211 70.9306 40.1585 25.4821 24.8127 23.6774 18.2795 15.3634 11.1982 10.8397 10.3823 9.54 8.6012 8.56457 6.84681 4.34259 3.75913 3.49623 2.4811 2.165 1.68349 1.5171 1.09285 1.03572 0.347536 0.314719 0.312975 0.24709
threshold=73.91520700222469 -53.499999999999993 0.96592742928535158 0.98674511001709708 0.066826993560610351 27.500000000000004 0.97234880325860173 132.88710784912112 1128.5000000000002 0.60177681699246588 0.4088811766460359 0.68356285239830206 0.89288183517297215 0.98949568597552051 504.25000000000006 39.55910875484134 0.4406008178464661 0.26953326950699802 82.03496937300018 87.250000000000014 32.451482054609706 47.612734311360867 0.56101260042132439 8431.2168771841043 0.83075231262108484 184.76492309570315 1021.5000000000001 -224.37499999999997
decision_type=10 10 8 10 10 2 10 10 2 10 10 10 10 10 8 2 10 10 10 2 2 10 2 2 10 8 2 10
left_child=2 4 5 10 8 -1 12 9 17 15 -3 -12 -6 -10 19 -7 26 24 -13 -9 -15 -18 -21 -11 -2 -14 27 -4
right_child=1 3 16 -5 6 7 -8 14 13 23 11 18 25 20 -16 -17 21 -19 -20 22 -22 -23 -24 -25 -26 -27 -28 -29
leaf_value=-0.047367777673793625 -0.046251229757442225 0.037237118385803458 -0.027025915287230248 -0.014782254687979874 0.029176766046643245 -0.017412920281927764 -0.020100631387168236 0.0051940433984796648 -0.023126555579162524 0.10801194648728828 0.042260254736188302 0.064982403718227652 0.1090262560194853 0.025958859486126203 0.037623440831661192 0.043943890586572026 -0.029592993312210204 0.0056526420339310822 0.11973084718725069 -0.0096988682486335038 0.079223034260867228 0.010442909273649114 -0.044923969526814267 0.048379752948883054 -0.019521025727710143 0.056003901441523 -0.025297380444615998 -0.048547551589354143
leaf_weight=16.637001395225525 10.502133384346964 6.8185155391693106 5.5134119540452948 4.6019245684146872 7.6831396818161073 4.9573445618152636 5.600605145096778 4.3730312436819103 4.4117894470691672 5.2312802076339704 6.4405090212821952 6.2548422217369071 10.7467827796936 4.1929485201835615 5.2085796743631354 4.770396500825882 3.8154277205467215 5.1910072267055503 56.506068825721741 3.8764730095863325 3.9782475531101227 3.8963726162910461 7.4965978562831879 4.0058290064334869 3.8403823673725119 4.0886461734771737 5.0348222106695166 191.99381893873215
leaf_count=66 41 25 22 18 29 19 22 17 17 19 24 23 39 16 20 18 15 20 203 15 15 15 29 15 15 15 20 765
internal_value=-0.00085381 0.0661112 -0.0363216 0.0965361 0.0244779 0.00107973 0.0579124 0.021935 -0.0056601 0.0533474 0.103379 0.109273 0.0773447 0.029746 -0.00762941 0.0139674 -0.0463397 -0.0288057 0.115379 -0.0239512 0.0577018 -0.0104881 -0.0346718 0.0894035 -0.0408327 0.0988727 -0.0476465 -0.0480859
internal_weight=407.668 140.858 266.81 80.6219 60.2357 56.5565 28.1192 39.9195 32.1165 18.9649 76.0199 69.2014 22.5186 12.583 20.9547 9.72774 210.254 19.5335 62.7609 15.7461 8.1712 7.7118 11.3731 9.23711 14.3425 14.8354 202.542 197.507
internal_count=1577 522 1055 293 229 218 105 152 124 71 275 250 83 48 81 37 837 76 226 61 31 30 44 34 56 54 807 787
is_linear=0
shrinkage=0.05


Tree=8
num_leaves=26
num_cat=0
split_feature=74 79 69 92 7 68 7 74 57 78 6 88 47 48 69 56 58 19 46 50 96 29 69 29 10
split_gain=284.397 73.6846 27.9755 26.5255 21.8953 13.8817 13.0581 9.71506 8.46355 7.85698 7.68936 5.86537 4.06884 6.01538 3.07569 4.22383 3.24655 2.9864 2.80117 1.37244 0.852689 0.548771 0.259319 0.0755831 0.07077
threshold=0.033922989520057588 0.89237810244675242 0.472292058697594 0.3418397882673308 0.60263157894736863 0.85003273022494485 1.5178799489144319 0.2979681942958014 17.338447615487713 -69.949999999999974 1.3822122130142793 1.0347263236824127 0.28945568538045036 0.35300430869134103 0.53430419731569512 2.0795394578209572 0.15188328566997042 643.50000000000011 0.33381782945736438 0.12055766054600216 2965.1646698154427 308.25000000000006 0.57541114174133579 210.50000000000003 0.29044134130443444
decision_type=10 10 2 2 2 2 2 10 10 8 2 10 10 10 2 10 10 2 8 2 2 2 2 2 2
left_child=5 3 10 19 -4 8 12 9 17 11 -3 -5 14 -14 15 20 -17 -1 -7 -2 -6 -9 -20 -16 -25
right_child=1 2 4 7 6 18 -8 21 -10 -11 -12 -13 13 -15 23 16 -18 -19 22 -21 -22 -23 -24 24 -26
leaf_value=-0.0211263717631523 0.13891213881600503 0.11097533936015501 0.066885857228764792 0.018872510532930733 -0.0057303419765807571 0.072814250681792578 0.054612564952359804 -0.0066252207304047213 0.10450426417884442 -0.0071183342326863758 0.0037866222751711366 0.10262928390028846 -0.031887350324888146 0.045699531150820552 -0.020453117430407026 -0.020754085553921629 0.044478876947589112 0.040896767271702487 0.14466021946208926 0.065261615869179293 -0.038555724575094347 -0.036824332389250369 0.073713476463635672 -0.020536766981645999 -0.043736681482120128
leaf_weight=2.9042867720127088 5.1483380794525164 3.104386329650878 4.24879066646099 4.3423801213502866 2.7082353532314363 5.6123366951942435 2.9379906356334677 2.772817835211753 3.6025708615779877 5.3859575539827373 2.9479708820581436 4.3394305109977722 6.3393029868602735 2.7997058182954788 2.9501212090253821 2.9285724610090247 2.8446163237094879 2.9835045784711838 25.096817985177044 4.3118417710065842 14.620841801166533 4.5691668689250946 3.4892291575670233 2.9068961739540091 165.18489040434361
leaf_count=15 23 15 20 22 15 25 15 15 17 28 15 21 35 15 17 16 15 15 106 20 82 25 15 16 954
internal_value=-0.000904832 -0.0217932 -0.0321221 0.0493886 -0.035266 0.115219 -0.0376833 0.0166567 0.0535174 0.0400423 0.0667061 0.0670129 -0.039278 -0.00595582 -0.0408081 -0.0221578 0.0132095 0.011677 0.130334 0.114791 -0.0340182 -0.0275806 0.138785 -0.0431837 -0.0434593
internal_weight=291.081 247.392 216.522 30.8699 210.47 43.6887 206.221 21.4098 9.49036 14.0678 6.05236 8.68181 203.283 9.13901 194.144 23.1023 5.77319 5.88779 34.1984 9.46018 17.3291 7.34198 28.586 171.042 168.092
internal_count=1577 1384 1230 154 1200 193 1180 111 47 71 30 43 1165 50 1115 128 31 30 146 43 97 40 121 987 970
is_linear=0
shrinkage=0.05


Tree=9
num_leaves=31
num_cat=0
split_feature=38 79 30 38 69 34 33 22 33 53 45 60 48 41 28 5 99 93 50 26 61 20 39 61 64 48 90 23 80 48
split_gain=131.656 33.6195 26.5844 19.6283 26.2667 16.5056 16.2988 14.1921 11.2548 9.99878 9.1122 8.78689 8.78102 7.19496 7.18181 6.85478 6.75693 6.4038 6.29458 7.07091 6.03385 6.38374 5.49344 4.87405 4.51769 4.23246 5.73527 3.86023 3.74665 3.60621
threshold=40.431877617904206 1.1664764721636762 2.2500000000000004 91.45286241083825 0.60263593164653229 0.14282154426684704 0.44991113801702171 261.50000000000006 0.27727693326767899 0.051896193874911144 0.81080123381158209 5.5000000000000009 0.26086401395190967 2.155475492505055 -89.85000000000035 0.96837127227962816 -187.49999999999997 0.38918928499011901 0.13689344559116426 415.50000000000006 1.5246742193607432 426.99401855468756 30.928958520013438 1.5965304967392473 0.50763592430886895 0.38474391261532587 0.61797727132393765 669.50000000000011 468.50000000000006 0.30910989215409196
decision_type=8 8 2 8 2 2 2 10 2 10 10 10 8 10 10 2 10 2 2 8 10 10 10 10 8 10 10 10 2 8
left_child=1 2 23 4 10 7 16 13 25 -9 12 -10 18 -4 24 -15 -7 -18 22 -20 -14 -22 -2 -1 -12 -3 -27 -5 -13 -23
right_child=3 8 5 27 -6 6 -8 9 11 -11 14 28 20 15 -16 -17 17 -19 19 -21 21 29 -24 -25 -26 26 -28 -29 -30 -31
leaf_value=0.036337481196097407 0.013143457177826523 -0.040255136397180813 0.080970240826946649 -0.043115556654465537 -0.039858539612080982 0.012190860796361917 -0.018901231070632837 0.039337864189732993 -0.030534086252618827 -0.022302657538827486 0.046486878179935943 0.012425340278372471 0.072778781488540972 0.053477515482495845 -0.03452161983651391 -0.02982290023678032 0.090862358645633065 0.023324994021874806 0.070241379423007941 -0.011042403527962055 0.055913725978063392 -0.031273342894686869 -0.03727925162491863 0.1092755645775436 -0.012361493269863891 -0.027920740265466155 0.043609619607643806 -0.0025693358948781254 0.069296543588478185 0.015178080818490206
leaf_weight=4.078567340970042 7.6389768868684831 14.425905853509905 8.7350248694419879 89.33498127758503 52.922719746828079 4.4954271018505088 5.2198211550712577 8.3004939109087008 4.0541528314352062 21.54096531867981 4.6512855291366551 5.2659905850887281 5.838702365756034 4.1702038496732694 21.502046659588814 3.8321030139923096 25.335614368319515 5.0155510604381552 3.9393399208784077 5.3367007821798333 7.8600018620491054 4.2783163487911251 14.55415242910385 18.506508022546768 6.9695189744234094 5.758443355560301 3.78916335105896 6.4183506965637198 7.2477458268404007 19.404662519693375
leaf_count=15 30 58 32 370 220 17 20 31 16 83 18 20 22 15 86 15 91 19 15 21 30 17 58 64 28 23 15 26 27 75
internal_value=-0.000624213 0.0363252 0.0506445 -0.0227593 -0.0116326 0.0372688 0.0604548 0.016473 -0.00254555 -0.00443759 0.00326105 0.0281806 0.0135777 0.0519035 -0.0179531 0.0147054 0.0725375 0.0808017 -0.00583099 0.0269533 0.0296428 0.0196672 -0.0201051 0.0982031 0.0130099 -0.0240583 0.00191066 -0.0404524 0.0480546 0.00585963
internal_weight=400.421 149.772 109.23 250.65 154.896 86.6452 40.0664 46.5788 40.5414 29.8415 101.974 16.5679 68.8509 16.7373 33.1229 8.00231 34.8466 30.3512 31.4692 9.27604 37.3817 31.543 22.1931 22.5851 11.6208 23.9735 9.54761 95.7533 12.5137 23.683
internal_count=1577 561 402 1016 620 323 147 176 159 114 400 63 268 62 132 30 127 110 124 36 144 122 88 79 46 96 38 396 47 92
is_linear=0
shrinkage=0.05


Tree=10
num_leaves=31
num_cat=0
split_feature=73 73 13 12 80 16 21 77 88 31 5 35 49 47 43 30 26 53 55 77 24 13 80 95 42 6 83 45 52 90
split_gain=252.018 54.0626 24.0625 24.5145 15.4757 16.6763 14.5789 14.5297 10.6162 10.1103 12.3625 8.98768 8.22252 7.99068 8.08977 7.74506 7.05595 8.56909 6.2245 5.89204 3.87305 3.85446 3.8044 3.76627 3.7482 3.66111 3.17707 3.02105 2.11934 1.95954
threshold=0.60929521001579856 0.57416179101237574 0.96364365527123452 0.84621496390862505 472.50000000000006 121.30891418457033 159.18669891357425 69.500000000000014 1.0365253098379663 270.30000000000001 1.338499737794691 13.477842768046282 21.229504958329233 0.041230437128980037 0.080220637748802878 337.50000000000006 414.75000000000006 0.14544684425011403 10.500000000000002 80.500000000000014 737.40000000000009 0.97110388999446018 641.50000000000011 0.89477662569761895 1.1342891440054017 1.1023434215391295 0.27056592548523839 0.7995454119016242 24.655340649324234 0.62504283588876608
decision_type=10 10 10 2 2 2 10 10 10 2 2 2 2 8 10 2 10 10 8 10 10 10 2 2 8 2 2 10 10 10
left_child=1 7 6 27 12 -6 19 15 11 10 22 -5 -2 -8 -15 24 17 25 -10 26 28 -18 -9 -21 -1 -13 -3 -4 -20 -26
right_child=4 2 3 8 5 -7 13 9 18 -11 -12 16 -14 14 -16 -17 21 -19 20 23 -22 -23 -24 -25 29 -27 -28 -29 -30 -31
leaf_value=-0.0030594776059314419 0.020146068844301764 -0.048017592183797593 -0.042367405767168596 -0.0089994787885049072 -0.023468548896426661 0.067019288656650647 0.06373438875966185 0.05776050439317474 0.047108191845375923 0.053163003075073823 -0.0415217536677965 0.013552312072236828 0.091482823481461736 0.038953119120478302 -0.044785176179099717 0.02186030980537837 0.030981564586523132 -0.01695338086031482 0.00081475827915769572 -0.023798956559044682 0.017516003810319727 0.076720420165489439 -0.0047893434222975768 0.032511593833958248 -0.045956820887017968 0.072764099120709511 -0.0052008931471960295 0.0012719420726126857 -0.041485758751935678 -0.026656846274498838
leaf_weight=6.0620667934417716 4.9936153888702384 31.936429738998413 13.480420202016832 6.822308123111724 7.3337810933589962 13.071212500333784 5.6866678595542881 4.3535574376583153 5.339454889297488 5.50506567955017 16.133518010377884 4.9060428142547625 65.68929785490036 4.3588668704032898 5.2740645706653595 4.2856262028217307 8.2465535998344439 7.1203704774379721 4.5346401333808917 5.8527856171131116 7.2876354455947867 22.113646119832993 4.1935528516769409 4.2403959929943085 135.59622502326965 6.3471026420593262 5.2887151837348929 5.383172631263732 7.3324144780635834 20.045658737421036
leaf_count=22 17 117 49 24 26 43 19 15 18 19 58 17 210 15 19 15 28 25 16 21 25 73 15 15 498 21 19 19 26 73
internal_value=0.0018983 -0.0170471 0.00437143 0.019653 0.0756791 0.0349199 -0.0196898 -0.0346181 0.0316962 -0.00260486 -0.0166298 0.0436088 0.0867944 0.0216874 -0.00679403 -0.0403893 0.0510064 0.0246201 0.004026 -0.0332576 -0.00972483 0.0656807 0.0297839 0.000656663 -0.0421634 0.0501623 -0.0422297 -0.0304768 -0.0265148 -0.0436572
internal_weight=448.815 357.727 161.552 98.9138 91.0879 20.405 62.6379 196.175 80.0502 30.1857 24.6806 55.556 70.6829 15.3196 9.63293 165.99 48.7337 18.3735 24.4941 47.3183 19.1547 30.3602 8.54711 10.0932 161.704 11.2531 37.2251 18.8636 11.8671 155.642
internal_count=1577 1281 566 341 296 69 225 715 273 107 88 188 227 53 34 608 164 63 85 172 67 101 30 36 593 38 136 68 42 571
is_linear=0
shrinkage=0.05


Tree=11
num_leaves=31
num_cat=0
split_feature=38 27 13 43 2 13 42 21 59 13 48 45 69 96 37 80 29 54 43 94 89 41 80 80 31 63 82 43 98 99
split_gain=346.7 58.9733 38.3165 34.2602 21.923 14.402 14.0995 12.0849 11.9028 9.19952 10.0333 7.23243 6.26256 5.59732 5.54008 4.79814 4.07313 3.81599 3.66435 3.50183 2.36696 1.85607 1.59841 1.5504 0.964874 0.530463 0.332124 1.2075 0.472469 0.412327
threshold=73.91520700222469 -110.49999999999999 0.96592742928535158 0.06435832875069171 29.500000000000004 0.97502768436276455 1.7286013761748769 132.88710784912112 0.55776297406645903 0.95474983159125981 0.17503509219962274 0.75735495431972966 0.55485026092850331 9553.2353437282491 51.21677966437138 629.50000000000011 317.50000000000006 0.53942188799961499 0.4406008178464661 0.77212831341029842 1.0029805356610904 2.2520541310042685 1179.5000000000002 481.50000000000006 447.4500000000001 0.2482311071620189 858.50000000000011 0.17857166938188246 3.5833333333333335 -340.99999999999994
decision_type=10 10 8 10 2 10 10 10 10 10 10 10 2 2 8 2 2 10 10 2 8 8 2 2 2 10 2 8 8 10
left_child=2 9 4 5 25 8 -5 11 16 10 -2 -6 -9 22 24 -15 -3 -10 26 -13 -11 -14 -8 -20 -12 -1 29 -28 -29 -4
right_child=1 3 18 6 7 -7 13 12 17 20 14 19 21 15 -16 -17 -18 -19 23 -21 -22 -23 -24 -25 -26 -27 27 28 -30 -31
leaf_value=-0.046471197889180832 -0.02565441314482746 -0.026226251217445463 -0.030385037338044419 0.0150909978529411 0.0014952678950877136 -0.035774849959246367 0.10749341466305268 0.029166344839341992 0.032893659091459665 -0.044953673305535832 0.035618256899653471 0.028628036428408849 -0.043546968556774479 0.0081148153508599653 0.0034955009615866804 0.08126997867874465 0.032760127244974062 0.094996283836480414 -0.029347390426048132 0.088397936031426108 0.0014037617687943022 -0.004139179132515429 0.052093194264607082 0.011214286789971214 0.085582567109121654 -0.017664954699361496 -0.0070500980424447511 -0.045835833795464631 -0.017687475170192184 -0.048693578164265103
leaf_weight=14.975277781486513 6.8115440160036114 4.8433373719453865 9.4954626411199552 5.683941736817359 5.5906182676553753 5.8396621942520133 64.369559749960899 7.0837029069662121 5.3688058555126181 8.3452869057655299 4.1104236394166911 5.1774903535842887 6.3437829464673969 4.0066855698823911 5.3412245959043512 4.9056841731071472 4.8773156851530075 8.6872532963752729 3.7890583723783484 8.1618238985538465 3.8198894560337076 5.4265802651643762 4.2214809954166403 3.8514175564050674 4.427686333656311 3.6788624823093405 3.6884367913007763 12.483654439449305 3.6872556507587495 166.58829636871815
leaf_count=61 26 18 39 21 21 23 221 27 19 33 15 19 25 15 20 17 18 30 15 29 15 21 15 15 16 15 15 51 15 687
internal_value=-0.000833639 0.0606817 -0.035394 0.077718 0.00106062 0.0301914 0.0940789 0.0228435 0.047183 0.00162352 0.0215899 0.0500047 -0.00557207 0.0996057 0.0449419 0.0525185 0.00366515 0.075036 -0.0454558 0.0688133 -0.0313964 -0.0271253 0.104881 -0.00996949 0.0677849 -0.041978 -0.0467819 -0.0351878 -0.0408214 -0.0478834
internal_weight=405.682 145.66 260.022 112.804 56.4381 29.6164 83.1874 37.784 23.7767 32.8561 20.6909 18.9299 18.8541 77.5034 13.8793 8.91237 9.72065 14.0561 203.584 13.3393 12.1652 11.7704 68.591 7.64048 8.53811 18.6541 195.943 19.8593 16.1709 176.084
internal_count=1577 522 1055 397 218 108 289 142 85 125 77 69 73 268 51 32 36 49 837 48 48 46 236 30 31 76 807 81 66 726
is_linear=0
shrinkage=0.05


Tree=12
num_leaves=27
num_cat=0
split_feature=12 77 94 56 10 72 81 59 68 53 36 88 10 98 75 42 13 36 33 13 19 89 55 15 15 90
split_gain=248.924 64.1961 28.6437 15.5873 13.8572 12.5301 11.4953 9.63433 7.66465 6.52668 6.46784 6.05211 3.0711 3.24853 2.89844 2.77388 7.06422 2.60499 2.55826 2.28499 2.15968 1.23335 0.479216 0.442414 3.82795 0.171393
threshold=0.74685379422874465 -34.249999999999993 0.61861194138537468 2.3715405282752031 0.4644201735275007 0.3931890024143278 0.13696052244290383 0.46289874117081425 0.73851236909637208 0.1178588879237444 3.5000000000000004 1.0276486288362665 0.29384837309429707 -35.816666666666656 349.25000000000006 1.951460416799826 1.1399170612991936 8.5000000000000018 0.033375711345199184 0.88367032144667568 728.50000000000011 0.80240514310549604 6.5000000000000009 324.37803649902349 315.95013427734381 0.6459661519122134
decision_type=2 10 2 10 2 10 2 8 2 10 2 10 2 10 10 8 10 2 2 10 2 10 8 2 2 10
left_child=7 2 18 8 6 -4 19 14 12 20 11 -11 13 -3 -1 16 -9 21 -2 -5 -7 -14 -18 24 -23 -25
right_child=1 3 5 4 -6 9 -8 15 -10 10 -12 -13 17 -15 -16 -17 22 -19 -20 -21 -22 23 -24 25 -26 -27
leaf_value=0.064814625578534915 0.046414785071999372 0.028541576654781766 -0.035966133953220222 0.0012166265205680656 0.085088541550939922 0.018094975335166106 0.064457683812576105 0.036880482666090252 0.019870877714872965 0.013301579455128498 -0.0037441666863079642 0.10389390904473372 -0.0060398206847215802 -0.034279008211117554 0.0013077803519070603 0.12879362171932912 0.065769515059017181 0.0041307728671700758 0.11264785378528129 -0.04094971605539615 -0.034292841735603943 -0.040862324187789831 0.12735469176878106 -0.043674909215140917 0.017310049408107413 -0.018339843311162451
leaf_weight=3.408771187067031 4.3098393082618704 3.0001575946807861 10.147121503949167 4.2783322334289613 3.5267753303050986 2.8592062294483211 3.0284128040075293 6.6091717928648022 5.0346084386110297 3.1525645107030851 3.6670530140399924 4.9386226385831833 2.7612279057502738 3.2564083039760581 3.1032994240522385 22.652749344706535 4.6304817944765064 2.9937253743410102 8.2685822844505292 11.251259624958037 3.1582991778850555 12.674137473106383 6.5940717160701761 144.08238114416599 2.9589537829160681 2.6648588478565207
leaf_count=15 20 16 58 23 17 15 15 29 26 16 19 23 16 18 15 88 19 17 35 64 17 75 26 862 17 16
internal_value=-0.000811132 -0.0213601 0.0354592 -0.0328988 0.00647938 0.00626016 -0.0120463 0.103243 -0.0377547 0.0309964 0.0513196 0.0739422 -0.0395221 -0.00437323 0.0387535 0.112432 0.0859142 -0.0407965 0.0950435 -0.0299623 -0.0103694 -0.0416309 0.109407 -0.0421954 -0.029473 -0.0433421
internal_weight=289.011 242.013 40.5013 201.511 22.0848 27.9229 18.558 46.9985 179.426 17.7757 11.7582 8.09119 174.392 6.25657 6.51207 40.4865 17.8337 168.135 12.5784 15.5296 6.01751 165.142 11.2246 162.38 15.6331 146.747
internal_count=1577 1385 203 1182 119 148 102 192 1063 90 58 39 1037 34 30 162 74 1003 55 87 32 986 45 970 92 878
is_linear=0
shrinkage=0.05


Tree=13
num_leaves=31
num_cat=0
split_feature=38 77 30 38 80 33 22 33 33 48 66 63 75 45 43 93 35 92 48 53 10 63 13 43 96 91 38 53 36 10
split_gain=117.726 33.3975 21.7619 18.7434 23.8201 11.2526 11.1235 12.6498 10.5949 11.4645 8.89252 7.82914 7.40746 6.60317 6.65876 7.03046 8.05113 7.77697 6.93098 6.8105 6.14864 5.60449 5.14804 5.09424 4.89694 6.93234 4.27242 4.23656 6.78013 4.34113
threshold=40.431877617904206 67.250000000000014 2.2500000000000004 91.45286241083825 468.50000000000006 0.27987707925636013 256.50000000000006 0.17474634292534472 0.43142618251313908 0.37404733235159449 1.314533220459686 0.20108023679677306 347.50000000000006 0.8729177827680682 0.4524623986620277 0.19343877551020411 16.895568966934949 0.42757728274601497 0.24423931035233298 0.17892010614331411 0.3500208855472014 0.11499407557346898 1.0567952449663935 0.074645434232928312 8453.084373982043 0.57599407368657185 58.89287679002279 0.09966334606008341 3.5000000000000004 0.43901064721478161
decision_type=8 8 2 8 2 2 10 2 2 10 10 8 10 10 10 2 2 2 8 10 2 10 8 10 2 10 10 10 2 2
left_child=1 2 20 4 -2 -3 12 27 9 23 -6 -7 22 14 15 26 17 19 21 -17 -1 -18 -4 -9 25 -20 -12 28 -8 -29
right_child=3 5 6 -5 10 11 7 8 -10 -11 13 -13 -14 -15 -16 16 18 -19 24 -21 -22 -23 -24 -25 -26 -27 -28 29 -30 -31
leaf_value=0.032229480293108154 -0.039560517932921688 -0.031106526057783204 0.060430093211037407 -0.039541991641659467 0.045462996321655957 -0.020557339753817822 0.048849745736464514 0.084376462345239572 -0.019090928917599146 -0.0039915736293984786 0.019599276469560188 0.048915663183089361 0.090535652114690002 -0.032919872515228675 -0.034875064381113832 0.089439724660183809 0.017364201567573814 -0.003442159380031454 0.0096819000372426415 0.013950231755503768 0.10062101618300967 -0.041035225901224964 0.002864812069268515 0.023699782869744751 -0.010012037814598555 0.081938776839399138 -0.037040399520119317 0.0044382416002124222 -0.02080888480428978 -0.043966149999350557
leaf_weight=5.3776310533285168 48.672342017292976 20.870457783341408 7.7059476971626291 92.834647327661514 9.8014158606529218 5.763137519359586 7.366619601845743 16.959964871406562 5.2353046089410773 6.3478557020425788 3.9292738586664191 9.8328759968280792 11.75119863450527 13.963394552469252 9.0997133553028089 7.8276542425155657 5.6153077930212048 6.4010419845581046 8.9347758442163485 5.1626813560724258 19.59899640083313 10.748873919248579 7.2003499269485483 5.5093765407800666 7.7262756824493399 4.5984691083431235 10.664448857307432 10.566866084933283 5.2389237284660339 7.0270445197820655
leaf_count=19 208 86 27 396 37 23 27 59 20 24 15 36 41 57 37 29 22 25 35 20 65 44 27 20 31 17 43 40 19 28
internal_value=-0.000558201 0.0338529 0.0468907 -0.0219221 -0.011054 -0.00772554 0.0348455 0.0229664 0.0434007 0.0550132 0.00247588 0.0235518 0.0616119 -0.00240327 0.00321469 0.00846861 0.0163809 0.0416862 0.00259694 0.0625799 0.0877034 -0.0211498 0.034552 0.0711426 0.0210046 0.0381827 -0.0215116 -0.000727561 0.0204977 -0.0162194
internal_weight=398.333 152.353 115.886 245.98 153.146 36.4665 90.9095 64.252 34.0525 28.8172 104.473 15.596 26.6575 94.6719 80.7085 71.6088 57.0151 19.3914 37.6237 12.9903 24.9766 16.3642 14.9063 22.4693 21.2595 13.5332 14.5937 30.1995 12.6055 17.5939
internal_count=1577 561 416 1016 620 145 332 237 123 103 412 59 95 375 318 281 223 74 149 49 84 66 54 79 83 52 58 114 46 68
is_linear=0
shrinkage=0.05


Tree=14
num_leaves=31
num_cat=0
split_feature=73 73 13 12 80 96 79 19 88 58 35 27 49 26 53 74 58 17 79 9 39 45 13 34 51 10 78 45 35 41
split_gain=222.051 49.9018 21.6167 22.3282 13.2102 12.7059 12.6414 9.55758 9.54282 8.16023 8.05445 6.90119 6.85738 6.10029 7.83013 6.00715 5.85331 5.65806 4.9523 4.27105 5.49979 12.2793 9.51738 5.22545 4.23347 6.50703 4.16676 3.91524 3.73646 5.08936
threshold=0.60929521001579856 0.57416179101237574 0.96364365527123452 0.84621496390862505 472.50000000000006 9269.4360441675872 1.295401691331924 651.50000000000011 1.0365253098379663 0.10429372677701622 13.477842768046282 -341.74999999999994 21.229504958329233 414.75000000000006 0.14544684425011403 0.27464633992274001 0.26953326950699802 245.15000000000003 1.0445931434934779 0.84354954939436111 17.03864732396266 0.62523090596440667 0.98327422019383437 0.19651539855401387 0.15627567569316084 0.37503952837286175 36.050000000000189 0.72503487357735696 15.534637645294476 3.6161297834533754
decision_type=10 10 10 2 2 2 10 2 10 10 2 8 2 10 10 10 8 2 10 2 10 10 10 2 10 2 10 10 2 10
left_child=1 6 5 -4 12 24 11 26 10 -7 -5 -1 -2 14 -12 18 -11 -8 -10 -13 -21 -22 28 -24 25 -3 -6 -17 29 -23
right_child=4 2 3 8 7 9 17 -9 15 16 13 19 -14 -15 -16 27 -18 -19 -20 20 21 22 23 -25 -26 -27 -28 -29 -30 -31
leaf_value=0.021257857337237757 0.019213268906094372 0.031581594093231857 -0.029773354837606642 -0.0088932823073521461 -0.035888966254382391 0.058858019128665055 -0.017165586279781011 0.060995533220873283 -0.011047220377288142 -0.034686436935241746 0.047406503292681867 -0.049934721563141493 0.084258207559235423 0.061297534467104453 -0.016634398010070422 0.012656892038036466 0.030488632070522659 0.039989766717851122 0.050437765046404327 -0.044223848415332466 0.039286399337194466 0.015946230016315708 0.045634021252602575 -0.023438427391352802 -0.046174303807159645 -0.031470833773747785 0.025225540838437324 -0.041527589515753555 -0.048595841477105023 -0.044089090047563118
leaf_weight=4.306056410074234 5.0353299081325522 4.848572343587878 18.610188901424408 6.8099565207958213 4.5533829629421252 5.9593388140201595 8.6593311131000501 11.502235412597654 4.8501150608062762 7.3803062438964817 11.441354662179949 61.001968160271645 67.556837528944016 31.05892950296402 7.0816574394702902 4.9388604760169965 4.8937433660030374 6.9274379909038535 7.4496296048164368 52.573109596967697 6.5146548748016349 6.3012630343437177 5.0600488185882551 4.1454194188117981 25.556581288576126 13.132913202047346 4.6339578628540039 7.3215372264385223 30.331984758377075 6.0422599315643311
leaf_count=15 17 17 68 24 16 20 31 37 17 27 38 231 210 101 25 17 17 24 25 198 23 23 18 15 96 48 16 26 114 23
internal_value=0.00179166 -0.016364 0.00413133 0.0184794 0.0699799 -0.0189207 -0.0335302 0.0325223 0.0298003 0.0155262 0.0409648 -0.0373312 0.0800688 0.0478531 0.0233247 0.00356598 -0.00836149 0.0091162 0.027185 -0.0389127 -0.0324618 -0.0213062 -0.0295138 0.0152804 -0.0333714 -0.0137011 -0.00561339 -0.020392 -0.0393049 -0.0145433
internal_weight=446.479 353.197 161.334 99.5622 93.2817 61.7715 191.864 20.6896 80.952 18.2334 56.3919 176.277 72.5922 49.5819 18.523 24.5601 12.274 15.5868 12.2997 171.971 110.969 58.3956 51.881 9.20547 43.5381 17.9815 9.18734 12.2604 42.6755 12.3435
internal_count=1577 1281 566 341 296 225 715 69 273 64 188 660 227 164 63 85 44 55 42 645 414 216 193 33 161 65 32 43 160 46
is_linear=0
shrinkage=0.05


Tree=15
num_leaves=30
num_cat=0
split_feature=38 27 13 47 2 13 13 21 82 90 79 88 13 29 42 51 69 43 64 48 59 10 67 58 84 43 99 29 22
split_gain=311.082 50.7344 36.3197 20.4533 20.3437 17.8332 13.8916 12.0895 9.67671 9.01169 7.29374 7.07519 6.91806 6.21057 5.20022 4.49345 4.03764 3.56376 3.52643 3.4626 3.28322 2.57342 1.42984 0.644805 0.5499 0.37447 0.361355 0.343987 0.26279
threshold=73.91520700222469 -53.499999999999993 0.96592742928535158 0.066826993560610351 27.500000000000004 0.98674511001709708 0.97234880325860173 132.88710784912112 1128.5000000000002 0.60177681699246588 1.2806415071233215 0.98949568597552051 0.89288183517297215 413.50000000000006 2.0522845832469394 0.25136513062439519 0.54813733382767038 0.4406008178464661 0.63445568198700786 0.34068209626209295 0.53410186011499727 0.34434740718614815 2248.509077802913 0.36629762993029813 0.76940428702534247 0.059944314469357378 -340.99999999999994 392.50000000000006 271.10000000000008
decision_type=10 10 8 10 2 10 10 10 2 10 10 10 10 2 10 10 2 10 10 10 10 2 2 10 2 8 10 2 10
left_child=2 3 4 8 -1 10 12 9 18 16 14 -10 -5 19 20 -12 -6 25 27 28 -3 -13 -19 -16 -14 -4 -27 -2 -9
right_child=1 5 17 6 7 -7 -8 13 11 -11 15 21 24 -15 23 -17 -18 22 -20 -21 -22 -23 -24 -25 -26 26 -28 -29 -30
leaf_value=-0.045894674875165242 -0.045714619937865873 0.01814526327491844 -0.023137973189220867 0.024275491838243325 -0.023047551522115517 -0.01370754791324471 -0.018918050787243262 -0.018546383340930343 -0.022839328689597746 0.07784286334215311 -0.0030614058347731843 0.015590828163948391 0.047358353491970845 0.035266563480461796 0.099703694747619628 0.065749473190772678 0.035635464615751067 -0.028481763472855994 0.0067638865953441709 0.011403438735638163 0.073740510291213146 0.072694251709562535 0.010593557491904248 0.053092396882324033 0.093751128022499602 -0.02943254879573633 -0.047171022653992721 -0.019152171081089478 -0.044134503347482527
leaf_weight=15.663349017500876 10.491058498620989 5.1989144086837751 4.7691917866468421 8.0569080710411125 4.2580233961343783 4.5002958178520194 5.4542729556560507 3.7531126141548175 4.3807314783334723 9.9074465334415418 4.0831519663333875 4.1343586742877942 4.3877325952053097 5.3251948058605185 57.761091589927673 4.3944341838359833 5.7883155345916748 3.6989726424217215 5.0118009001016608 4.632631689310073 7.1090320944786072 4.5425671935081482 3.8837542086839676 4.4955917596817008 11.651203393936155 9.2532993257045728 175.39471642673016 3.8011590987443915 7.0835537910461426
leaf_count=66 42 18 20 29 16 18 22 15 17 34 15 15 15 20 188 15 21 15 19 18 24 16 15 15 39 39 748 15 28
internal_value=-0.000850743 0.0561439 -0.034553 0.0210207 0.000825803 0.0804658 0.0503755 0.019454 -0.00649037 0.0462822 0.0856717 0.0256138 0.0661894 -0.00723198 0.0907954 0.0357812 0.0109285 -0.0446368 -0.0283983 -0.0231148 0.053385 0.0499086 -0.00956557 0.0972304 0.0845838 -0.0459832 -0.0464454 -0.0403645 -0.037588
internal_weight=402.866 149.454 253.412 61.9118 56.4116 87.5425 29.5501 40.7483 32.3617 19.9538 83.0422 13.0577 24.0958 20.7945 74.5646 8.47759 10.0463 197 19.304 15.4693 12.3079 8.67693 7.58273 62.2567 16.0389 189.417 184.648 14.2922 10.8367
internal_count=1577 522 1055 229 218 293 105 152 124 71 275 48 83 81 245 30 37 837 76 61 42 31 30 203 54 807 787 57 43
is_linear=0
shrinkage=0.05


Tree=16
num_leaves=22
num_cat=0
split_feature=12 79 95 69 56 10 59 39 31 2 3 63 79 27 95 97 52 82 54 82 51
split_gain=216.574 67.8063 22.3165 21.2789 13.626 13.7289 7.45104 7.01255 6.94776 5.73338 4.88548 3.66331 3.13252 2.66628 2.45801 4.70389 1.99843 5.36451 1.73729 0.892425 0.132956
threshold=0.74685379422874465 0.89237810244675242 0.50842827687526737 0.472292058697594 2.3715405282752031 0.4644201735275007 0.46289874117081425 14.684162012283057 485.79999999999978 25.500000000000004 14.750673661186228 0.22502482259874804 1.1204416501669674 -94.499999999999986 0.83693000080366486 4601.4959367797646 20.331153367733631 692.50000000000011 0.73556970569578273 1520.5000000000002 0.70841938155818929
decision_type=2 10 2 2 10 2 8 8 2 2 2 8 8 10 2 2 10 2 10 2 10
left_child=6 2 8 -3 10 9 12 -4 11 -6 -5 -2 -1 -11 -8 -16 17 18 -12 20 -18
right_child=1 3 7 4 5 -7 14 -9 -10 13 16 -13 -14 -15 15 -17 19 -19 -20 -21 -22
leaf_value=-0.00051155178409702099 0.041360821765376296 0.057042174923134736 0.035741986394329198 0.012436862956368583 0.037401400915991437 0.079055929339559877 0.10972280319653599 -0.034087369302574243 0.019774815920474156 0.0060857675236313385 -0.041191668005776366 0.1088470623302448 0.063890170804179344 -0.040664770773563647 0.024153701931503346 0.09461636496812946 -0.043335357229508716 0.032381924068954342 -0.001975950872632754 -0.013048055970121467 -0.019119195174251612
leaf_weight=3.2780515104532233 4.585332691669465 5.6968286484479895 5.0189684182405445 4.0827812254428855 3.1439667940139833 3.7178376764059058 32.286573529243469 7.9788404554128656 4.9564708024263373 3.7588816881179836 14.298681557178503 10.631442859768867 3.403288334608078 11.120566919445986 5.0114081054925901 5.8355584740638733 144.88759389519691 2.8250269293785086 3.5911988615989676 3.6124651283025733 2.7962826341390601
leaf_count=16 21 27 24 21 16 17 120 45 24 20 85 43 14 65 20 22 902 16 21 21 17
internal_value=-0.000743194 -0.0207699 0.0445967 -0.0315891 -0.0344154 0.00281623 0.0929529 -0.00649639 0.0762684 -0.0162394 -0.0390021 0.0923157 0.0363398 -0.029215 0.1007 0.0668486 -0.0402878 -0.0237343 -0.0338409 -0.0423835 -0.0430085
internal_weight=286.518 236.703 33.1711 203.532 197.835 21.7413 49.8149 12.9978 20.1732 18.0234 176.094 15.2168 6.68134 14.8794 43.1335 10.847 172.011 20.7149 17.8899 151.296 147.684
internal_count=1577 1385 157 1228 1201 118 192 69 88 101 1083 64 30 85 162 42 1062 122 106 940 919
is_linear=0
shrinkage=0.05


Tree=17
num_leaves=31
num_cat=0
split_feature=38 77 30 38 69 34 33 22 33 29 96 53 6 43 66 27 26 41 41 47 89 41 90 7 68 6 43 51 12 23
split_gain=105.569 29.1414 18.7238 17.9528 23.0511 12.4771 13.0253 11.2336 10.3982 8.65335 8.42279 7.88869 7.06522 6.39067 5.97518 5.96348 5.87203 10.8098 8.36846 7.62944 6.82869 5.59535 5.83399 5.57849 5.23547 4.2245 4.13329 3.93429 4.09409 3.79882
threshold=40.431877617904206 67.250000000000014 2.2500000000000004 91.45286241083825 0.60263593164653229 0.14282154426684704 0.44991113801702171 261.50000000000006 0.27987707925636013 259.25000000000006 5763.0979073211311 0.051896193874911144 1.2055422975432275 0.4524623986620277 1.7561380582278305 1.2500000000000002 415.50000000000006 2.5994124074463634 2.7604506191392284 0.057779924902986605 0.9953078945546322 2.0039728474850285 0.60882465140689523 0.88516483516483535 0.7333171288473187 1.2346373213233821 0.12001924479308616 0.8640293420584787 0.91939742788378731 669.50000000000011
decision_type=8 8 2 8 2 2 2 10 2 2 2 10 2 10 10 10 10 10 10 10 8 10 8 2 2 2 10 8 2 10
left_child=1 2 24 4 10 7 12 9 -3 -4 27 14 -7 16 -9 -10 17 25 20 -20 21 22 -18 -19 -1 -12 -23 -2 -29 -5
right_child=3 8 5 29 -6 6 -8 11 15 -11 13 -13 -14 -15 -16 -17 18 23 19 -21 -22 26 -24 -25 -26 -27 -28 28 -30 -31
leaf_value=0.090627214845019566 -0.035077787112133357 -0.030313340275336043 8.8629393714277714e-05 -0.041451232852867545 -0.038033598830450627 0.072961070926872762 -0.018933909579952668 -0.011834533301216719 -0.012416624524358617 0.066984263995227666 0.035248433071015238 -0.021273286496618998 0.016615490488113571 -0.03499192489000038 0.064901837127532336 0.046928407868019863 0.066974945596611504 0.018773053716761592 0.02806888948577841 -0.041962237471076594 0.062679896381968178 -0.033888286726608478 -0.009869031034172181 0.086971406240193283 0.022995310187542299 -0.021884124107194647 0.021119971241584684 0.038066622043691142 -0.02393505447085563 -0.00088559288520588693
leaf_weight=21.582515507936481 16.431668817996982 20.432563751935959 7.5429144948720959 83.757558777928352 49.631546869874001 29.7958924472332 5.2163966596126548 4.0004274994134921 6.741178333759307 12.475282832980154 4.1194845736026782 20.840857148170471 7.6458957493305197 5.847723811864852 4.872807502746582 9.0171420723199827 4.8706370592117354 5.4327491819858542 4.6810753941535976 12.341813758015631 6.4056295007467261 8.2363126277923566 3.8725475221872339 8.2802474498748762 4.2183411419391623 7.7942193746566772 4.5748751014471045 4.0021641254425031 4.72499118745327 6.2403769195079795
leaf_count=69 68 86 28 370 220 100 20 15 26 43 15 81 28 24 17 33 18 21 18 51 24 33 15 30 15 31 18 15 19 26
internal_value=-0.000476869 0.0316926 0.0436289 -0.0211092 -0.010469 0.0324829 0.0520603 0.0149952 -0.00741374 0.0429813 0.00323357 -0.0046444 0.0621864 0.0114888 0.0326112 0.0223154 0.0157731 0.034397 0.00464586 -0.0222157 0.0212024 0.00664335 0.0354195 0.0630652 0.0808402 -0.000929244 -0.0141379 -0.0213342 0.0054885 -0.0386791
internal_weight=395.628 154.382 118.191 241.246 151.248 92.3905 42.6582 49.7323 36.1909 20.0182 101.616 29.7141 37.4418 76.4573 8.87324 15.7583 70.6096 25.6267 44.9829 17.0229 27.96 21.5544 8.74318 13.713 25.8009 11.9137 12.8112 25.1588 8.72716 89.9979
internal_count=1577 561 416 1016 620 332 148 184 145 71 400 113 128 298 32 59 274 97 177 69 108 84 33 51 84 46 51 102 34 396
is_linear=0
shrinkage=0.05


Tree=18
num_leaves=31
num_cat=0
split_feature=73 73 13 21 33 77 13 12 43 31 5 6 13 82 16 76 30 69 66 77 13 43 73 69 47 63 42 88 66 82
split_gain=197.662 35.5274 22.4548 17.9951 14.5666 13.1056 12.6978 10.7344 9.27331 8.64852 11.2475 7.85451 8.41159 7.04152 7.44195 7.22852 7.0213 6.9961 6.49536 7.78729 5.74412 5.56788 5.25708 4.52938 3.63616 4.05089 3.55174 3.44906 3.42523 3.05895
threshold=0.60171777621231581 0.57416179101237574 0.96895747044735647 150.82167053222659 0.20938786437813783 69.500000000000014 1.104373977186403 0.85107231355580437 0.38255948213136398 270.30000000000001 1.338499737794691 1.0983387526577217 0.9857789631603987 780.50000000000011 127.24195480346681 286.50000000000006 337.50000000000006 0.56947239721050225 1.5956591340888395 9.5000000000000018 0.97154659381214492 0.13287146044162484 0.58538194767981644 0.59902594121697239 0.037441588785046734 0.34172476985302619 1.1342891440054017 1.0256664138105995 1.8676632387045438 911.50000000000011
decision_type=10 10 10 10 2 10 10 2 10 2 2 2 10 2 2 10 2 2 10 8 10 10 10 2 10 10 8 10 8 2
left_child=1 5 23 4 18 16 13 -5 17 10 29 -6 21 15 -15 -4 26 20 19 -3 -9 -13 -19 -2 -20 -26 -1 -24 -16 -7
right_child=2 3 6 7 11 9 -8 8 -10 -11 -12 12 -14 14 28 -17 -18 22 24 -21 -22 -23 27 -25 25 -27 -28 -29 -30 -31
leaf_value=-0.0018351963293873298 -0.037649588296325892 -0.042567456154900228 0.011381845932163549 -0.025334439334779787 -0.024832842804384581 0.052697885102676159 -0.0052892426587665643 -0.020820068150137823 -0.027223941673663456 0.048570568844966661 -0.039936399659933251 0.029615739130282755 0.066961816370070981 -0.017439398586795076 0.075992567532793875 0.078136489731649161 0.020721371487255912 0.085904527171751857 -0.00097825088403500206 0.0327420250229494 0.04537550450684287 -0.034832655097189386 0.05728614823593188 0.019787235618139887 -0.047360485035522246 -0.0014081453964008268 -0.04155275155757357 0.011708724571369211 0.020829408029250096 -0.0035156566521174202
leaf_weight=5.9489948749542227 5.5224066227674466 4.5205167531967145 4.6669496893882743 8.3521146178245527 7.6079986095428493 4.5118710398674065 6.0730727314949027 6.5288954079151136 4.7342227399349204 5.6824496984481803 15.54254576563835 7.2510520219802874 8.5759675204753858 4.3682923018932369 7.0283420085906956 78.038118809461594 4.3268055617809287 9.3334891796112078 6.6453162133693686 8.1006922423839551 4.8547404110431671 4.6519159078598022 8.4230291843414324 6.3225442618131638 33.983316794037819 5.6302257031202307 147.46374978125095 8.5751473903655988 5.9037963747978219 4.1048289686441422
leaf_count=22 20 17 15 31 27 15 21 23 17 19 58 25 28 15 22 240 15 30 24 28 16 17 27 22 129 20 571 29 19 15
internal_value=0.00168189 -0.0184319 0.0568639 0.000863147 -0.0129106 -0.0325325 0.0640943 0.0242364 0.0343483 -0.00206092 -0.015427 0.0163287 0.0320646 0.0683184 0.0360798 0.0745506 -0.0382479 0.0425807 -0.0268981 0.00462373 0.00879465 0.00368053 0.0563308 -0.00783756 -0.0354144 -0.0410248 -0.0400345 0.0362215 0.054112 0.0283379
internal_weight=443.273 325.35 117.924 137.769 86.967 187.581 106.079 50.8016 42.4495 29.8417 24.1592 28.0869 20.4789 100.005 17.3004 82.7051 157.74 37.7153 58.8801 12.6212 11.3836 11.903 26.3317 11.845 46.2589 39.6135 153.413 16.9982 12.9321 8.6167
internal_count=1577 1203 374 488 315 715 332 173 142 107 88 97 70 311 56 255 608 125 218 45 39 42 86 42 173 149 593 56 41 30
is_linear=0
shrinkage=0.05


Tree=19
num_leaves=31
num_cat=0
split_feature=38 28 13 2 38 9 74 49 21 90 66 65 42 69 77 53 53 80 53 51 82 38 89 34 89 13 99 48 54 60
split_gain=279.727 43.3354 34.463 18.8336 18.1453 13.2816 12.8613 11.8034 10.7675 8.01282 7.44203 6.85857 6.36518 5.97265 5.46825 5.20935 5.06176 4.303 2.99462 2.6012 2.38693 3.21667 2.38129 1.83904 1.80503 0.386842 0.360707 0.300049 0.0669533 0.0105653
threshold=73.91520700222469 -177.50000000000043 0.96592742928535158 27.500000000000004 91.45286241083825 0.91690049395100826 0.39641905015448303 53.191401977421037 132.88710784912112 0.59008779513035947 2.8763259791081359 22.500000000000004 2.1755846846097522 0.55485026092850331 -35.499999999999993 0.12187412048209439 0.15912077875773992 755.00000000000011 0.058623741575328771 0.066349313270175417 858.50000000000011 62.32350153561049 1.0029805356610904 0.14831946916792188 0.99760798545985596 1.0139479978332957 -340.99999999999994 0.34068209626209295 0.49226505061581738 18.500000000000004
decision_type=10 10 8 2 10 2 10 2 10 10 10 8 10 2 10 8 10 2 10 10 2 10 8 2 8 8 10 8 8 8
left_child=2 5 3 -1 6 7 10 12 9 -5 15 29 -2 17 -6 -3 -12 -10 -16 -11 26 25 -7 -17 -15 -22 27 -4 -14 -9
right_child=1 4 20 8 14 22 -8 11 13 19 16 -13 28 24 18 23 -18 -19 -20 -21 21 -23 -24 -25 -26 -27 -28 -29 -30 -31
leaf_value=-0.045215704395364015 0.009445515437648733 0.013145798526336542 -0.015784936647321366 -0.0013428687854906288 0.026242725966008601 -0.044661962408481574 -0.024706392092316135 -0.041443060308123433 0.055134552665830588 0.02363715052686638 -0.0245144667545544 0.035592440265739149 0.091277132073919576 -0.039521065705665138 0.046144981977198407 0.091790036502116826 0.042607527931802489 -0.011376383664657432 0.090343559924670691 0.078322130019391464 -0.040886903002245303 0.0077274332606577303 0.0013410389342128066 0.042461224849110829 0.00076019799055116616 -0.015084543889389299 -0.046685863361296313 -0.039083893040744416 0.047148415456800444 -0.020431814224065467
leaf_weight=15.173411861062048 5.433194741606715 4.1879937052726808 5.0919710248708698 6.8176832944154766 5.1619516611099234 9.2486023008823359 6.1908296048641196 4.1867955476045564 4.1134090721607226 4.2030657827854148 4.337892606854437 4.6546895802021035 5.4224587678909275 8.6610063910484278 7.6245708763599387 11.322366029024126 5.0652828216552734 4.0960752964019775 61.886686593294144 9.3484686911106092 12.069619581103325 5.0965183079242697 3.7986957430839547 5.6094674319028845 3.8530762046575555 3.4656094610691079 160.40196792781353 4.1855616122484216 4.3790436983108529 3.8858449161052713
leaf_count=66 20 15 22 25 18 38 23 16 15 15 16 17 18 35 25 37 17 16 198 31 52 21 15 19 15 15 709 18 15 15
internal_value=-0.000861049 0.0521963 -0.0337313 0.000655466 0.0682545 0.00799335 0.0379126 0.0271764 0.0182651 0.043193 0.0509941 -0.00826957 0.0554739 -0.00709706 0.0824743 0.0669045 0.0122627 0.0243174 0.0862187 0.0641513 -0.0438482 -0.0256395 -0.0321263 0.0787268 -0.02798 -0.0363913 -0.045899 -0.0290764 0.0777519 -0.0346959
internal_weight=398.974 152.396 246.577 56.2662 111.387 41.0093 36.7138 27.962 41.0928 20.3692 30.523 12.7273 15.2347 20.7236 74.6732 21.1198 9.40318 8.20948 69.5113 13.5515 190.311 20.6317 13.0473 16.9318 12.5141 15.5352 169.68 9.27753 9.8015 8.07264
internal_count=1577 522 1055 218 368 154 127 101 152 71 104 48 53 81 241 71 33 31 223 46 837 88 53 56 50 67 749 40 33 31
is_linear=0
shrinkage=0.05


Tree=20
num_leaves=31
num_cat=0
split_feature=12 79 56 95 40 68 11 69 66 9 21 79 29 78 59 5 35 27 3 80 40 46 17 59 12 27 79 73 34 69
split_gain=205.903 46.2561 23.8235 16.5439 14.4815 12.3262 12.8205 10.7413 7.80767 7.45957 7.04552 6.52061 5.92531 5.25177 4.21855 3.66453 2.55552 2.00491 1.71285 4.85112 1.20792 1.18139 0.743538 0.707488 0.674461 0.649509 0.270344 0.515173 0.255949 0.0210557
threshold=0.75914445442747336 0.88879755021895324 2.5632377369040329 0.50842827687526737 13.653654058046216 0.83219483731846655 1989.5000000000002 0.49836202372186561 2.8221465816026252 1.0629624185107869 192.85947418212893 0.74455099778270528 310.25000000000006 -215.00000000000003 0.62652173767337016 1.7856316976634925 24.590685481405384 0.75000000000000011 18.684186637502556 470.50000000000006 3.7343657833936086 0.40682870370370378 170.50000000000003 0.61698824125757257 0.6264544068744119 -96.749999999999986 1.6193423625488845 0.61792522098945302 0.28126506731748718 0.60860289967488546
decision_type=2 10 10 2 10 2 2 2 10 2 10 8 2 10 10 2 2 10 2 2 10 10 2 8 2 10 10 10 2 2
left_child=5 3 7 10 12 6 14 8 -3 18 16 -12 -4 -5 -1 23 -2 24 19 29 -19 22 -20 -6 -7 -15 28 -28 -24 -9
right_child=1 2 4 13 15 17 -8 9 -10 -11 11 -13 -14 25 -16 -17 -18 20 21 -21 -22 -23 26 -25 -26 -27 27 -29 -30 -31
leaf_value=-0.024473026823866151 0.10370331129131703 0.062476692104420806 0.10650609407720574 0.036840679079173502 -0.037931930309669015 0.10864787465997215 0.10208083596598849 -0.038972228866372194 -0.033562252153429339 0.03623659001749998 0.061844911587403129 -0.019264003673476499 0.013730113240977017 -0.038583394034427843 0.038402050541154073 0.028917370452569868 0.039259979768100084 0.033284448519110228 -0.014920556833393959 0.030334746301224697 0.080711560028888241 -0.00601175569246963 -0.043062704917450942 -0.0050832848584204714 0.055964584034709421 -0.0070209048913130352 -0.004835130340104514 -0.03416857316632229 -0.015776815549528162 -0.016791297746111118
leaf_weight=5.4787771254777891 7.3572724461555534 3.9774116277694693 4.1700933724641827 3.1613551080226889 5.6405690610408756 30.711027830839157 3.9212865978479376 7.4633874297142011 2.8420809954404831 2.587795376777648 3.9439036548137638 4.2487470358610162 3.082142099738121 6.1134577840566626 3.5368441641330719 2.9342422485351554 4.1118777692317963 4.7692926824092847 3.9987914264202109 2.9084043204784384 5.0396420955657959 2.7601242363452902 139.91897550225258 2.6365354061126718 4.1217406243085852 2.7900233119726172 2.7065745592117301 3.867863342165947 2.372645065188407 2.4594295024871826
leaf_count=26 28 19 19 16 32 106 16 44 15 13 17 20 15 34 15 15 18 17 25 16 19 16 902 15 16 15 17 26 15 15
internal_value=0.000500674 -0.0208947 -0.0299515 0.0343527 0.0231246 0.084152 0.0371702 -0.0355597 0.0232782 -0.0380272 0.0615635 0.0222616 0.0735188 -0.01131 0.00156444 -0.0128247 0.0856008 0.0966543 -0.0393752 -0.0194751 0.0628644 -0.0408811 -0.0414675 -0.0291443 0.10415 -0.0304005 -0.0420763 -0.0243252 -0.042721 -0.0355151
internal_weight=285.632 228.054 196.327 31.7266 18.4636 57.5786 12.9369 177.863 6.81949 171.044 19.6618 8.19265 7.25224 12.0648 9.01562 11.2113 11.4692 44.6417 168.456 12.8312 9.80893 155.625 152.865 8.2771 34.8328 8.90348 148.866 6.57444 142.292 9.92282
internal_count=1582 1367 1219 148 96 215 57 1123 34 1089 83 37 34 65 41 62 46 158 1076 75 36 1001 985 47 122 49 960 43 917 59
is_linear=0
shrinkage=0.05


Tree=21
num_leaves=31
num_cat=0
split_feature=37 9 39 68 19 80 38 69 22 40 53 26 33 63 51 58 23 80 13 96 30 29 52 5 96 39 63 40 63 87
split_gain=109.751 28.5234 33.2667 20.1148 13.928 11.6379 17.1471 10.5743 10.4332 7.3638 7.20359 6.73535 6.22499 7.62586 5.82171 5.77824 8.82475 4.63731 4.67069 4.62385 4.54452 4.47668 4.4162 4.39409 4.19645 7.38786 4.2472 4.01554 3.91891 3.44393
threshold=30.988936627751887 0.97085244685290284 7.4520541914390064 0.61631084051342921 1010.0000000000001 544.50000000000011 92.819452180907334 0.46263181345599214 289.50000000000006 9.598020043155449 0.28073700333310192 380.50000000000006 0.27335232368418211 0.15577626852947488 0.08860443052263603 0.30362042313237314 471.50000000000006 363.50000000000006 1.069147093856986 11329.680485904626 108.25000000000001 344.50000000000006 14.554340526703774 1.1222246777092126 7618.3798063714194 40.581897211718875 0.16584163026545387 15.484475411657156 0.3457448832006258 0.21831453766625245
decision_type=8 2 10 2 2 2 8 2 10 10 10 10 2 10 8 8 8 2 8 2 2 2 8 2 2 10 8 10 8 2
left_child=1 2 22 17 7 -2 10 -4 11 -9 14 -5 13 21 -7 24 29 -3 27 -8 -14 -11 -1 -15 -16 -26 -27 -19 -10 -17
right_child=5 3 4 8 -6 6 19 9 28 12 -12 -13 20 23 15 16 -18 18 -20 -21 -22 -23 -24 -25 25 26 -28 -29 -30 -31
leaf_value=-0.037990089360665835 -0.037851860341708461 -0.043136261258205751 -0.014504467927334572 0.022303582684233023 -0.030666356714576366 0.057480632480004207 -0.038389579801402597 0.078183000558029292 -0.040029451334629595 0.072781561556919741 -0.023491450197386146 0.090339929567541721 0.082563758517056537 0.026720261824171587 -0.024502324702073121 0.017408748276882824 0.056579205306730988 0.030835632870248094 -0.041283361196417463 0.0059318312178231079 0.021720942997216778 0.014967489536070281 0.019025092537425473 -0.023686165163062625 0.055087495006250077 0.024658195477090025 -0.032766652762470504 -0.027274240612842549 0.023225764691515896 -0.039775714489347469
leaf_weight=11.562522441148754 83.423397824168205 15.942526057362555 4.4466897845268241 8.0985404998064059 4.0509603917598715 4.9648861587047568 54.340859740972519 40.590857088565826 4.1621860712766638 10.851177498698236 20.057554915547371 7.2311496883630744 15.045720845460893 9.8774125576019305 16.525985717773438 4.775493651628496 9.9897262752056104 7.9748975634574908 5.0723532587289801 6.3079529106616965 4.8932961225509635 5.5334746688604346 3.9528577029705056 6.2258082628250113 5.0620685219764736 4.2290852665901157 7.6608919650316247 3.5377771109342575 3.7536361813545227 3.9304224848747253
leaf_count=47 373 68 17 29 16 19 248 132 17 36 83 25 50 34 67 18 37 30 21 27 17 20 15 24 19 16 31 15 15 16
internal_value=9.2414e-05 0.0298565 0.0437802 0.000383223 0.0541425 -0.0231822 -0.0140954 0.0579431 0.0350704 0.0615238 0.00158683 0.0579638 0.0474038 0.0322455 0.0106428 0.00518849 0.0267177 -0.0247123 -0.00555614 -0.0337584 0.0693826 0.0552405 -0.0231919 0.00698673 -0.00726062 0.00997633 -0.0120131 0.0122262 -0.0107935 -0.00984626
internal_weight=394.072 172.804 117.031 55.7731 101.515 221.268 137.845 97.4644 23.2455 93.0177 77.1961 15.3297 52.4269 32.4879 57.1386 52.1737 18.6956 32.5276 16.585 60.6488 19.939 16.3847 15.5154 16.1032 33.478 16.952 11.89 11.5127 7.91582 8.70592
internal_count=1582 628 408 220 346 954 581 330 86 313 306 54 181 114 223 204 71 134 66 275 67 56 62 58 133 66 47 45 32 34
is_linear=0
shrinkage=0.05


Tree=22
num_leaves=31
num_cat=0
split_feature=73 73 80 0 34 21 93 79 27 21 13 9 9 86 88 92 49 46 54 86 91 42 66 5 99 79 19 97 10 5
split_gain=181.168 34.5409 23.936 18.8673 17.2268 15.4655 14.8129 12.0692 10.53 9.92483 7.58511 7.43333 7.42601 7.17766 6.1257 4.72341 4.72954 4.50243 4.02535 3.57031 3.55265 3.41779 3.3537 5.15907 3.86742 3.0831 2.99253 2.86308 2.5732 2.294
threshold=0.60137399060648111 0.57347559378265089 481.50000000000006 2178.0000000000005 0.091138351843840906 212.76932525634768 0.28716470214445927 1.1537523452157601 -173.49999999999997 181.83471679687503 0.95525065969876632 0.93118055831556446 0.90831907567419223 1.5000000000000002 1.0220657240483428 0.46172327738854552 35.050978500742495 0.13585659623395477 0.58835117195379427 2.5000000000000004 0.53848935930384945 1.1342891440054017 1.6458496634694924 1.2432214400567265 -167.49999999999997 1.3112477799468658 391.50000000000006 1713.5314426603798 0.42364890400604693 1.4924288706276705
decision_type=10 10 2 2 2 10 2 10 10 10 10 2 2 2 8 2 2 10 10 2 10 8 10 2 10 10 2 2 2 2
left_child=1 5 3 -2 8 21 -7 11 -3 15 -8 19 14 -13 -9 16 -4 28 -14 -6 -21 -1 23 -10 -24 -23 -5 -20 -18 -27
right_child=2 4 9 26 7 6 10 12 22 -11 -12 13 18 -15 -16 -17 17 -19 27 20 -22 25 24 -25 -26 29 -28 -29 -30 -31
leaf_value=-0.0017970385933030121 -0.026747848710304056 0.028949487841462108 0.046026853196050127 0.028253959337471948 -0.034165529534695815 -0.036381925788126594 -0.011135773360383705 0.04509716158426727 -0.032200270473755031 0.057669604204622152 0.062958641602305201 -0.017083642231198303 0.010873874054521268 0.049726538772323213 -0.02334757820120428 -0.038654151546403621 0.036406543464815443 -0.043139707899107489 0.026962472716146747 -0.026170523343497655 0.027720513392064036 -0.042629696457620214 0.0032470356356620513 0.028731228082576596 -0.040059112040105233 0.010189967236825782 0.075796670920434628 0.077458486556554046 -0.011260290863398983 -0.034469565000744669
leaf_weight=5.9341184645891181 4.5464232861995688 8.7583041787147504 5.6179428696632447 5.1096591353416434 14.934595078229906 12.070664227008821 4.9793764054775229 4.4177306294441196 6.4324948638677579 9.5077589750289899 8.6124500036239606 5.9998113662004462 4.9911226332187679 9.1320439130067808 7.2630677819252023 5.1798706799745551 4.8382678627967817 4.1575184464454642 5.47857737541199 4.653473421931265 5.677830770611763 143.90870024263859 5.8042911589145652 5.5366729199886322 36.772018164396286 5.1776703000068647 72.902791887521744 12.065225169062613 4.7956581264734268 4.6197026968002319
leaf_count=22 16 29 18 16 55 46 18 15 24 30 29 22 17 30 26 18 16 15 18 17 20 574 20 19 140 18 221 39 17 17
internal_value=-0.0002609 -0.0195465 0.052886 0.067328 -0.000574517 -0.0335882 0.00236534 0.0156088 -0.0195952 0.0169958 0.0369112 -0.00297132 0.0370073 0.0238193 0.0040535 -0.000370392 0.0112399 -0.00508426 0.0531906 -0.0193123 0.00327928 -0.0393465 -0.0277708 -0.00397263 -0.0342163 -0.0407752 0.0730797 0.0639939 0.013851 -0.0121102
internal_weight=439.876 323.22 116.656 82.5589 137.917 185.303 25.6625 74.6135 63.3038 34.097 13.5918 40.3978 34.2157 15.1319 11.6808 24.5893 19.4094 13.7914 22.5349 25.2659 10.3313 159.64 54.5455 11.9692 42.5763 153.706 78.0125 17.5438 9.63393 9.79737
internal_count=1582 1215 367 253 491 724 93 259 232 114 47 144 115 52 41 84 66 48 74 92 37 631 203 43 160 609 237 57 33 35
is_linear=0
shrinkage=0.05


Tree=23
num_leaves=29
num_cat=0
split_feature=13 57 28 42 42 62 47 51 34 37 77 90 5 48 79 78 53 57 42 59 80 82 80 6 33 66 89 89
split_gain=250.424 63.0809 28.7325 14.3311 11.6893 10.3041 9.0731 8.29802 8.13729 7.94282 6.06247 6.42581 7.16976 6.22151 5.9157 5.40828 4.01985 4.21675 3.00239 2.84643 2.48609 2.29145 4.89665 1.92957 1.00609 0.545706 0.377981 0.723756
threshold=0.97110388999446018 34.129439517040268 -120.14999999999985 1.5956923780330481 2.3163112604107758 40.65858181240332 0.099161847681033893 0.17639111139366317 0.17749793520726811 51.21677966437138 79.500000000000014 0.60715534393492565 1.5875706139780732 0.34972748828894445 1.4057995120869375 47.850000000000485 0.23466016668546114 37.233184967709803 2.5324635386553571 0.40473251392944992 673.50000000000011 876.50000000000011 616.50000000000011 1.5499927567341467 0.27727693326767899 1.3744346726675636 1.0298145104784513 1.0333405181342827
decision_type=8 10 10 10 10 10 10 10 2 10 10 10 2 10 10 10 8 10 8 10 2 2 2 2 2 10 10 10
left_child=1 7 4 16 10 21 18 25 14 23 11 13 -13 20 19 -9 -4 -18 -7 -5 -3 26 -23 -6 -21 -1 -2 -28
right_child=5 2 3 8 9 6 -8 15 -10 -11 -12 12 -14 -15 -16 -17 17 -19 -20 24 -22 22 -24 -25 -26 -27 27 -29
leaf_value=-0.021126304857848159 -0.045740996650816775 0.0012594617183831829 0.046495056241644857 0.037533775415356019 0.089734230504003101 -0.039154729796683836 0.054773918402990951 0.04512510069046316 0.018454320357634366 0.0088450038429600426 -0.042554657079029862 0.067004344263337942 -0.01203434376635547 0.032993482987789285 0.017722783087186372 -0.023602309196113919 -0.033063081961364697 0.029542779138033853 0.0076508944838912726 0.085650518743273923 -0.045007194163115917 0.023785988824433304 -0.038700441585622962 0.036651835747999482 0.042765615645534959 -0.045430193360706042 -0.01070222412778795 -0.038303470186976676
leaf_weight=5.8845654278993669 154.29293629527092 4.5473278760910087 6.9577265679836247 5.9238039255142203 7.7264442443847674 8.6119414120912552 4.0857858210802069 5.1349725276231748 6.9136295914649954 7.7771582603454581 5.1107063591480246 7.1610194444656354 4.0130244046449661 5.4101396501064292 4.5389769226312628 4.4978588819503784 4.4446443766355515 4.3202588856220245 4.8828303366899499 73.593538835644722 6.780201643705368 3.70504006743431 9.3671253025531751 4.8376782089471817 4.5127393901348105 16.388524278998375 4.3066270649433127 9.9634736627340299
leaf_count=24 706 17 25 20 25 36 15 19 23 28 20 25 15 20 16 18 17 15 19 229 26 15 41 16 15 72 19 46
internal_value=-0.000163843 0.0397877 0.0522163 0.0666276 0.0215112 -0.0395676 -0.00284037 -0.0239571 0.073887 0.0503558 0.00278554 0.0122722 0.0399617 -0.00742406 0.0779597 0.0138325 0.0207595 -0.00233914 -0.0228596 0.0809667 -0.0278384 -0.0430874 -0.0205582 0.0735044 0.0837447 -0.0401927 -0.0447031 -0.03122
internal_weight=395.691 196.475 164.569 111.205 53.3637 199.216 17.5806 31.9059 95.4827 20.3413 33.0224 27.9117 11.174 16.7377 88.5691 9.63283 15.7226 8.7649 13.4948 84.0301 11.3275 181.635 13.0722 12.5641 78.1063 22.2731 168.563 14.2701
internal_count=1582 685 552 360 192 897 70 133 303 69 123 103 40 63 280 37 57 32 55 264 43 827 56 41 244 96 771 65
is_linear=0
shrinkage=0.05


Tree=24
num_leaves=28
num_cat=0
split_feature=12 79 56 95 40 69 68 11 26 66 9 29 35 78 64 94 77 47 33 85 88 27 13 13 43 15 7
split_gain=182.276 43.1952 22.7685 14.7532 13.2214 10.2781 9.78821 11.1371 8.86099 7.16818 7.13184 5.99275 5.39745 4.9311 4.33342 2.05261 7.81933 1.46726 2.80169 1.51551 1.4385 0.643873 0.262814 0.542871 0.254115 0.171755 0.122484
threshold=0.75914445442747336 0.88879755021895324 2.5632377369040329 0.50842827687526737 18.667700799780174 0.49836202372186561 0.83219483731846655 1989.5000000000002 458.75000000000006 2.8221465816026252 1.0629624185107869 310.25000000000006 29.354688095062382 -215.00000000000003 0.46666881573667313 0.92481218114848118 -259.49999999999994 0.29106229416298796 0.07640577719382069 0.34136904761904768 1.1392202902947559 -96.749999999999986 1.0681819537798096 1.0796520327466148 0.68793303442158493 269.56388854980474 0.67028985507246397
decision_type=2 10 10 2 10 2 2 2 10 10 2 2 2 10 8 2 10 10 2 2 10 10 10 10 10 2 2
left_child=6 3 5 8 11 9 7 14 12 -3 17 -4 -2 -5 -1 -8 -17 19 -19 20 22 -15 24 -24 25 -7 -27
right_child=1 2 4 13 -6 10 15 -9 -10 -11 -12 -13 -14 21 -16 16 -18 18 -20 -21 -22 -23 23 -25 -26 26 -28
leaf_value=-0.036316337600886213 0.090980366259696493 0.058619246303794281 0.082256973657493043 0.034959518409496709 -0.031848825752211034 -0.017509996311345824 0.096042553749071669 0.094067084067023521 -0.013425879493213014 -0.033200585332022185 0.034384611114509793 0.011736637257106103 0.025811795905470003 -0.038223049250587532 0.027588197560700474 0.085228036874224616 0.00011112080055561394 0.021497396120345198 -0.035727659535990074 0.00058591036071362838 -0.0015831409455080139 -0.006728211525073924 -0.0034041857859148394 -0.033840850888273454 -0.014993912562427929 -0.018467053336461946 -0.042758059651870989
leaf_weight=3.4862804710864994 11.181839153170591 4.1296579390764228 6.2549077868461627 3.2396941632032386 6.5678479820489875 2.6154761612415305 34.860994279384613 4.1461940854787818 3.3489044159650794 2.782564714550972 2.6563447564840308 5.8129488378763199 5.6989583671092978 5.9563493877649298 5.494697406888009 7.8197590708732605 3.8912990838289243 2.6897129118442527 4.4035734236240387 2.2396825253963462 2.4102182239294043 2.7655317336320868 2.5887270271778098 3.3238060176372528 2.2977372854948035 2.6425773650407782 137.12627020478249
leaf_count=17 42 19 28 16 39 17 117 16 16 15 13 29 25 34 24 26 15 15 27 14 15 15 17 20 15 16 920
internal_value=0.000533829 -0.0203164 -0.0293683 0.0325333 0.0221892 -0.0350535 0.0773775 0.0354168 0.0576001 0.022132 -0.0375681 0.0517857 0.0716534 -0.0110334 0.00162827 0.0882118 0.0591795 -0.0389488 -0.0140534 -0.0399891 -0.0405829 -0.0299559 -0.0411926 -0.0229349 -0.0417761 -0.0421007 -0.0424332
internal_weight=282.433 222.733 190.542 32.1913 18.6357 171.906 59.6992 13.1272 20.2297 6.91222 164.994 12.0679 16.8808 11.9616 8.98098 46.5721 11.7111 162.338 7.09329 155.244 153.005 8.72188 150.595 5.91253 144.682 142.384 139.769
internal_count=1582 1367 1219 148 96 1123 215 57 83 34 1089 57 67 65 41 158 41 1076 42 1034 1020 49 1005 37 968 953 936
is_linear=0
shrinkage=0.05


Tree=25
num_leaves=31
num_cat=0
split_feature=38 73 55 69 27 7 38 69 2 13 75 68 96 27 43 96 87 59 59 45 90 91 34 7 34 17 50 58 19 96
split_gain=97.9947 28.2071 29.4933 14.4023 11.7571 11.2954 9.71835 11.784 9.31183 9.68663 9.53351 9.26605 7.11603 6.66451 6.55693 7.472 7.29527 6.04618 5.05091 4.42958 4.1475 4.04581 4.47265 6.10912 4.30645 3.90661 7.05493 3.92141 3.89714 3.8671
threshold=48.731661983566894 0.60137399060648111 5.5000000000000009 0.46263181345599214 -124.49999999999999 0.70135135135135152 92.819452180907334 0.60263593164653229 19.500000000000004 1.0110957622813708 390.75000000000006 0.61631084051342921 2200.5025804863553 0.75000000000000011 0.24834355634420793 5763.0979073211311 0.20380268424770429 0.54670831746937265 0.47572677954049508 0.67354468705605719 0.62292552449570049 0.53567164829879943 0.1375165209891431 1.0131578947368423 0.16698004832310517 282.90000000000009 0.078596037898363488 0.20634418873760055 412.25000000000051 11260.764045614958
decision_type=8 10 10 2 10 2 8 2 2 10 8 2 2 8 10 2 2 10 8 10 8 10 2 2 2 2 2 8 2 2
left_child=1 2 13 -4 -5 -6 7 14 12 17 -11 28 -7 -1 15 19 25 18 -10 -2 21 -18 -23 24 -24 -17 27 -27 -3 -8
right_child=6 11 3 4 5 8 29 -9 9 10 -12 -13 -14 -15 -16 16 20 -19 -20 -21 -22 22 23 -25 -26 26 -28 -29 -30 -31
leaf_value=-0.042070265502532012 0.012803557215848244 0.015109227434041592 -0.028491658597696375 -0.01669352731595904 -0.01865845501031153 0.021437018112900337 -0.039651219816157948 -0.037555048638893911 0.049641962479110728 -0.024384637635845842 0.04241482897338044 0.048937927421470996 0.075906200826252823 0.021440564139336173 -0.025116490890410122 0.060184755788462253 -0.031998155547749145 0.070021553853824997 -0.0095335852942775769 -0.044304947777673215 -0.040942477218423215 -0.019712040762260158 0.040701904107781989 0.071550750188410561 -0.020970466551346982 0.0032613387035022993 -0.026217644943040533 0.071682477132270966 -0.033848192932897335 -0.0050360684635210292
leaf_weight=12.470572888851164 4.4400272816419593 4.2837610244751039 5.8141192048788062 6.1901172697544089 5.0050805360078803 7.8803569227457038 75.452641814947128 36.345672860741615 7.4315523207187626 9.6184670776128787 9.8309736251831037 3.8881258666515341 50.614085167646408 5.2238800823688534 25.386852324008942 8.2299143075943011 4.6374624371528688 21.936792463064194 5.8196863830089578 9.6395770907402021 4.815645605325698 5.5867669135332134 3.8899047225713712 4.6270679086446753 5.7606559991836548 3.6766974478960019 5.2255144566297531 4.1920472234487534 23.183178603649139 9.372658044099806
leaf_count=52 17 17 23 24 19 27 357 172 25 36 35 14 161 21 105 30 19 73 21 41 20 23 15 17 23 15 21 15 103 41
internal_value=0.000127365 0.0272449 0.0363407 0.0445478 0.0481636 0.0516735 -0.0228917 -0.0139324 0.0549213 0.0388242 0.00980303 -0.0154383 0.0690518 -0.0231762 -0.00409651 0.00440527 0.0133856 0.0541508 0.0248079 -0.0266409 -0.00291774 0.00586813 0.0158182 0.0301012 0.00537571 0.0349268 0.0159081 0.043685 -0.0259502 -0.0359297
internal_weight=390.47 179.191 147.836 130.141 124.327 118.137 211.279 126.454 113.132 54.6375 19.4494 31.3551 58.4944 17.6945 90.1081 64.7213 50.6417 35.188 13.2512 14.0796 29.3175 24.5019 19.8644 14.2776 9.65056 21.3242 13.0943 7.86874 27.4669 84.8253
internal_count=1582 651 517 444 421 397 931 533 378 190 71 134 188 73 361 256 198 119 46 58 117 97 78 55 38 81 51 30 120 398
is_linear=0
shrinkage=0.05


Tree=26
num_leaves=31
num_cat=0
split_feature=73 73 80 68 34 30 13 30 77 9 37 92 13 61 91 70 90 56 13 35 33 42 61 4 47 42 17 64 19 54
split_gain=161.876 32.1739 21.1341 16.89 15.7952 10.7324 11.3295 9.71538 8.5935 9.4113 8.40544 7.67442 7.6525 7.05221 7.04781 8.03106 6.9721 5.6222 5.34483 4.17246 4.58317 3.36156 3.33652 4.98575 3.63393 3.32229 3.23028 3.12072 2.69765 2.3505
threshold=0.60137399060648111 0.57347559378265089 481.50000000000006 0.59530835977839291 0.091138351843840906 113.50000000000001 0.92966329637164813 190.50000000000003 72.500000000000014 0.92665637081537555 22.81899086218484 0.46172327738854552 0.96688738131327623 1.4055950879506109 0.57632455602528065 3075.9397038514171 0.60715534393492565 1.264955454076315 1.04437431251777 18.43109643507146 0.19699456455323605 1.6947305546769769 1.6406430757467427 18.217073796354622 0.029863861710778272 1.1342891440054017 239.45000000000007 0.45413743470120693 391.50000000000006 0.66770640386027791
decision_type=10 10 2 2 2 2 10 2 10 2 10 2 10 10 10 2 10 10 10 2 2 8 10 2 10 8 2 8 2 8
left_child=1 5 3 28 7 25 27 22 9 19 -8 12 -4 -10 15 -12 -9 -15 21 -6 -21 -11 23 -3 -24 -1 -14 -7 -2 -28
right_child=2 4 11 -5 8 6 10 16 13 18 14 -13 26 17 -16 -17 -18 -19 -20 20 -22 -23 24 -25 -26 -27 29 -29 -30 -31
leaf_value=-0.0031287738872087727 0.02665273581413409 -0.033985566287624704 -0.013924993416722235 -0.021281227340823848 -0.031110301829692096 -0.0057081525541986446 -0.041224227501143934 0.058890104956454616 -0.018957998480782706 0.062914315446985211 0.043950732661809641 -0.032856237101545484 0.0040983323892645395 -0.0031111182629416367 0.063908519386406321 -0.035833072837757274 -0.016546120033084092 0.057208188555197742 -0.010393563180736662 -0.024430722560409179 0.039826006245565856 0.0095076590718536913 0.0017234776604930582 0.032768991614973514 -0.039417130193490503 -0.041267720934280883 0.068084824571777877 -0.047090128349090238 0.07157928875947582 0.024160227598346098
leaf_weight=6.1501009762287131 5.1421116590499869 4.5483866631984693 7.8909188956022289 5.1056456267833701 17.69219355285168 6.6833054870367077 4.5286244750022915 5.3175561428070051 4.4095935523510006 7.9807232320308694 4.9928915202617663 5.7412222772836676 4.5992084145545986 4.6237196326255825 7.2380702793598166 5.6616853475570679 5.2803236395120621 19.759441941976547 6.0162914991378775 4.4671668708324415 4.7135920375585556 4.9935744702816018 6.1705606728792182 4.6409113854169846 36.436708927154541 129.6098664700985 9.2988597750663722 15.695374697446821 72.73706591129303 6.634656250476838
leaf_count=23 16 17 29 18 66 26 18 17 15 26 17 20 15 16 24 22 18 64 22 17 16 17 22 16 142 531 29 63 219 21
internal_value=-0.000261153 -0.018797 0.049726 0.0632473 -0.000505483 -0.0326015 -0.0110653 -0.0189114 0.0149241 0.00131317 0.0138017 0.0160189 0.0266722 0.0358328 0.0291736 0.00211791 0.0231186 0.046098 0.0274668 -0.0174914 0.00923141 0.0445104 -0.027786 -0.000364901 -0.0335561 -0.0395755 0.0421962 -0.0355043 0.0689884 0.0523017
internal_weight=434.76 317.611 117.15 82.9848 137.051 180.56 44.8 62.3944 74.6563 45.8635 22.4213 34.1649 28.4236 28.7928 17.8926 10.6546 10.5979 24.3832 18.9906 26.873 9.18076 12.9743 51.7966 9.1893 42.6073 135.76 20.5327 22.3787 77.8792 15.9335
internal_count=1582 1215 367 253 491 724 170 232 259 164 81 114 94 95 63 39 35 80 65 99 33 43 197 33 164 554 65 89 235 50
is_linear=0
shrinkage=0.05


Tree=27
num_leaves=25
num_cat=0
split_feature=38 27 13 13 2 47 41 48 90 79 0 89 77 78 39 27 63 98 41 13 43 34 29 6
split_gain=235.775 36.3777 28.442 17.4201 14.5622 12.6926 12.285 8.2153 7.22511 6.65975 6.04871 5.35944 4.6961 4.14655 3.89513 3.86579 3.59375 4.70271 3.49233 3.47193 3.10083 2.96651 1.73664 1.39054
threshold=70.499575899990006 -42.749999999999993 0.96364365527123452 0.97110388999446018 26.500000000000004 0.063632790483818355 2.4662587528370188 0.24423931035233298 0.61255976285115177 1.4530679803982902 21576.500000000004 1.0127744667044314 61.250000000000007 -25.799999999999951 44.040621850020109 -166.74999999999997 0.3081219238641329 -22.449999999999996 2.613319990255909 0.89288183517297215 0.51625964482958631 0.17098424690993264 326.50000000000006 1.0953202942579012
decision_type=10 10 8 10 2 10 10 10 10 10 2 8 10 8 10 10 8 10 10 10 10 2 2 2
left_child=2 3 4 5 -1 7 -3 13 16 21 14 -5 -10 -2 -9 -7 17 -6 -17 -20 -4 23 -18 -8
right_child=1 6 20 11 8 15 9 10 12 -11 -12 -13 -14 -15 -16 18 22 -19 19 -21 -22 -23 -24 -25
leaf_value=-0.043598554438365744 -0.045090431381290277 -0.0023594476540210302 -0.04368418887498092 -0.041115882603665874 -0.016046850656174016 0.011673011862144473 0.037783727856923438 0.034328792629040893 0.077424178639568839 0.013092526369968239 0.069482695589023272 0.022223719674949113 0.016368807531768597 0.0067016023461635797 -0.025604754305006028 0.017377837696573275 -0.042462183140892874 0.039718009394423971 0.034981003248642673 0.081354131604243998 0.0013738587615749376 0.028603254368632914 -0.001088195928272646 0.080792366492832585
leaf_weight=12.675959303975104 6.8806264102458954 5.8511103689670554 172.92080298066139 12.086622104048725 6.0299977660179103 5.757086798548694 4.600658416748046 4.4530829936265928 5.3209583759307844 4.9568946957588187 5.3409393429756156 3.7673611640930185 7.6856005489826202 7.1423362940549868 4.4153175503015518 5.1888368278741899 4.4469932466745359 7.5262486785650307 8.578064978122713 15.262754142284392 3.8426669985055915 4.6614298820495597 4.8473898023366928 66.381993263959885
leaf_count=59 27 22 818 52 23 20 15 15 18 18 18 15 29 26 16 18 17 27 28 48 16 15 18 204
internal_value=-0.000223083 0.0449726 -0.0334404 0.0200412 0.000474386 0.0317541 0.0672291 0.00644326 0.0168149 0.0722478 0.0321595 -0.025639 0.0450909 -0.020021 0.00491872 0.0515419 -0.000495502 0.0155147 0.0587966 0.0667487 -0.0427025 0.0759028 -0.0230858 0.0785684
internal_weight=390.622 165.325 225.297 78.873 48.5331 63.019 86.4521 28.2323 35.8572 80.601 14.2093 15.854 13.0066 14.023 8.8684 34.7867 22.8506 13.5562 29.0297 23.8408 176.763 75.6441 9.29438 70.9827
internal_count=1582 557 1025 283 191 216 274 102 132 252 49 67 47 53 31 114 85 50 94 76 834 234 35 219
is_linear=0
shrinkage=0.05


Tree=28
num_leaves=27
num_cat=0
split_feature=12 79 56 95 10 69 68 11 26 9 66 68 63 63 64 55 3 82 28 46 17 12 79 73 34 63
split_gain=161.984 40.0527 21.6343 13.0264 12.0071 9.78536 8.01939 9.85327 7.82303 6.85805 6.52941 5.1591 6.15707 5.01555 4.01789 3.7964 1.73579 4.59128 1.70097 1.49899 0.781206 0.732113 0.338425 0.522986 0.272224 0.06415
threshold=0.75914445442747336 0.88879755021895324 2.5632377369040329 0.50842827687526737 0.46157172194155566 0.49836202372186561 0.83219483731846655 1989.5000000000002 458.75000000000006 1.0629624185107869 2.8221465816026252 0.3880293308733373 0.17981686876027678 0.23657715061797935 0.49044235322985769 9.5000000000000018 18.684186637502556 661.50000000000011 29.249999999999975 0.42383292383292387 170.50000000000003 0.65364435136919263 1.6193423625488845 0.61792522098945302 0.28126506731748718 0.17670919896750384
decision_type=2 10 10 2 2 2 2 2 10 2 10 2 10 8 10 10 2 2 10 10 2 2 10 10 2 8
left_child=6 3 5 8 11 10 7 14 13 16 -3 -4 -13 -2 -1 -5 17 25 21 20 -18 -8 24 -24 -22 -7
right_child=1 2 4 15 -6 9 18 -9 -10 -11 -12 12 -14 -15 -16 -17 19 -19 -20 -21 22 -23 23 -25 -26 -27
leaf_value=-0.035767709317018996 0.02713315332466007 0.054669972425277963 -0.036998890495559079 0.020916034880060046 0.087557391137758067 -0.015207886844307279 0.088667915319575741 0.087379932552207371 -0.013331086744492293 0.032946081771635084 -0.032818122214344901 -0.019921772806340582 0.054427562702209026 0.086903094408871395 0.025987744946984997 -0.032400798510889929 -0.013592447202294878 0.029596486382624659 0.040797611624730952 0.00043895326631979305 -0.042457908303691443 0.0471708053113125 -0.0033544941438661078 -0.03299162574252313 -0.014888848311684091 -0.038344348394377337
leaf_weight=3.3872620463371259 6.8092339932918611 4.2909085303544989 5.3503538966178921 4.8247428089380247 4.0630812942981711 2.3086577802896473 37.912667110562325 4.3393104970455161 3.3363660126924506 2.7099085748195639 2.7172094732522964 4.5308682918548566 4.8875152617692947 10.672732695937155 5.5932009071111679 7.0337679833173752 3.819324016571044 2.9355648308992377 5.2459771037101737 2.2216990739107123 129.48393101990223 4.9619777947664252 2.5909577906131736 3.5209843367338181 2.2902571260929099 7.0847426503896722
leaf_count=17 29 19 33 23 16 15 122 16 16 13 15 23 24 38 24 42 25 16 18 13 905 18 17 26 15 44
internal_value=0.000525988 -0.0197731 -0.028794 0.030585 0.0211081 -0.0345485 0.0715454 0.0335877 0.0535548 -0.0371077 0.0208866 -0.00156624 0.0201815 0.0663504 0.00144483 -0.0107687 -0.0385244 -0.0182942 0.0811545 -0.0401192 -0.0407537 0.08505 -0.0414027 -0.0226662 -0.0420945 -0.0346683
internal_weight=278.923 217.483 184.806 32.6768 18.8318 165.974 61.4404 13.3198 20.8183 158.966 7.00812 14.7687 9.41838 17.482 8.98046 11.8585 156.256 12.329 48.1206 143.927 141.705 42.8746 137.886 6.11194 131.774 9.3934
internal_count=1582 1367 1219 148 96 1123 215 57 83 1089 34 80 47 67 41 65 1076 75 158 1001 988 140 963 43 920 59
is_linear=0
shrinkage=0.05


Tree=29
num_leaves=31
num_cat=0
split_feature=37 9 70 2 69 11 80 38 48 22 90 96 43 16 58 7 42 77 80 96 22 88 92 39 29 69 99 99 60 77
split_gain=89.0387 22.7694 24.2437 14.8935 14.0218 13.4181 10.7976 15.0744 9.12507 8.56635 6.68987 6.42298 6.18775 5.44042 5.14945 5.28746 4.71001 4.44077 4.32349 4.2639 4.18613 4.60002 4.02801 3.97592 3.90011 3.65863 3.40592 3.33675 3.90803 2.79986
