tree
version=v4
num_class=4
num_tree_per_iteration=4
label_index=0
max_feature_idx=90
objective=multiclass num_class:4
feature_names=volume_vox_raw volume_um3_raw bbox_z_extent_um bbox_y_extent_um bbox_x_extent_um aspect_zy aspect_zx aspect_yx equivalent_diameter_um_raw solidity_raw bbox_occupancy_raw volume_vox_opened frac_kept_opening solidity_opened equivalent_diameter_um_opened c405_raw_mean c405_raw_std c405_raw_p10 c405_raw_p50 c405_raw_p90 c405_opened_mean c405_opened_std c405_opened_p10 c405_opened_p50 c405_opened_p90 c405_core_p50_opened c405_shell_p50_opened c405_shell_minus_core_p50 c405_shell_minus_core_p90 c405_outside_p50 c405_inside_minus_outside_p50 c405_inside_minus_outside_p90 n_touching_neighbors surface_touching_frac top_neighbor_overlap_frac mean_touching_score_stage1 min_touching_score_stage1 knn_d1 n_neighbors_30um axis3d_extent_um axis3d_lambda1_um2 axis3d_lambda2_um2 axis3d_lambda3_um2 axis3d_lambda_ratio_l1_l3 axis3d_lambda_ratio_l1_l2 axis3d_peak_prom_max_intens axis3d_peak_sep_um_intens axis3d_min_over_max_inner_intens axis3d_section_min_over_med_area axis3d_section_min_over_max_area axis3d_peak_prom_max_area axis3d_raw_extent_um axis3d_raw_section_min_over_med_area axis3d_raw_peak_prom_max_intens proj_xy_main_extent_um proj_xy_main_peak_prom_max proj_xy_main_min_over_max_inner proj_xy_orth_fwhm_um proj_xy_aspect_ratio proj_yz_main_extent_um proj_yz_main_peak_prom_max proj_yz_main_min_over_max_inner proj_yz_orth_fwhm_um proj_yz_aspect_ratio proj_zx_main_extent_um proj_zx_main_peak_prom_max proj_zx_main_min_over_max_inner proj_zx_orth_fwhm_um proj_zx_aspect_ratio surface_area_um2_raw volume_um3_raw_v4 sa_to_vol_um_inv_raw sphericity_raw surface_area_um2_opened volume_um3_opened sa_to_vol_um_inv_opened sphericity_opened core4um_voxel_frac_opened c405_core4um_p50_opened c405_shell4um_p50_opened c405_shell_minus_core4um_p50 c405_shell_minus_core4um_p90 c405_shell_over_core4um_p50_ratio n_protrusion_voxels protrusion_voxel_frac protrusion_rim_voxels protrusion_rim_other_frac protrusion_rim_bg_frac protrusion_top_neighbor_frac n_distinct_neighbor_ids_at_protrusion protrusion_into_neighbor_frac
feature_infos=[25:58602] [24.474797567600895:57034.377026907532] [2:78] [2.9683205898851832:75.963131055986139] [2.9683205898851832:67.084323529961793] [0.11925289812942616:4.800694388792822] [0.11925289812942616:5.7271441831212622] [0.25:4.7999999999999998] [3.6022470582617068:47.757988500727151] [0.040617384240454905:1.6038062283737022] [0.0070028011204481795:0.69050925925925921] [0:56197] [0:0.98707824838478109] [0.35803292878653975:1.7500000000000009] [4.8715111418769732:47.09551943417766] [166.49703979492188:1261.2921142578125] [13.756925582885742:991.92962646484375] [119:724.79999999999995] [134:1193] [241.80000000000018:2585] [166.53807067871094:1356.90625] [13.229116439819336:1003.99365234375] [119:777] [131:1279] [227:2638] [131:1430] [131:1000.5] [-646:151] [-2025.2000000000007:363.89999999999986] [164:810] [-83:645] [-391.80000000000007:2052] [0:21] [0:0.8125] [0:0.7688984881209503] [0.39508971571922302:0.8102424144744873] [0.39501702785491943:0.8102424144744873] [0.98653416955812645:81.43136390412181] [0:90] [5.5449747884191307:84.602648857793525] [1.3548387096774193:453.24163220596438] [1.3017775271941108:162.67642613578778] [1.3017775271941108:68.023489491719843] [1.0214589081257353:61.240202522976197] [1:18.842563308711352] [0.050235026550584122:0.96257504889420842] [5:30] [0.0027559512608839208:0.97531226540075289] [0.0035149384885764497:1] [0.0016806722689075631:0.73170731707317072] [0.05023974494916069:0.7102979956351303] [7.0332783236536542:87.335384302242431] [0.0027322404371584699:0.88461538461538458] [0.050199384387990861:0.99223516044333748] [5.5449747884191343:82.746982383961722] [0.050101981919702131:0.78648751394649397] [0.0060452541623151603:0.95311315930939455] [3:33] [1.0000000000000004:25.780165592791519] [5.8325601044175093:77.159946189525385] [0.050005617694505143:0.68843036016936388] [0.015215745375624338:0.93337505294285161] [3:37] [1.0138211221954163:25.185172626736911] [5.9765088231381238:73.83374022535213] [0.050160462298970754:0.74594581014277062] [0.049711295117337108:0.93369258912726505] [4:35] [1.0017224234082329:15.764517002284235] [132.10436482768435:14415.747927152999] [24.474797567600895:57034.377026907532] [0.23088347511965907:5.4310220908128102] [0.17773214248808442:0.70485229031737784] [0:13347.925103444148] [0:54693.71157607458] [0.23004266198041334:2.4129789370548389] [0.32786395255914236:0.68744159395144555] [0:0.53310674947061232] [141:2237.5] [131:1268] [-1225.5:464] [-1085.9000000000001:636.00000000000045] [0.37906371911573472:2.5416666666666665] [25:5667] [0.012921751615218953:1] [128:5565] [0:0.8125] [0.1875:1] [0:0.7688984881209503] [0:20] [0:3.6800000000000002]
tree_sizes=2710 3296 3303 3201 2659 3395 3393 2879 2878 3407 3411 2981 2682 3408 3407 3198 2995 3399 3395 2989 2980 3405 3413 2972 2881 3390 3425 2970 2988 3409 3422 2874 3087 3415 3416 3194 3390 3407 3426 3098 3095 3397 3420 3106 3423 3407 3416 3429 3320 3413 3405 3408 3407 3398 3417 3325 3419 3407 3419 3409 2876 3404 3414 3424 3093 3409 3409 3415 3183 3415 3408 3428 3402 3428 3412 3417 3414 3422 3402 3411 3192 3412 3410 3420 3314 3412 3414 3399 3408 3403 3417 3439 3407 3403 3415 3431 3406 3413 3411 3430 3407 3426 3406 3425 3198 3416 3423 3418 3412 3428 3418 3427 3410 3411 3412 3422 3420 3415 3412 3419 3304 3431 3411 3427 3415 3422 3433 3440 3406 3415 3432 3429 3334 3423 3424 3424 3414 3425 3421 3429 3431 3401 3418 3420 3426 3425 3415 3422 3407 3423 3425 3414 3424 3421 3416 3424 3419 3428 3424 3414 3202 3408 3426 3422 3411 3409 3403 3438 3408 3421 3425 3420 3422 3411 3417 3427 3419 3417 3414 3433 3423 3424 3423 3416 3436 3415 3426 3422 3434 3425 3425 3429 3425 3419 3417 3428 3430 3422 3426 3416 3419 3408 3425 3423 3420 3413 3426 3413 3424 3427 3435 3417 3417 3424 3437 3425 3424 3435 3423 3430 3405 3431 3431 3437 3425 3431 3422 3432 3432 3427 3420 3445 3421 3422 3418 3421 3429 3436 3424 3441 3418 3415 3419 3438 3433 3422 3426 3431 3429 3415 3431 3433 3435 3430 3437 3430 3430 3430 3408 3443 3446 3426 3421 3443 3441 3424 3434 3439 3455 3431 3431 3430 3451 3430 3423 3434 3451 3431 3436 3445 3444 3433 3435 3435 3437 3429 3442 3440 3349 3433 3438 3450 3446 3440 3447 3465 3450 3438 3436 3455 3456 3452 3454 3449 3446 3436 3449 3455 3437 3442 3453 3455 3458 3434 3460 3454 3446 3446 3448 3465

Tree=0
num_leaves=25
num_cat=0
split_feature=71 82 7 71 37 31 9 85 77 7 38 0 78 53 58 84 55 90 82 49 49 3 13 83
split_gain=406.605 96.3177 41.3449 26.4603 17.4353 16.7032 11.9009 11.061 9.8809 7.18169 7.3778 6.54486 6.24877 3.68821 3.04717 3.34064 2.42633 1.47664 0.953021 0.764214 1.57917 0.0971255 0.106586 0.116481
threshold=0.85003273022494485 0.85114357139856767 0.60263157894736863 0.7333171288473187 9.2938065061550095 484.19999999999987 0.75305469143963766 866.50000000000011 0.29602929291432817 1.5049019607843139 8.5000000000000018 4281.5000000000009 379.25000000000006 0.12121423266023608 2.6640134708530661 0.060091913776592114 0.23038232125386937 0.60262584565990152 0.88634521350312478 0.29400563007120389 0.31338326278085321 16.717430149344391 1.0741650893928842 1070.5000000000002
decision_type=10 8 8 10 2 8 8 10 8 10 2 8 10 10 10 10 8 8 10 10 10 10 10 10
left_child=1 5 -3 6 -5 7 -4 11 -7 10 14 13 -2 -1 17 -16 -6 18 -8 21 -21 -20 23 -23
right_child=12 2 3 4 16 8 9 -9 -10 -11 -12 -13 -14 -15 15 -17 -18 -19 19 20 -22 22 -24 -25
leaf_value=-1.7525497215945263 -1.5979670130253898 -1.6823103404228281 -1.7544813471608758 -1.6757385619707539 -1.7672580194451926 -1.7265763476423821 -1.7985656017922951 -1.6251017191455053 -1.8230876470761794 -1.7540605486308189 -1.7641480130340093 -1.7850563801300514 -1.705818883526014 -1.6675493826711612 -1.8239615635254005 -1.7687628150485688 -1.8219986483298392 -1.7985025433234234 -1.8068504318883132 -1.780455490259566 -1.8242157352355941 -1.8314152173603477 -1.8068504318883132 -1.8068504318883132
leaf_weight=3.3463255763053867 23.981999963521961 4.6476744115352622 5.3913023173809043 4.0899534821510297 2.7886046469211578 4.6476744115352639 3.3463255763053885 5.0194883644580832 4.0899534821510324 2.7886046469211569 4.0899534821510306 3.1604185998439798 3.7181395292282096 3.5322325527667999 4.6476744115352613 4.4617674350738525 3.5322325527667999 4.8335813879966727 2.7886046469211569 2.7886046469211569 4.8335813879966736 181.07339507341385 2.7886046469211569 2.7886046469211569
leaf_count=18 129 25 29 22 15 25 18 27 22 15 22 17 20 19 25 24 19 26 15 15 26 974 15 15
internal_value=-1.78793 -1.80719 -1.81671 -1.81977 -1.74474 -1.71317 -1.82339 -1.68279 -1.77083 -1.82521 -1.82626 -1.72368 -1.60911 -1.69929 -1.82755 -1.79781 -1.79847 -1.82881 -1.82948 -1.82994 -1.80932 -1.83065 -1.8309 -1.83115
internal_weight=293.175 265.475 241.679 237.031 10.4108 23.7961 226.621 15.0585 8.73763 221.229 218.441 10.039 27.7001 6.87856 214.351 9.10944 6.32084 205.241 200.408 197.061 7.62219 189.439 186.651 183.862
internal_count=1577 1428 1300 1275 56 128 1219 81 47 1190 1175 54 149 37 1153 49 34 1104 1078 1060 41 1019 1004 989
is_linear=0
shrinkage=1


Tree=1
num_leaves=31
num_cat=0
split_feature=64 13 51 40 72 81 75 71 72 72 5 43 29 50 55 30 18 73 50 55 32 33 65 18 83 34 19 58 45 85
split_gain=162.955 48.2844 28.2321 23.2503 31.3904 20.4361 26.6087 17.7465 14.574 11.3737 11.2689 10.9598 8.53527 8.27423 7.59146 6.8998 6.89951 6.7109 6.05471 5.88989 5.10265 7.17754 5.81825 4.37256 4.29689 4.1691 4.11894 4.00344 4.1919 5.47478
threshold=26.01944643668072 1.0398600316304629 23.47752841116505 90.726953365491752 0.59661492052948217 -80.04999999999994 0.60157712924800999 0.77026581053290588 0.46291745723029792 0.5743210981378587 1.0883025269780873 1.8689861462633768 333.25000000000006 0.27094209764131394 0.33104867767254931 95.250000000000014 482.50000000000006 778.94733298922927 0.36935466831119396 0.43738857617816373 1.5000000000000002 0.21167665963945229 0.2871002013835619 662.50000000000011 369.50000000000006 0.1488254799353026 670.20000000000016 1.3069049352215107 0.67773782441621688 860.50000000000011
decision_type=8 10 10 8 10 10 10 10 10 10 10 10 10 8 8 10 8 10 10 8 2 10 8 8 8 10 10 10 8 10
left_child=1 2 7 4 11 -3 24 -1 -4 18 17 -2 -11 14 15 -13 -17 -8 26 -12 22 -22 -15 -5 -7 -18 -10 -23 -29 -30
right_child=3 5 8 23 -6 6 10 -9 9 12 19 13 -14 20 -16 16 25 -19 -20 -21 21 27 -24 -25 -26 -27 -28 28 29 -31
leaf_value=-1.2324671548769954 -1.3130289754493876 -1.3865212725768656 -1.3881682731561873 -1.3995715529555841 -1.394597730033019 -1.4001335685980729 -1.3337590645267103 -1.3462397781850617 -1.2535421589455482 -1.3022419926496527 -1.3585730003091838 -1.3794030084657121 -1.3888868651174728 -1.2874276263305451 -1.3970389990478718 -1.280985968801047 -1.3865249705573957 -1.2590278978600256 -1.3397010939419829 -1.291340792572202 -1.3803481448882458 -1.37574461679671 -1.3561262413766622 -1.3660705116552243 -1.3470581312569767 -1.3224052638856667 -1.3140628606417331 -1.3533141483962081 -1.3534697351991316 -1.2789794145989393
leaf_weight=27.055916309356693 16.335647583007812 17.611870050430298 4.8496453762054434 94.185218095779419 59.471966981887817 8.6783127784728968 4.5944008827209499 4.0839118957519522 12.506980180740362 4.3391563892364484 9.6992907524108851 12.506980180740358 5.1048898696899414 6.6363568305969212 17.101381063461304 3.8286674022674534 4.3391563892364502 14.038447141647337 4.3391563892364493 3.8286674022674569 13.017469167709349 4.0839118957519558 5.1048898696899423 11.741246700286863 5.8706233501434335 3.8286674022674561 6.1258678436279288 7.6573348045349148 3.8286674022674543 6.1258678436279297
leaf_count=106 64 69 19 369 233 34 18 16 49 17 38 49 20 26 67 15 17 55 17 15 51 16 20 46 23 15 24 30 15 24
internal_value=-1.35554 -1.31038 -1.28144 -1.37784 -1.36593 -1.34182 -1.32465 -1.24666 -1.31257 -1.3006 -1.29979 -1.34937 -1.34785 -1.35651 -1.37248 -1.35436 -1.32837 -1.27544 -1.28227 -1.33649 -1.34213 -1.35214 -1.31506 -1.396 -1.3796 -1.35621 -1.27035 -1.33483 -1.32473 -1.30489
internal_weight=402.521 132.727 68.4055 269.793 163.867 64.3216 46.7097 31.1398 37.2657 32.4161 32.1608 104.395 9.44405 88.0594 41.6049 24.5035 11.9965 18.6328 22.972 13.528 46.4545 34.7133 11.7412 105.926 14.5489 8.16782 18.6328 21.6958 17.6119 9.95454
internal_count=1577 520 268 1057 642 252 183 122 146 127 126 409 37 345 163 96 47 73 90 53 182 136 46 415 57 32 73 85 69 39
is_linear=0
shrinkage=1


Tree=2
num_leaves=31
num_cat=0
split_feature=72 80 71 72 83 13 33 28 21 28 84 63 56 28 45 71 13 44 72 6 80 72 44 77 72 61 68 79 26 63
split_gain=304.985 56.2925 36.5762 25.0088 24.9595 21.6637 18.0755 20.3456 15.948 11.8664 11.7189 10.1653 9.6339 8.4032 13.3228 7.67185 11.8895 7.02286 5.95273 5.55633 5.43891 5.62096 5.26229 11.7849 6.42841 6.13498 6.22685 5.95706 5.26128 4.6512
threshold=0.60478507657198299 68.250000000000014 0.62574431499860506 0.56969367907117141 470.50000000000006 0.96223041383398078 0.20756326673676834 -218.09999999999988 116.54896163940431 -90.949999999999918 0.13727093501126889 2.0116642690354767 0.55105526368939861 -178.29999999999993 0.11922596937124981 0.72051123003420481 0.97872368650617902 1.9771075089937484 0.56591291240406527 1.0121610685019375 15.250000000000002 0.6351457414935856 1.6956853228494959 0.13283411008943194 0.52188785933564164 0.5866866493172439 1.4362294236407285 404.50000000000006 452.50000000000006 1.8765719665191927
decision_type=8 10 10 10 8 10 10 8 8 10 10 8 10 10 10 8 10 8 10 10 10 10 8 10 8 10 10 10 8 10
left_child=1 3 4 22 20 9 7 12 -6 17 13 15 -5 -7 18 16 -9 -3 -15 -8 21 -2 23 -1 -25 26 -26 -28 -21 -11
right_child=2 5 -4 6 8 10 19 11 -10 29 -12 -13 -14 14 -16 -17 -18 -19 -20 28 -22 -23 -24 24 25 -27 27 -29 -30 -31
leaf_value=-1.2183787806043878 -1.1566511643863588 -1.112598516673327 -1.20167044110673 -1.1858276905509075 -1.1901193736296565 -1.0748112815916211 -1.1780515998333585 -1.1919167268346382 -1.1007375217253248 -1.1636861027392702 -1.1901193736296565 -1.2144531940827079 -1.1065457940546033 -1.1556108656355488 -1.1838433321653459 -1.2159658633708934 -1.1085573604476389 -1.1870317966160175 -1.0993905726356719 -1.0829640355246739 -1.0561028100167837 -1.0777737027655898 -1.2175880422043579 -1.2170570784387229 -1.1945133244615815 -1.1926116315683328 -1.1755822444239703 -1.1044930247242932 -1.1504694672940772 -1.2112793486693132
leaf_weight=37.113429605960846 4.2823188006877881 7.1371980011463139 5.995246320962905 5.7097584009170523 6.5662221610546139 7.4226859211921683 4.5678067207336452 8.5646376013755816 15.701835602521895 6.5662221610546139 6.5662221610546103 42.537700086832047 8.8501255214214307 7.1371980011463192 9.1356134414672834 5.995246320962905 6.851710081100463 4.5678067207336435 17.12927520275116 5.4242704808711979 55.099168568849564 4.8532946407794952 105.34504249691963 7.1371980011463156 4.2823188006877926 11.99049264192581 4.2823188006877881 7.4226859211921692 6.5662221610546121 19.413178563117981
leaf_count=130 15 25 21 20 23 26 16 30 55 23 23 149 31 25 32 21 24 16 60 19 193 17 369 25 15 42 15 26 23 68
internal_value=-1.16722 -1.18819 -1.08679 -1.19924 -1.07855 -1.15282 -1.17842 -1.18847 -1.12685 -1.18098 -1.13066 -1.20058 -1.1367 -1.12083 -1.1335 -1.17223 -1.15342 -1.14075 -1.11473 -1.13237 -1.06272 -1.10985 -1.21028 -1.1991 -1.17793 -1.16665 -1.14696 -1.12894 -1.11563 -1.19949
internal_weight=450.214 357.716 92.4981 272.641 86.5028 85.0754 95.0675 78.5092 22.2681 37.6844 47.391 63.9493 14.5599 40.8248 33.4021 21.4116 15.4163 11.705 24.2665 16.5583 64.2348 9.13561 177.573 72.2284 35.115 27.9778 15.9873 11.705 11.9905 25.9794
internal_count=1577 1253 324 955 303 298 333 275 78 132 166 224 51 143 117 75 54 41 85 58 225 32 622 253 123 98 56 41 42 91
is_linear=0
shrinkage=1


Tree=3
num_leaves=30
num_cat=0
split_feature=40 27 49 59 45 31 35 66 9 43 82 83 40 35 28 68 6 2 9 16 9 60 50 80 16 16 45 63 16
split_gain=441.922 86.7499 28.9147 27.2175 26.0081 21.7617 16.6885 14.0691 12.0305 10.8166 10.7708 10.4497 9.51964 9.16921 6.5734 5.80041 5.16335 4.14039 6.96336 7.82821 3.66402 2.91285 2.16827 1.83829 1.55031 1.45253 0.665746 0.538796 0.295442
threshold=73.91520700222469 -53.499999999999993 0.066795985968918323 34.572251759454282 0.064476877536498292 217.85000000000039 0.66147204240163171 0.43534521843943536 0.93845845298972086 2.7014509419148918 1.1703523772161288 764.50000000000011 91.482717768300361 0.63966351995865522 -352.60000000000025 1.666820596827413 1.3741762863967948 29.500000000000004 0.92566439873038997 117.33123779296876 0.85251211044384689 0.26976717563471936 0.24630196834332477 77.250000000000014 154.8680114746094 179.78446960449222 0.48298720914258758 3.4852155492008832 140.61169433593753
decision_type=10 10 10 10 10 10 10 10 10 10 10 10 10 10 10 10 8 8 10 8 10 10 10 10 10 10 10 10 10
left_child=3 2 11 17 6 7 12 -5 14 -6 15 21 -3 -13 -4 -9 -17 26 19 -19 -16 28 -12 24 -21 -7 27 -1 -2
right_child=1 4 8 5 9 25 -8 10 -10 -11 22 13 -14 -15 20 16 -18 18 -20 23 -22 -23 -24 -25 -26 -27 -28 -29 -30
leaf_value=-1.3819535429644152 -1.3520224360948991 -1.352512554354822 -1.3121147218670788 -1.2490324428767927 -1.2952658408578024 -1.3481470703715914 -1.2211962446435405 -1.3438593931783993 -1.3438593931783993 -1.2000174999456132 -1.3315544174420968 -1.3390182202712719 -1.2679669885815796 -1.2532036416379324 -1.2798139384259022 -1.2394483335044855 -1.3179733554178135 -1.3014910474196926 -1.3796399340294223 -1.3577818066970617 -1.2200085975062296 -1.3305302609871148 -1.3767454263311287 -1.3772766683753868 -1.3213204081156955 -1.3800202600811544 -1.3520224360948991 -1.361286613636598 -1.37810512706475
leaf_weight=155.42682409286499 3.885670602321631 7.253251791000368 4.6628047227859559 6.4761176705360439 4.1447153091430655 6.2170729637146023 6.735162377357482 4.1447153091430691 4.1447153091430655 52.586075484752655 3.885670602321623 6.9942070841789228 4.6628047227859497 4.4037600159645081 7.2532517910003689 3.8856706023216221 4.4037600159645089 6.9942070841789272 29.79014128446579 6.9942070841789263 10.361788272857664 5.6989835500717154 7.2532517910003662 8.0303859114646894 3.8856706023216248 16.578861236572266 3.8856706023216239 8.289430618286131 9.5846541523933393
leaf_count=600 15 28 18 25 16 24 26 16 16 203 15 27 18 17 28 15 17 27 115 27 40 22 28 31 15 64 15 32 37
internal_value=-1.33286 -1.25807 -1.3053 -1.36884 -1.22318 -1.33647 -1.27855 -1.30881 -1.26802 -1.20622 -1.32794 -1.33854 -1.31704 -1.30218 -1.254 -1.29725 -1.27517 -1.37645 -1.3635 -1.34386 -1.24051 -1.36056 -1.36225 -1.36027 -1.34496 -1.37237 -1.38054 -1.38109 -1.37249
internal_weight=408.514 132.372 56.9898 276.142 75.382 52.8451 18.6512 30.0492 26.4226 56.7308 23.5731 30.5673 11.9161 11.398 22.2778 12.4341 8.28943 223.297 55.6946 25.9045 17.615 19.1693 11.1389 18.9103 10.8799 22.7959 167.602 163.716 13.4703
internal_count=1577 511 220 1066 291 204 72 116 102 219 91 118 46 44 86 48 32 862 215 100 68 74 43 73 42 88 647 632 52
is_linear=0
shrinkage=1


Tree=4
num_leaves=24
num_cat=0
split_feature=12 82 72 31 61 9 72 58 13 50 82 3 72 29 13 44 50 48 35 85 28 85 10
split_gain=338.539 82.6529 27.8685 20.4668 18.3586 17.4352 11.3345 10.1218 8.32162 7.83338 5.11874 4.33671 5.87442 4.25954 3.12043 6.10086 2.79457 1.41247 1.32272 0.775778 0.757086 0.517562 0.0225686
threshold=0.7455882162955082 0.89147380696088996 0.47261008354081935 484.19999999999987 0.46329793291909721 1.0629624185107869 0.53343512205450005 2.5080132155301453 0.98618133733682656 0.25322805510364571 0.64926176486311793 18.684186637502556 0.5470069871429567 271.25000000000006 1.1313889790110181 1.9457187504933049 0.34374249739149515 0.43283384517632112 inf 1520.5000000000002 -44.899999999999856 957.50000000000011 0.28836122008183224
decision_type=8 8 8 8 8 10 10 10 8 8 8 8 10 10 8 10 8 8 8 10 10 10 10
left_child=4 3 -3 6 -1 7 -2 11 16 -8 -5 12 -4 -11 15 -6 20 19 -14 22 -9 -12 -13
right_child=1 2 5 10 14 -7 9 8 -10 13 21 17 18 -15 -16 -17 -18 -19 -20 -21 -22 -23 -24
leaf_value=0.041668170316530515 0.14010531043023691 0.071030719266082121 0.040192394420131131 0.043628869083224553 0.051436483710888575 0.062115650560159302 0.092072381925515423 -0.039516669889854285 0.056000021850743903 0.055601517076882517 -0.036245967514063608 -0.022508187488518169 -0.03981388189627337 -0.012375088993535073 0.16208317950555984 0.1416165407339976 0.019247501855660244 -0.01392473843627972 -0.0032621916448149265 -0.016176832378989096 -0.0064741221213088524 -0.0064618175813187968 -0.044405752028918097
leaf_weight=5.7964390814304343 5.6887574046850231 5.3973042815923682 3.0376579761505118 2.8784136474132547 5.6254638582468015 3.6098995953798285 5.864101737737653 7.2069505453109741 3.8786854892969123 2.9092693477869043 4.0995776057243356 3.2584165930747977 7.9931665807962391 4.9302976429462433 23.632081881165504 4.5631775110960007 2.8070162683725366 5.299550622701644 3.6779556870460519 4.0422262400388709 2.7656075358390808 2.7652343660593033 170.73696748912334
leaf_count=29 28 28 16 15 28 19 30 39 20 15 22 18 44 26 111 22 15 29 20 22 15 15 951
internal_value=-0.000975664 -0.0224174 -0.0327697 0.0555203 0.133054 -0.0356481 0.0840066 -0.0375722 -0.000125058 0.0527737 -0.00371942 -0.0407056 -0.0134339 0.0162874 0.14707 0.100873 -0.0199872 -0.0428088 -0.0294617 -0.043586 -0.0317784 -0.0265956 -0.0441266
internal_weight=292.464 252.847 223.711 29.1357 39.6172 218.314 19.3924 214.704 16.6583 13.7037 9.74323 198.046 14.7088 7.83957 33.8207 10.1886 12.7796 183.337 11.6711 178.038 9.97256 6.86481 173.995
internal_count=1577 1387 1236 151 190 1208 99 1189 89 71 52 1100 80 41 161 50 69 1020 64 991 54 37 969
is_linear=0
shrinkage=0.05


Tree=5
num_leaves=31
num_cat=0
split_feature=40 80 30 40 9 34 87 22 39 86 29 55 30 81 65 41 6 68 50 90 62 14 25 44 31 66 6 4 37 7
split_gain=145.772 43.9276 30.1755 19.7345 27.0848 18.3535 16.5483 14.5568 14.0228 12.6075 11.0074 9.84378 9.4995 9.07791 8.91171 8.50506 7.95107 6.9381 6.7392 5.17194 4.91652 4.55596 4.51729 4.28247 4.28188 3.99406 3.85671 4.70512 3.17485 3.52285
threshold=40.245522747447417 67.250000000000014 2.2500000000000004 90.726953365491752 0.94018938861535906 0.14219478216818646 0.52234828436714109 261.50000000000006 35.04211716091568 0.32210680249562457 259.25000000000006 0.051896193874911144 94.250000000000014 4.0999999999999384 0.20046671688836373 10.552541196595511 1.2055422975432275 1.7561380582278305 0.39930646709923306 0.20749286431840289 23.500000000000004 19.934703808250578 465.50000000000006 1.6677917691608388 1276.0000000000002 0.4209787532611361 1.6018171421166782 24.699679577333203 18.64957343894454 0.89699381078691431
decision_type=8 8 10 8 10 10 10 10 10 10 10 10 10 10 8 10 10 10 8 10 8 10 8 8 8 10 10 10 2 10
left_child=1 2 15 4 8 7 -7 10 13 -3 -4 17 26 -2 -11 -1 21 -9 20 -15 25 -8 -16 -20 -5 -14 -10 -28 29 -27
right_child=3 9 5 24 -6 6 16 11 12 14 -12 -13 18 19 22 -17 -18 -19 23 -21 -22 -23 -24 -25 -26 28 27 -29 -30 -31
leaf_value=0.029261717143264945 -0.014263836508865591 -0.031017673487667999 0.0031633857242116961 -0.04270188815035262 -0.038189953779552192 -0.017013371042753793 0.10301634283551703 -0.0092686443967604625 -0.034882608931563905 -0.020029725446268052 0.080962282173996467 -0.021299978202044753 0.027824585011199811 0.074770309293996251 0.087138019233286276 0.11885063596810885 0.023332904960183795 0.076199027625882598 0.068619134116509564 0.016115977385618815 0.043103446045050939 0.046978844967030552 0.014665663160552476 0.0064998106707337723 0.0012933638300979778 -0.030730963165874692 -0.030550605836061062 0.037531787807580229 -0.040762129396815956 0.026152630680480151
leaf_weight=3.9652403295040157 5.8881331384182003 22.428975462913513 7.2976716160774258 97.274917379021645 58.742412686347961 4.9177736937999716 19.636228889226917 3.8412789702415484 24.998359680175781 5.5885102897882435 11.440017119050024 20.943744674324989 4.1019074916839662 10.925337865948679 4.4314880967140189 18.840438365936279 6.4292487055063239 4.489697739481926 5.6975486427545521 6.4695163667201987 3.813994586467742 7.6447358280420294 4.3637814819812784 5.1297033429145822 5.7989468872547141 4.0779221504926699 4.0575166046619398 4.1063084006309509 9.5797280222177488 4.8662342429161072
leaf_count=15 23 89 28 392 236 19 73 15 99 22 43 81 16 42 17 69 25 17 22 25 15 29 17 20 23 16 16 16 38 19
internal_value=-0.000669171 0.0389839 0.0547548 -0.0234292 -0.0118767 0.0404392 0.0657276 0.0191677 0.0048466 -0.0081117 0.0523577 -0.0031037 -0.00636653 0.0376308 0.0273006 0.105157 0.0779406 0.0400213 0.0108447 0.0550175 -0.00307677 0.0895298 0.0563489 0.0422264 -0.0402381 -0.0123562 -0.0254595 0.00405275 -0.0222233 -0.000264676
internal_weight=401.787 146.259 109.446 255.528 152.455 86.6404 38.628 48.0124 93.7122 36.8128 18.7377 29.2747 70.4292 23.283 14.3838 22.8057 33.7102 8.33098 37.267 17.3949 26.4398 27.281 8.79527 10.8273 103.074 22.6258 33.1622 8.16383 18.5239 8.94416
internal_count=1577 559 414 1018 603 330 146 184 367 145 71 113 277 90 56 84 127 32 146 67 104 102 34 42 415 89 131 32 73 35
is_linear=0
shrinkage=0.05


Tree=6
num_leaves=31
num_cat=0
split_feature=72 80 71 72 13 37 13 2 21 58 58 13 63 41 85 16 40 72 15 63 51 80 81 51 72 33 85 12 17 37
split_gain=266.326 51.9602 31.2982 23.5959 19.245 17.9123 16.5573 28.4225 18.8128 12.8307 10.0404 9.76192 9.75822 7.82862 7.35277 6.51544 10.1512 6.74199 6.43933 6.25837 6.20445 5.70128 7.62906 4.2728 4.2289 5.30353 3.79118 4.61982 3.32313 3.03453
threshold=0.60478507657198299 68.250000000000014 0.62574431499860506 0.56969367907117141 0.96223041383398078 15.443867479718543 0.96839819338612443 16.500000000000004 144.72778320312503 2.3715405282752031 1.5855025669619773 0.98980151934270655 2.0028303060915293 43.196079629220868 1137.0000000000002 198.68499755859378 73.91520700222469 0.56591291240406527 482.33671569824224 2.3963198357164268 30.1050032455821 15.250000000000002 -15.05000000000018 24.532178997251062 0.51768913980369358 0.35828440965427272 837.50000000000011 0.92842371521182321 363.50000000000006 4.2237858463265185
decision_type=8 10 10 10 10 2 10 10 10 8 8 10 10 10 8 10 10 10 8 10 10 10 10 10 10 10 10 10 10 2
left_child=1 3 9 24 13 20 8 -8 -5 11 -10 -2 23 26 -15 16 17 -7 -11 -14 -6 22 -13 -9 -1 29 -3 -28 -21 -26
right_child=2 4 -4 6 5 15 7 12 10 18 -12 21 19 14 -16 -17 -18 -19 -20 28 -22 -23 -24 -25 25 -27 27 -29 -30 -31
leaf_value=-0.050809799989691928 0.029529179387837175 0.013812148583048604 -0.031582765620056019 -0.046688127013784379 0.02287865774526282 0.0083965086525174797 -0.041583019295012832 0.023057121623646148 0.064445800011463508 -0.016338836502332893 -0.026434161899737497 0.083008763048203427 -0.030868600052283198 0.047717898996686242 -0.026520641080040666 0.085271053982667239 -0.010898118433485074 0.08336375864808733 0.056289128712466732 0.00048375693069839022 -0.037262591093295681 0.1024284252839015 0.0015814161522402902 0.079251972986033092 0.0046423945098397357 0.010883844546263613 0.0066175948122817367 -0.047579047908777768 0.058784579205826498 -0.037647845466279778
leaf_weight=60.87090277671814 7.2945581376552573 4.2280135750770595 5.9157190620899192 35.824543565511703 7.4466044604778272 4.6116652190685299 15.737513720989226 6.0939140617847469 6.1316598653793308 4.3190538585185978 4.544390708208085 7.6722138524055481 5.6558634936809531 7.8066986203193638 4.5533454716205606 12.122834056615828 7.1364971697330466 9.1021073162555677 7.0713550150394449 4.5511767268180829 7.7848605811595917 59.525901526212692 4.3632739782333356 11.662262618541716 4.2069358229637137 5.970141112804412 4.8241266608238247 15.99325120449066 4.321901947259903 102.73417779803276
leaf_count=219 25 15 21 128 26 16 56 21 21 15 16 26 20 27 16 41 25 31 24 16 27 198 15 40 15 21 17 57 15 367
internal_value=0.00201404 -0.0180701 0.0753572 -0.0288671 0.0157104 0.0362872 -0.0086374 0.0118548 -0.0296044 0.0826365 0.0268108 0.0898224 0.03837 -0.0110612 0.020431 0.0565033 0.0366401 0.0604378 0.0296538 0.00708831 -0.00826171 0.0954767 0.0558745 0.0622235 -0.039758 -0.0334061 -0.0267906 -0.0352921 0.0319587 -0.0359566
internal_weight=450.077 353.915 96.1621 268.305 85.61 48.2046 94.5232 48.0226 46.5006 90.2464 10.6761 78.8559 32.2851 37.4054 12.36 32.9731 20.8503 13.7138 11.3904 14.5289 15.2315 71.5614 12.0355 17.7562 173.782 112.911 25.0454 20.8174 8.87308 106.941
internal_count=1577 1253 324 955 298 166 333 168 165 303 37 264 112 132 43 113 72 47 39 51 53 239 41 61 622 403 89 74 31 382
is_linear=0
shrinkage=0.05


Tree=7
num_leaves=26
num_cat=0
split_feature=40 27 13 49 2 13 13 21 85 61 47 47 13 81 4 45 60 7 40 66 52 33 73 45 45
split_gain=391.43 70.0634 39.8021 25.7012 24.2475 23.1055 17.2508 13.7379 11.8342 9.81762 9.75467 8.17999 7.16752 6.48871 6.10058 4.0364 3.18645 2.89492 2.69271 2.38823 2.23369 1.96337 1.81892 0.473711 0.31807
threshold=73.91520700222469 -53.499999999999993 0.96604262588843315 0.064921893522299212 29.500000000000004 0.98618133733682656 0.97238744214334139 132.88710784912112 1129.5000000000002 0.40862039146469503 0.68333741493747835 0.75746092610751015 0.89288183517297215 -53.749999999999993 27.663641126613189 0.44109367615951367 0.21867819455614587 1.0131578947368423 81.697003312817387 0.6298355829919845 0.81712962962962965 0.17660527779665167 4389.5854381444324 0.14260384012710758 0.060041378530305882
decision_type=10 10 8 10 10 10 10 10 10 10 10 10 10 10 10 10 10 8 10 10 8 8 8 10 8
left_child=2 3 4 8 23 9 12 11 19 -3 -11 -6 16 -10 -9 20 -5 -13 -12 -2 24 -14 -16 -1 -4
right_child=1 5 15 6 7 -7 -8 14 13 10 18 17 21 -15 22 -17 -18 -19 -20 -21 -22 -23 -24 -25 -26
leaf_value=-0.04717164593218251 -0.043522733195052718 0.038359499080099724 -0.025460449491371374 0.058397837772622377 0.0026053830510982634 -0.013317339413085855 -0.019693454425675046 0.032159619442332331 -0.015911052468755429 0.041908543105164904 0.063189370513644552 0.090763860692975637 0.10998711983125034 0.054655553263145307 -0.043012064820226091 -0.0076356657235221136 -0.0012262768649768322 0.029202651418878862 0.11979960510293269 0.00059004460864613931 -0.013544236124294546 0.050872417057873764 -0.0054251752262219066 -0.019075260198663596 -0.048360062050424812
leaf_weight=15.388519391417505 13.278579756617551 6.7462850511074057 5.0533570647239676 4.0045821070671144 5.5092349052429226 4.2443765103816977 5.4312376379966727 6.2241096794605282 4.7002726793289185 6.459088295698165 5.9448822736740103 8.8233907222747767 10.387669891119 7.466314345598219 5.8329801857471439 7.1598607450723639 3.984622985124588 3.9688167870044717 56.774174302816391 3.8742205500602713 5.8131625652313224 4.8438191711902627 6.7147061675786981 3.802099958062171 195.28394624590874
leaf_count=61 52 25 20 15 21 16 21 24 18 24 22 33 38 28 23 28 15 15 204 15 23 18 26 15 777
internal_value=-0.000862783 0.0672905 -0.0359068 0.0248043 0.00149424 0.0973289 0.0576447 0.0249582 -0.0081312 0.103607 0.109333 0.0545902 0.0758001 0.0282559 -0.00523117 -0.0457328 0.031832 0.0751665 0.11551 -0.0340756 -0.0470127 0.0954802 -0.0247831 -0.0428256 -0.0479118
internal_weight=407.714 138.14 269.574 57.9713 56.2639 80.1688 28.6519 37.0732 29.3194 75.9244 69.1781 18.3014 23.2207 12.1666 18.7718 213.31 7.98921 12.7922 62.7191 17.1528 206.15 15.2315 12.5477 19.1906 200.337
internal_count=1577 511 1066 220 218 291 107 142 113 275 250 69 86 46 73 848 30 48 226 67 820 56 49 76 797
is_linear=0
shrinkage=0.05


Tree=8
num_leaves=26
num_cat=0
split_feature=71 82 7 71 37 72 22 53 47 7 50 26 15 15 2 49 50 72 72 27 3 15 26 10 66
split_gain=280.986 80.754 28.0486 24.3466 18.7475 15.1635 12.5264 8.45315 7.86517 6.67116 4.36925 4.18083 3.9046 3.41084 3.17564 3.0516 4.06161 2.66437 2.5395 3.33203 1.16113 1.06128 0.396863 0.460691 0.133459
threshold=0.7333171288473187 0.87442693578154218 0.60263157894736863 0.85003273022494485 14.970848975492162 0.47563487490510364 257.50000000000006 0.20508997850815716 0.68107774013682076 1.5049019607843139 0.26959560986296449 410.75000000000006 604.92355346679699 349.56340026855474 29.500000000000004 0.29039938556067596 0.33294770244379585 0.57703713121072175 0.53441050920085564 -82.749999999999986 18.684186637502556 330.90110778808599 273.50000000000006 0.46280411255411263 0.26259175908950649
decision_type=10 8 8 10 2 8 10 10 10 10 10 10 10 10 10 10 8 10 10 8 10 10 10 10 10
left_child=1 4 -3 6 -1 -4 13 14 -9 15 -8 -10 17 -2 -6 18 -17 -5 19 -7 -21 -22 23 -20 -24
right_child=3 2 5 12 7 9 10 8 11 -11 -12 -13 -14 -15 -16 16 -18 -19 22 20 21 -23 24 -25 -26
leaf_value=0.12159733641479842 0.028897700257769221 0.078575630809003427 0.042822133887940428 0.14209033483527972 0.018364536916136074 0.01529613074415131 0.026912496173202061 -0.0023611048672177314 0.11995347566883463 0.029137855811359178 0.113331712423898 0.0292109243462375 0.053640781699391994 -0.035110303118131007 -0.035768843820067717 -0.030953398102258528 0.033977958598794579 0.062706617362225797 -0.033123776870651579 -0.0055622962227275044 -0.0055617784502323027 -0.041772040490142597 -0.019229862655376739 -0.0041269723338066651 -0.04374212984532036
leaf_weight=7.2818155735731152 2.9562740921974164 4.568648397922515 5.1552418470382682 28.075375899672512 5.1580183953046816 3.8898017704486847 3.0479991137981415 3.5078665018081647 3.4693108350038528 2.9484340399503699 4.6038605868816376 2.944545179605484 3.4056498259305945 3.4211096614599228 3.8744099885225296 5.9051336944103214 2.739408791065217 3.4836628139019004 2.9541008174419394 3.9712167233228746 2.6962992250919369 15.20782223343849 2.7635752707719794 2.5904615670442581 160.49900007247925
leaf_count=34 15 22 26 119 26 21 15 18 16 15 22 15 15 18 21 33 15 15 17 22 15 86 16 15 925
internal_value=-0.000907149 -0.0231031 -0.0332124 0.107052 0.0582492 -0.0359879 0.0467846 0.0290379 0.058662 -0.0381558 0.0859973 0.0878535 0.12926 -0.00554387 -0.00610648 -0.03927 -0.00898745 0.135523 -0.0405626 -0.0243021 -0.0317042 -0.0369016 -0.0428867 -0.0222769 -0.0434468
internal_weight=291.119 242.125 215.889 48.9939 26.236 211.32 14.0292 18.9542 9.92172 206.165 7.65186 6.41386 34.9647 6.37738 9.03243 203.217 8.64454 31.559 194.572 25.7651 21.8753 17.9041 168.807 5.54456 163.263
internal_count=1577 1358 1228 219 130 1206 70 96 49 1180 37 31 149 33 47 1165 48 134 1117 144 123 101 973 32 941
is_linear=0
shrinkage=0.05


Tree=9
num_leaves=31
num_cat=0
split_feature=40 80 30 40 72 9 33 52 47 65 12 10 65 59 52 48 28 52 66 35 49 47 53 55 13 90 60 53 73 18
split_gain=130.686 37.5633 25.053 18.7839 26.8342 12.5803 12.2586 10.6494 10.0523 8.4894 7.62027 7.44961 7.36511 7.22456 6.52282 6.32923 6.32733 6.18574 6.13316 5.93686 5.9282 5.76061 6.58306 6.30145 5.69066 5.60718 9.77954 5.05886 4.21594 4.17679
threshold=40.245522747447417 67.250000000000014 2.2500000000000004 90.726953365491752 0.59661492052948217 1.0210087893229645 0.27999439279364763 0.16691542288557218 0.8105806026186283 0.20046671688836373 0.79395879138719594 0.34493740326653638 0.21868497391482769 18.871615275052914 0.15054467733039165 0.36041237113402064 -92.750000000000099 0.098071361312886754 0.56531346759990897 0.75920632481575023 0.066795985968918323 0.60384453165883178 0.47086556136947638 0.12153312335272816 0.92499555624908048 0.27600394996708366 0.2565480340160245 0.52034520316855182 4511.0855505048821 662.50000000000011
decision_type=8 8 10 8 10 10 10 10 10 8 10 10 10 10 10 10 10 10 10 8 8 10 8 10 10 10 8 8 10 8
left_child=1 2 11 4 8 7 -3 10 14 -8 -4 -1 -9 15 17 -7 20 24 -12 -16 -10 -14 -23 -24 -2 26 27 -26 -6 -5
right_child=3 6 5 29 28 13 9 12 16 -11 18 -13 21 -15 19 -17 -18 -19 -20 -21 -22 22 23 -25 25 -27 -28 -29 -30 -31
leaf_value=0.025887214716521313 -0.019719510188231634 -0.031651041363925991 -0.025027506256791201 -0.042952936111537783 -0.044891018896456227 0.062173121357001086 -0.02041249698586535 0.076097151483286177 0.051292264634247464 0.05239257078973545 -0.0039586011647962105 0.10745912893458059 0.07838769007715686 -0.04262693300167035 0.064669168960481707 -0.01268358745067423 -0.03384325481054512 -0.019065844787644903 0.056664153064215655 -0.0037774221014975646 -0.019868435282522533 -0.02211760841301405 -0.0019095911955832327 0.071410479761169432 0.042439311080618512 -0.0017498133077866879 0.084354716932096299 -0.020178674320013159 -0.0078910982901391601 -0.0098914279041578384
leaf_weight=4.10763090848923 7.125847876071929 21.17964431643486 6.7317267954349544 88.641403988003731 45.778955087065697 4.2721948772668821 5.7498404085636112 27.992525652050972 4.3876920789480218 9.5714313983917236 6.3562594950199154 19.952132612466812 4.7160679996013668 5.9414962381124488 9.7621986716985667 5.4886219352483749 20.527060061693192 14.950575739145277 10.491043120622633 4.3397223949432382 5.5634339302778253 5.8176490664482143 5.0414869636297208 5.8339112997055054 5.4317364543676421 10.243822067975996 7.4559862464666358 5.5995052605867395 9.7933075278997404 11.47629404067993
leaf_count=15 28 86 26 369 190 16 23 101 17 36 24 69 17 24 37 21 82 59 39 17 22 22 19 21 21 40 28 22 40 46
internal_value=-0.000599824 0.0363137 0.0504808 -0.0225987 -0.0113375 0.0374441 -0.00762449 0.046073 0.00479601 0.0254933 0.0174337 0.0951214 0.0591251 -0.00301784 0.0158533 0.0228133 -0.0185082 0.00712384 0.0348517 0.0447501 0.0133266 0.0345286 0.0184076 0.040123 0.0182647 0.0280319 0.043777 0.0116189 -0.0386254 -0.0392985
internal_weight=400.321 149.244 112.743 251.078 150.96 88.683 36.5009 72.9807 95.3876 15.3213 23.579 24.0598 49.4016 15.7023 64.9094 9.76082 30.4782 50.8075 16.8473 14.1019 9.95113 21.4091 16.693 10.8754 35.8569 28.7311 18.4872 11.0312 55.5723 100.118
internal_count=1577 559 414 1018 603 330 145 269 373 59 89 84 180 61 252 37 121 198 63 54 39 79 62 40 139 111 71 43 230 415
is_linear=0
shrinkage=0.05


Tree=10
num_leaves=31
num_cat=0
split_feature=9 71 21 13 11 83 44 84 79 61 13 44 48 48 44 65 44 60 39 75 13 64 36 19 83 37 13 81 53 49
split_gain=154.702 124.218 42.3353 26.2107 20.7609 19.949 15.8734 19.6938 14.5893 12.8323 10.3438 9.33306 8.52265 7.88942 6.81826 7.05499 6.02441 6.29705 5.7953 5.77826 5.62928 4.8736 4.58525 4.23943 4.08534 4.97889 4.93593 3.74017 3.10608 7.59407
threshold=0.95493529926406273 0.59530835977839291 144.21733093261722 0.95482454030137409 2482.5000000000005 449.50000000000006 1.6956853228494959 0.12235960346226539 359.50000000000006 0.34725381614170564 0.96159089887432525 2.523037857754765 0.14875180524035489 0.24679434489561075 1.3134310441251347 0.29905208300741859 1.482165033736407 0.11257327166488283 39.98615253196472 0.71735844047095465 1.083700976007224 47.89155208584198 0.62815898656845104 900.69999999999993 564.50000000000011 17.493667453578443 0.97305683446538704 148.50000000000006 1.0000000180025095e-35 0.081360325021014299
decision_type=8 10 10 10 10 8 8 10 8 10 10 10 10 8 10 8 10 8 10 8 8 10 10 10 10 2 10 10 10 8
left_child=2 5 6 9 -5 11 7 10 -7 21 22 -2 24 23 -12 -16 -11 -18 20 -3 -10 -4 -1 -14 -6 -26 -27 -21 29 -8
right_child=1 19 3 4 12 8 28 -9 18 16 14 -13 13 -15 15 -17 17 -19 -20 27 -22 -23 -24 -25 25 26 -28 -29 -30 -31
leaf_value=-0.043288254398877353 0.090475176858253986 0.0045941102275918874 -0.0048791876940964037 -0.045832259763670051 0.080454655466754343 -0.031894728196491952 0.010831298501050059 -0.041764623866837242 0.083285827710432928 0.0090338396073656995 0.063164108324575544 0.021905462292382563 -0.024006105473259574 0.061326307033310157 -0.011421450306396659 0.051596473729293317 0.0095855622044457786 -0.047740283552368999 0.0032022073815806996 -0.048978424484268923 0.023840230094517106 0.065904184540764396 0.0045552240170648236 0.02773161323711007 -0.0067428347331167596 0.014803683477512056 0.088287058024606069 -0.00066142060203168657 -0.049381479116685251 -0.042207417893015034
leaf_weight=9.414899557828905 70.399783879518509 8.3248937427997571 4.1991602480411512 6.8103991448879233 13.553247869014742 5.7465254962444332 8.3668169081211072 36.016502231359482 12.488523840904241 7.7103044688701621 7.8838225007057217 6.1404533684253684 8.898182690143587 5.8685722053050986 12.920943886041643 5.5661122202873221 5.349521964788436 28.812718272209167 5.0054840445518485 25.771711051464084 7.1552080512046805 4.3861420154571533 9.3142217695713025 5.6111875772476187 4.3019756972789756 4.7180742621421796 4.5364831984043121 4.7423735857009879 81.163664519786835 27.647351980209351
leaf_count=34 227 29 15 25 45 20 30 132 41 27 27 21 31 20 45 19 19 105 17 94 24 15 33 19 15 16 15 17 299 101
internal_value=0.00190184 0.0440539 -0.0184526 0.00721886 0.0310599 0.0716925 -0.0319826 -0.0147219 0.0357334 -0.0185417 0.00731172 0.0853276 0.0428051 0.0171647 0.02707 0.00922617 -0.0299426 -0.0387462 0.0521285 -0.0319334 0.0638366 0.0343861 -0.0204702 -0.00349969 0.0607822 0.0369386 0.0559213 -0.0417285 -0.0437057 -0.0299257
internal_weight=448.825 145.775 303.05 104.756 54.2981 106.936 198.294 81.1165 30.3957 50.4578 45.1 76.5402 47.4877 20.3779 26.3709 18.4871 41.8725 34.1622 24.6492 38.839 19.6437 8.5853 18.7291 14.5094 27.1098 13.5565 9.25456 30.5141 117.178 36.0142
internal_count=1577 490 1087 367 186 350 720 290 102 181 158 248 161 70 91 64 151 124 82 140 65 30 67 50 91 46 31 111 430 131
is_linear=0
shrinkage=0.05


Tree=11
num_leaves=27
num_cat=0
split_feature=40 30 13 13 51 21 44 49 12 65 6 73 76 34 80 1 34 21 4 45 66 5 43 52 73 45
split_gain=348.553 56.4664 37.6676 22.8934 21.1444 16.5728 16.5456 13.3281 12.3986 9.33613 7.33532 9.36483 6.24719 6.10211 6.05397 5.61359 5.53013 5.20723 4.44216 3.8978 3.04306 2.84238 2.30406 2.23334 2.00377 0.33543
threshold=73.91520700222469 131.50000000000003 0.96604262588843315 0.97522234827975063 33.617492307422758 132.88710784912112 1.7766289410875133 0.089088868401010143 0.91824159182376675 0.14502803811001361 1.0787594640971607 6597.6849961741618 0.56188594231830569 0.073573055319550648 120.25000000000001 12635.35176962046 0.11207692654803499 187.61924743652347 28.517969078293373 0.44109367615951367 0.58828868904347564 1.2802923540777169 2.7432987525679775 0.81712962962962965 4389.5854381444324 0.060041378530305882
decision_type=10 10 8 10 10 10 10 10 10 10 10 8 10 10 10 8 10 8 10 10 10 10 10 8 8 8
left_child=2 3 4 6 21 12 16 9 -8 -3 -11 13 -6 -12 22 -14 -2 -9 -7 23 -15 -1 -10 25 -20 -4
right_child=1 7 19 -5 5 18 8 17 14 10 11 -13 15 20 -16 -17 -18 -19 24 -21 -22 -23 -24 -25 -26 -27
leaf_value=-0.04687535018102492 -0.021251589725150878 -0.045103507266631371 -0.024526545901442563 -0.0029213289873151489 0.008162797649616093 0.023812968491869362 0.011648334746549978 0.085160076733926809 0.056114154169789945 -0.040835189538492057 -0.034200672522203393 0.085116980320597377 0.10372970853436113 -0.00036080803287611828 0.037330991473828845 0.028886521468223333 0.053404986511955216 0.019849236504852333 -0.042812816879319419 -0.0073431776286464736 0.053604614940654799 0.00030987606314590045 0.10748726130973651 -0.012588720981396233 -0.00376106234053478 -0.047502563593741984
leaf_weight=16.52880230545998 3.9733256399631482 8.5899055302143115 4.940011888742446 7.19008645415306 4.8329341560602215 6.3204417526721981 4.4306564331054679 6.2082431018352482 5.8645790964364997 4.1075390279293087 5.108831241726878 4.0967334508895865 6.9732931852340672 4.8266104608774167 5.0659721195697776 5.1641366630792627 4.1783241331577301 6.677945777773858 6.1789259761571858 7.1243696957826605 4.6600523591041565 3.8861094564199439 67.960645616054535 5.709233656525611 6.4454834610223779 188.82340361177921
leaf_count=67 15 34 20 27 18 24 16 22 21 16 20 15 25 18 18 19 15 25 25 28 17 15 232 23 25 777
internal_value=-0.000859683 0.0617313 -0.034992 0.0826202 0.00124812 0.0241556 0.0893029 0.0143861 0.0959099 -0.00354776 0.0133458 0.026721 0.0585821 0.00592328 0.100437 0.0765087 0.0186696 0.0551812 -0.00807384 -0.0448316 0.028732 -0.0382983 0.104211 -0.0461272 -0.0246141 -0.0470457
internal_weight=405.867 142.939 262.927 98.6636 56.3301 35.9152 91.4735 44.2759 83.3219 31.3897 22.7998 18.6922 16.9704 14.5955 78.8912 12.1374 8.15165 12.8862 18.9449 206.597 9.48666 20.4149 73.8252 199.473 12.6244 193.763
internal_count=1577 511 1066 344 218 136 317 167 287 120 86 70 62 55 271 44 30 47 74 848 35 82 253 820 50 797
is_linear=0
shrinkage=0.05


Tree=12
num_leaves=24
num_cat=0
split_feature=12 82 7 72 72 71 61 4 55 48 68 72 60 48 5 29 35 28 28 82 72 10 82
split_gain=248.275 70.8614 28.4065 16.0978 14.7814 11.4398 11.2018 9.71516 7.03964 6.24061 5.31727 2.67308 2.98759 2.78865 2.57109 2.34817 2.87233 2.15677 0.63399 0.548503 0.143756 0.128496 0.109938
threshold=0.7455882162955082 0.89430779415883699 0.60263157894736863 0.51540028863892295 0.47261008354081935 0.49525554846303349 0.46329793291909721 15.80779492949325 0.11766355658367268 0.097377797224653104 1.4898432274355673 0.53441050920085564 0.40345983866715746 0.43283384517632112 1.1990615823855391 308.25000000000006 0.63729482889175426 -43.89999999999997 -324.54999999999978 0.76082957306490806 0.66267326939082249 0.28535290805511399 0.9169589685198688
decision_type=8 8 8 10 8 10 8 8 10 10 10 10 10 10 8 8 10 8 10 10 10 10 10
left_child=6 3 -3 -2 -4 9 -1 10 -7 -5 -6 12 15 20 -10 16 -9 -8 -17 -11 21 -13 -23
right_child=1 2 4 5 7 8 17 11 14 19 -12 13 -14 -15 -16 18 -18 -19 -20 -21 -22 22 -24
leaf_value=0.03452859098006951 0.11237004545919944 0.075774979981198004 0.043651664932464675 0.03742033761281692 -0.033026023160901946 0.0067976798299444335 0.051038441433998473 0.029299417128841862 0.10652868538562477 -0.0085374732699502933 0.04314010869132321 -0.018533335597589788 0.020960919503645151 0.0053721135692553794 0.034424205645140177 -0.012993743726093741 -0.032227954874392277 0.11787348021577025 -0.041487744147904349 -0.038407738209483483 -0.01823563840057766 -0.019406644706138541 -0.04336455669744859
leaf_weight=6.283273220062255 6.447260156273841 5.0655709952116004 5.0479867458343497 4.3359279632568386 2.7605784982442847 4.5933369100093833 3.4990319460630417 2.9669830501079621 4.8255590945482227 2.914146736264227 5.1241285800933838 2.6371211707592002 2.7209926992654792 2.8846701532602301 3.2835469245910653 3.572648420929915 2.6350127905607224 36.726274937391281 14.834656655788416 5.6283107548952103 2.6566443145275107 2.7794886678457251 154.94974714517593
leaf_count=29 28 23 24 22 15 23 15 16 22 15 26 15 15 16 16 20 15 146 86 30 16 16 928
internal_value=-0.000834999 -0.0212191 -0.0317758 0.0470689 -0.0347801 0.0270024 0.103729 -0.0369613 0.0588266 -0.00636408 0.0157573 -0.0391893 -0.0230536 -0.0416353 0.0843164 -0.0286805 -0.000139161 0.113439 -0.0369119 -0.0301804 -0.0424948 -0.0427812 -0.0430673
internal_weight=289.173 242.664 210.636 32.0281 205.571 25.5808 46.5086 200.523 12.7024 12.8784 7.88471 192.638 26.7303 165.908 8.10911 24.0093 5.602 40.2253 18.4073 8.54246 163.023 160.366 157.729
internal_count=1577 1387 1231 156 1208 128 190 1184 61 67 41 1143 152 991 38 137 31 161 106 45 975 959 944
is_linear=0
shrinkage=0.05


Tree=13
num_leaves=31
num_cat=0
split_feature=40 81 76 5 40 72 72 47 30 71 50 22 47 42 76 28 66 52 41 31 44 49 25 81 17 69 31 36 67 18
split_gain=117.53 27.0522 27.5239 19.5411 17.9348 25.0202 17.7328 9.16733 8.40594 7.96169 7.9175 7.38643 7.26589 7.73143 6.35622 6.00248 5.80621 5.47026 5.6067 5.44612 6.07461 5.44266 4.53484 4.35841 4.25391 4.10794 4.07175 3.67802 3.63555 3.55151
threshold=40.245522747447417 -138.59999999999943 0.59578404391818307 1.0977110057615083 90.726953365491752 0.59661492052948217 0.49057108671025956 0.8105806026186283 110.50000000000001 0.83219483731846655 0.25322805510364571 262.85000000000008 0.59567481377654119 13.274823250432492 0.62312906253319456 -92.750000000000099 0.37949696630583962 0.13702380952380958 30.906433321035088 178.60000000000016 1.6738666552821506 0.066795985968918323 585.25000000000011 139.50000000000003 316.50000000000006 4647.129580137268 1276.0000000000002 0.68866762518882763 14.500000000000002 476.50000000000006
decision_type=8 10 10 10 8 10 10 10 10 10 8 10 10 10 8 10 10 10 10 10 8 8 10 10 8 10 8 8 8 8
left_child=1 -1 3 6 5 7 -3 10 9 -8 17 14 -5 27 -4 21 -12 18 -2 23 -21 -9 -13 -18 -19 -7 -6 29 -15 -14
right_child=4 2 11 12 26 25 8 15 -10 -11 16 22 13 28 -16 -17 19 24 -20 20 -22 -23 -24 -25 -26 -27 -28 -29 -30 -31
leaf_value=-0.02302806118020783 0.016121520608222945 -0.014767792827022341 0.053113686301603305 0.068220507623584156 -0.040946962677484454 -0.044044090780439936 0.083955624392131223 0.048762970125049425 0.015864933294679133 0.0086452905875324341 -0.021481180273647666 -0.038558586661934464 -0.045298852690609286 0.068333955635548851 -0.019805444268174658 -0.033045622068581436 0.068294027244658467 0.055766393385274261 -0.03619294494298305 0.033657703882426129 -0.031642698653283285 -0.019262071996832775 0.018450019741359625 0.0078998883309048789 -0.010169004674958673 -0.0073205075960120006 0.0021480932272558598 0.019580464673632475 0.0077696153246289467 0.0098253050403051441
leaf_weight=17.727606654167175 7.2087550312280717 5.8062525689601889 7.0474334210157403 5.204928636550906 91.517918571829796 44.221045479178429 58.664469733834267 4.4908483177423486 6.2947741448879233 3.9878608286380759 4.1232540458440772 12.141120240092279 7.7695882320404097 4.7615383267402622 4.0812963843345651 20.102395564317703 13.563452467322351 4.5683336704969379 13.4523878544569 10.115719750523564 4.3254907876253137 5.487930193543435 4.0653665363788596 4.1163959205150595 3.8923638015985498 9.6955985575914365 5.7231197655200949 5.3151074498891822 4.8560474663972863 3.9217149168252954
leaf_count=72 28 22 26 19 392 190 200 17 23 15 16 49 30 17 17 82 51 17 54 38 17 22 16 16 15 40 23 20 18 15
internal_value=-0.000527959 0.0339812 0.0416426 0.0530271 -0.0218002 -0.0108002 0.0668948 0.00462485 0.0738847 0.0793732 0.0150772 -0.00305116 0.0194118 0.00774565 0.0269436 -0.0178424 0.0303557 -0.00431453 -0.0180386 0.0374575 0.0133161 0.013005 -0.0240169 0.0554081 0.0275641 -0.0376938 -0.0384146 -0.012509 0.0413661 -0.0274909
internal_weight=398.25 151.645 133.917 106.582 246.605 149.364 74.7534 95.4473 68.9471 62.6523 65.3662 27.3352 31.8289 26.624 11.1287 30.0812 36.2443 29.1218 20.6611 32.1211 14.4412 9.97878 16.2065 17.6798 8.4607 53.9166 97.241 17.0064 9.61759 11.6913
internal_count=1577 559 487 379 1018 603 260 373 238 215 252 108 119 100 43 121 138 114 82 122 55 39 65 67 32 230 415 65 35 45
is_linear=0
shrinkage=0.05


Tree=14
num_leaves=31
num_cat=0
split_feature=76 80 83 30 21 76 75 13 67 21 68 37 61 33 65 41 65 58 83 55 13 68 30 55 83 60 52 81 9 51
split_gain=216.344 33.9961 33.2024 26.3469 20.8992 18.438 13.9513 11.8465 17.4263 11.3881 11.4103 9.14533 8.67973 7.03174 6.67699 6.15497 6.12047 6.62761 5.92853 5.45042 5.12614 4.98684 4.62386 4.40218 4.20276 3.09305 2.55283 2.54863 2.43127 3.2708
threshold=0.60154399149584514 68.250000000000014 472.50000000000006 306.00000000000006 120.5987014770508 0.57407385225024021 0.63035521083513768 0.96649519691820107 13.500000000000002 203.70639801025393 2.234553286412114 15.598661510274587 0.34725381614170564 0.20606262859863625 0.12963521738338921 43.500181266513664 0.28570750750571988 1.473931562025123 608.50000000000011 0.11269534473262802 0.98524575998119868 2.2438394004024773 51.500000000000007 0.22866764128226127 582.50000000000011 0.17722394189808605 0.099384783263094537 -301.19999999999976 0.84396361707854306 22.957718821870134
decision_type=10 10 10 8 10 10 10 10 10 10 10 2 10 8 8 10 8 10 10 10 10 8 10 10 8 10 8 10 10 10
left_child=1 3 6 5 22 28 -2 12 16 10 14 -11 -7 21 -3 20 -9 -18 27 25 26 -10 -4 -6 -13 -12 -16 -5 -1 -30
right_child=2 9 4 18 23 7 -8 8 13 11 19 24 -14 -15 15 -17 17 -19 -20 -21 -22 -23 -24 -25 -26 -27 -28 -29 29 -31
leaf_value=-0.050568429761325223 0.085047364612522144 -0.029197974547562202 0.01269705578015418 0.026349908615078185 0.064456522976431715 0.029846096121890889 -0.0065318056702968726 -0.038221835950995736 0.042635606041852819 -0.010554458645230387 0.031773113313146771 0.083091150109308246 -0.039928567873497897 0.081034577624996537 -0.035997664898227429 0.063895347949918954 -0.027432604370137482 0.037275383088351988 -0.014266186590035519 -0.043435958321945863 0.037316887996063669 -0.023559113385779321 -0.044087458967912517 0.012793140689408672 0.025092528740590439 -0.020372025429385821 0.012818740933955833 0.078472154633871916 -0.046169657492282273 -0.026907008359139457
leaf_weight=55.056006699800491 72.206749260425568 5.103511810302737 4.9254557490348807 6.8783241212368003 15.664228886365892 4.3344425559043875 4.263743817806243 15.761765331029894 5.6155762970447549 5.8009822666645077 4.2640683352947253 8.4694455862045253 35.90752962231636 6.6306080818176261 4.7803775370121047 7.7465536892414084 6.7024331986904127 7.175519198179245 4.1761019527912131 15.263840854167936 8.6215254962444288 4.1382709145545968 9.3319751024246198 6.2539608776569358 6.4511248767375955 5.2093460559844971 4.2568619549274453 4.5552157759666434 45.238195806741714 55.745869636535645
leaf_count=209 226 18 17 23 51 15 15 57 19 20 15 27 134 22 17 26 24 25 15 56 29 15 33 21 22 19 15 15 171 206
internal_value=0.00179804 -0.0184351 0.0614038 -0.0270705 0.0211602 -0.0311486 0.0799228 -0.0124025 0.00493643 0.0108532 -0.00118535 0.0415262 -0.0318717 0.0448302 0.0190107 0.0294341 -0.0178597 0.00628096 0.0342981 -0.0258643 0.0117024 0.0149719 -0.0249239 0.0509167 0.0611658 0.00389165 -0.0140172 0.051757 -0.0413673 -0.0359043
internal_weight=446.53 333.883 112.646 257.916 36.1756 242.306 76.4705 86.2661 46.0242 75.9676 55.2461 20.7216 40.242 16.3845 30.5088 25.4053 29.6397 13.878 15.6096 24.7373 17.6588 9.75385 14.2574 21.9182 14.9206 9.47341 9.03724 11.4335 156.04 100.984
internal_count=1577 1214 363 950 122 897 241 311 162 264 195 69 149 56 105 87 106 49 53 90 61 34 50 72 49 34 32 38 586 377
is_linear=0
shrinkage=0.05


Tree=15
num_leaves=29
num_cat=0
split_feature=40 27 13 49 2 13 13 21 85 55 6 76 72 13 10 83 42 61 85 40 66 63 83 85 55 57 53 17
split_gain=311.651 49.3972 35.6841 21.0071 20.8025 16.4457 13.7977 12.0976 10.0972 7.38359 9.02085 6.77498 6.56322 6.10578 4.64196 4.5306 4.47451 4.34788 3.54204 3.29781 1.89016 1.8299 1.45216 0.552133 0.355944 0.345948 0.324706 0.243128
threshold=73.91520700222469 -53.499999999999993 0.96604262588843315 0.066795985968918323 27.500000000000004 0.98618133733682656 0.97238744214334139 132.88710784912112 1129.5000000000002 0.058235297885447304 1.2672771719811597 0.56188594231830569 0.55479330004387706 0.89288183517297215 0.34014261545726082 725.50000000000011 30.569620993536827 0.40862039146469503 858.50000000000011 62.35976756175689 0.6351353331500923 2.0927140635772852 529.50000000000011 1462.0000000000002 0.2125571556399565 16.500000000000004 0.54490278713639684 282.90000000000009
decision_type=10 10 8 10 10 10 10 10 10 10 10 10 10 10 10 8 8 10 8 10 10 8 10 10 10 10 8 10
left_child=2 3 4 8 -1 9 13 11 20 10 -3 -6 15 -5 -10 -9 27 -11 -4 22 24 -14 -20 -19 -2 -24 -15 -13
right_child=1 5 18 6 7 -7 -8 12 14 17 -12 16 21 26 -16 -17 -18 23 19 -21 -22 -23 25 -25 -26 -27 -28 -29
leaf_value=-0.046023679814168085 -0.045283677605092151 -0.013868945686240117 -0.046615503326735766 0.026414910001029374 0.00024096281159128433 -0.012880108161488664 -0.018654460014811258 0.05865177031109458 -0.0081156645546022685 0.038771024640038017 0.071912229701564342 0.049977853599166455 -0.039943631634488386 0.093608399615314808 0.048799934762013525 -0.010467351950550218 0.015535624892799943 0.098280952538062613 -0.0076336958998540101 0.010783693831590682 -0.00054257088443768187 0.00054537713938180795 -0.045247731510652228 0.05281367755993626 -0.01852965939176798 -0.01959103395549083 0.048500368277620845 0.096929695564121301
leaf_weight=15.741140455007551 9.8992345631122642 4.1379372775554648 174.16779302060604 7.7982925772666993 5.6819481551647213 4.2065175026655188 5.3131690323352805 3.9906561523675927 5.8662344217300397 5.455096870660781 8.3526248931884748 4.7973928153514827 8.7752442806959117 11.335614174604412 7.3005044609308243 4.0270288288593301 4.132175713777543 60.595225036144257 4.9363156706094804 4.7485340982675543 3.9365725070238105 3.8681707978248605 11.9657149463892 4.509692817926406 3.7439075708389273 4.0635682642459861 4.3471431434154519 5.2644763886928558
leaf_count=66 40 15 742 28 21 16 21 15 22 19 28 17 35 38 26 16 15 198 20 19 15 15 50 15 15 17 15 18
internal_value=-0.000870377 0.0569903 -0.0341213 0.0213723 0.00104918 0.080777 0.0513084 0.0199962 -0.00739607 0.0856176 0.0445727 0.0468623 -0.00681926 0.0672545 0.0246592 0.0266245 0.0642809 0.0921589 -0.0439797 -0.0250502 -0.0314396 -0.0284242 -0.0332878 0.0959781 -0.0397087 -0.0402759 0.0847615 0.0810853
internal_weight=402.958 146.798 256.16 59.5407 56.2782 87.2571 28.7942 40.5371 30.7465 83.0506 12.4906 19.876 20.6611 23.481 13.1667 8.01768 14.194 70.56 199.882 25.7141 17.5797 12.6434 20.9656 65.1049 13.6431 16.0293 15.6828 10.0619
internal_count=1577 511 1066 220 218 291 102 152 118 275 43 71 81 81 48 31 50 232 848 106 70 50 87 213 55 67 53 35
is_linear=0
shrinkage=0.05


Tree=16
num_leaves=27
num_cat=0
split_feature=12 82 7 31 72 4 61 72 82 17 55 82 67 72 13 27 48 44 13 29 57 60 13 66 45 49
split_gain=214.361 65.7069 26.2724 13.9056 13.8505 9.36238 8.76868 8.44938 5.80156 5.46691 5.26732 4.30824 2.90076 2.65667 2.90222 3.27583 2.75765 2.47548 4.77466 1.05994 0.789662 0.512416 0.232383 0.615195 0.203244 0.193097
threshold=0.7455882162955082 0.89430779415883699 0.60263157894736863 484.19999999999987 0.47261008354081935 15.80779492949325 0.46329793291909721 0.53343512205450005 0.85114357139856767 235.25000000000003 0.062437637271380124 0.64926176486311793 11.500000000000002 0.53441050920085564 1.004107472268718 -98.499999999999986 0.43283384517632112 1.9457187504933049 1.1412834839778816 262.25000000000006 6.5000000000000009 0.211316282590194 1.068303356042217 0.67004772299937898 0.72674289420062943 0.28109322742474924
decision_type=8 8 8 10 8 8 8 10 8 10 10 10 10 10 10 8 10 8 10 10 8 10 10 10 10 10
left_child=6 3 -3 7 -4 9 -1 -2 10 -6 -9 -5 -12 14 15 -7 22 18 -8 -17 -20 -13 24 -24 25 -15
right_child=1 2 4 11 5 13 17 8 -10 -11 12 21 -14 16 -16 19 -18 -19 20 -21 -22 -23 23 -25 -26 -27
leaf_value=0.032018350182719431 0.10730848277590821 0.07009821948046395 0.040584429832941402 0.036552978078064492 -0.025105709623987213 0.016492668991649743 0.035523678647807318 -1.1464276312161556e-05 -0.013522870341540353 0.04959561673946572 0.093003330809260307 -0.006427703381110518 0.024223184908348201 -0.043321432964096518 0.020723630069001912 -0.011802385624203261 0.0055403549601921905 0.11554349133508011 0.057240090311603181 -0.041382180730168826 0.11241634404624723 -0.036149970451812022 -0.034874898404441988 -0.0030326086406781989 -0.016877022207468766 -0.017346315296811427
leaf_weight=6.4656461626291266 7.2487584054470089 5.3170865327119818 5.2255880087614051 3.1560923606157285 3.8023782819509497 2.9789957702159882 6.6622896045446423 3.2421923130750629 3.5531782507896432 4.153371274471283 5.7113108038902265 2.7511303424835205 3.1600057184696198 145.48278507590294 2.7292232662439337 4.9453355967998602 2.8738506287336341 24.210114732384682 4.9821119010448429 15.593938052654265 7.1754438877105722 4.0683192610740662 3.8294303566217414 2.5119749307632446 2.4764150977134696 2.5200845897197715
leaf_count=29 29 23 24 15 21 16 28 16 19 20 25 15 15 907 15 28 16 88 19 93 26 22 23 15 15 15
internal_value=-0.000792189 -0.0206166 -0.0311849 0.0440551 -0.0342262 -0.0364403 0.0927915 0.0647483 0.0397993 0.0150761 0.0552784 -0.00504879 0.0734393 -0.0387133 -0.0225325 -0.0281928 -0.041216 0.100989 0.0773802 -0.0351387 0.0958742 -0.0265147 -0.0421025 -0.0243927 -0.0426829 -0.0429985
internal_weight=286.827 237.331 204.44 32.891 199.123 193.898 49.4956 22.9154 15.6667 7.95575 12.1135 9.97554 8.87132 185.942 26.2475 23.5183 159.695 43.03 18.8198 20.5393 12.1576 6.81945 156.821 6.34141 150.479 148.003
internal_count=1577 1387 1231 156 1208 1184 190 104 75 41 56 52 40 1143 152 137 991 161 73 121 45 37 975 38 937 922
is_linear=0
shrinkage=0.05


Tree=17
num_leaves=31
num_cat=0
split_feature=39 76 57 51 40 72 57 72 85 38 50 47 82 66 88 65 50 66 43 10 4 68 61 44 49 18 28 43 60 65
split_gain=105.867 28.4443 30.4343 20.4979 14.2771 17.3643 10.3315 10.4404 10.297 10.0004 7.51113 7.46348 6.71328 6.31795 6.30351 6.08819 5.48898 4.66233 5.11581 5.10096 5.38377 5.13765 4.46616 6.57444 4.1398 3.97642 3.87241 3.67376 3.32354 5.67772
threshold=30.988936627751887 0.60292532613515948 5.5000000000000009 23.428951944685895 90.726953365491752 0.5980726354026199 8.5000000000000018 0.47563487490510364 739.50000000000011 1.5000000000000002 0.26034151984638504 0.82478989113692702 1.1273278193924263 0.37344409103278803 0.16101113800058808 0.20379104919482638 0.43620054485130549 0.37344409103278803 2.0287986572895567 0.3903347523219815 28.065386372496103 2.0692103327117684 0.56811862720844808 1.3003823544460755 0.20882543802725503 662.50000000000011 21.250000000000004 3.767799762197837 0.29751894219556679 0.1034035930787935
decision_type=8 10 10 10 8 10 10 10 10 2 8 10 10 10 8 8 10 10 10 10 10 10 10 10 10 8 8 10 8 10
left_child=1 2 26 9 5 10 -5 -8 12 -4 13 17 15 -2 -13 -9 -3 -12 -19 20 -20 -22 23 -10 -17 -6 -1 -11 -15 -30
right_child=4 16 3 6 25 -7 7 8 22 27 11 14 -14 28 -16 24 -18 18 19 -21 21 -23 -24 -25 -26 -27 -28 -29 29 -31
leaf_value=-0.033317907326911235 0.032136349786562199 -0.027747304193965788 0.015425105091966637 -0.02113438962573785 -0.041290044318923309 -0.037079482067200575 -0.03245701806101229 0.065742369462655478 -0.0083229473242528197 0.080879993924890203 -0.020933114848315962 -0.039653967559065723 -0.023457492711734737 -0.035642929252706679 0.022890517640807916 -0.008544707856523396 0.031426199239702128 0.067596360566802835 0.068557856359311373 -0.014254096921991319 0.037620917873310566 -0.024790104023325387 0.085573620319509672 0.064990569776690932 0.043664666601083514 -0.0087260607462762811 0.017928499033428105 0.026054004180510116 0.041064377755502209 -0.026495884499457285
leaf_weight=14.061281710863112 4.985784947872161 22.149925798177723 8.3637561500072461 8.9073745757341367 83.070258349180222 44.536060258746147 4.549169346690177 7.6364436447620454 4.6434308588504809 45.89834351837635 4.0710798949003211 9.2080037146806681 6.2280370891094199 20.653622537851334 5.8145873993635186 9.3138674199581128 3.8496977090835562 6.8932819813489941 6.015403598546988 7.193144127726554 6.7743665575981122 4.8260202258825302 12.495991736650465 6.9305325448513031 5.1261929869651786 11.247046440839766 4.1722377538681057 4.5552520900964728 3.8818940669298154 7.5741317272186279
leaf_count=57 19 93 30 34 369 196 18 26 17 153 16 38 24 85 23 35 15 25 22 28 25 19 43 24 18 46 17 16 15 31
internal_value=-0.000471895 0.0294013 0.0381193 0.0469067 -0.0227531 -0.0120198 0.0271048 0.0348878 0.0412358 0.0682463 0.000952703 0.0133376 0.0197102 -0.0159112 -0.015528 0.0323771 -0.0181462 0.025552 0.031979 0.0198469 0.0337892 0.0117497 0.0647524 0.0372547 0.0116171 -0.0375392 -0.0212691 0.0765325 -0.024117 -0.00214412
internal_weight=395.626 168.882 142.882 124.648 226.745 132.427 65.831 56.9237 52.3745 58.8174 87.8913 50.7959 28.3045 37.0954 15.0226 22.0765 25.9996 35.7733 31.7022 24.8089 17.6158 11.6004 24.07 11.574 14.4401 94.3173 18.2335 50.4536 32.1096 11.456
internal_count=1577 620 512 438 957 542 239 205 187 199 346 196 103 150 61 79 108 135 119 94 66 44 84 41 53 415 74 169 131 46
is_linear=0
shrinkage=0.05


Tree=18
num_leaves=31
num_cat=0
split_feature=76 80 83 30 21 76 44 0 80 43 80 28 72 43 36 25 5 65 56 86 33 30 19 55 82 44 9 19 55 55
split_gain=191.229 31.444 28.934 24.5064 18.8949 17.5619 12.5545 12.1705 9.5389 10.8969 8.96252 8.93522 7.36283 6.89075 6.77504 5.69537 5.38558 5.07255 5.0762 4.61296 5.65267 4.36686 4.00225 3.81994 2.81473 2.50234 2.41043 2.08562 2.05125 2.0385
threshold=0.60154399149584514 67.250000000000014 472.50000000000006 314.00000000000006 120.5987014770508 0.57407385225024021 2.0128639043548322 2298.5000000000005 19.250000000000004 2.7432987525679775 140.25000000000003 -112.04999999999994 0.56715310383180095 1.9559127786915704 0.40935771167278295 470.50000000000006 1.6153919636963028 0.29905208300741859 0.5925934808423613 0.39156715317706031 0.29194648759789582 51.500000000000007 799.0500000000003 0.22866764128226127 1.0896947245742556 1.1335041379015744 1.0105756419589311 391.50000000000006 0.1707747968359255 0.16774393853351827
decision_type=10 10 10 8 10 10 10 10 10 10 10 10 10 10 8 10 8 8 10 8 10 10 10 10 8 8 10 10 8 8
left_child=1 3 7 5 21 25 11 -2 14 17 22 28 19 -14 -7 -11 -5 18 -10 20 -13 -4 -8 29 -19 -1 -16 -9 -3 -6
right_child=2 6 4 16 23 8 10 27 9 15 -12 12 13 -15 26 -17 -18 24 -20 -21 -22 -23 -24 -25 -26 -27 -28 -29 -30 -31
leaf_value=-0.0062028494954197363 -0.0065788494312210392 0.024988505766510738 0.011839854669638245 -0.009563419804907566 0.025672745489169115 0.025112823347401694 -0.041012754585665695 0.035126057428814042 -0.025616979277718405 -0.04295961276042775 0.02693968658082227 -0.019293744545845693 -0.0054776721490413793 0.060641899863581643 -0.039412551662665815 0.019502577380220411 0.052916238612122579 0.070797314449573226 0.030869598678575302 -0.044886782502716494 0.043854079863921543 -0.043421999289692412 0.010179103822202435 0.011986058013981966 0.016066273786623779 -0.041553130580781639 -0.0046546501692212782 0.081324010289377163 0.074502190823219946 0.071805063863342455
leaf_weight=5.5790727436542502 4.2587901949882498 4.5136028528213474 4.959990292787551 4.569755166769025 4.9532404243946138 4.7180981189012519 17.704645603895194 4.7555082738399497 6.3354021310806292 11.605272665619852 8.5614453554153425 7.6647432148456591 6.0626803338527671 9.4943795800209028 33.581525400280952 4.454243227839469 10.323352426290512 6.0408065617084477 7.7291792929172516 5.267542988061904 5.030194491147995 9.1852952837944013 4.3615413606166831 6.2903795838356009 4.6393348872661599 146.10503570735455 6.167006403207778 68.939202934503555 8.3674312233924866 11.065297931432722
leaf_count=21 15 15 17 16 16 17 67 15 23 45 29 27 21 31 125 16 34 20 27 19 17 33 15 21 16 564 22 211 27 35
internal_value=0.00171004 -0.0176746 0.0571034 -0.0262007 0.0196204 -0.0301347 0.0101804 0.0741615 -0.0117911 0.00563299 -0.0143852 0.0263568 0.0119832 0.0361001 -0.0275523 -0.0255075 0.0343497 0.0260492 0.00541372 -0.00970635 0.00710286 -0.0245423 -0.0308917 0.047474 0.0504337 -0.0403021 -0.0342664 0.078853 0.0602023 0.0598868
internal_weight=443.284 328.876 114.408 251.848 36.4542 236.955 77.0282 77.9535 85.2709 40.8042 30.6276 46.4006 33.5195 15.5571 44.4666 16.0595 14.8931 24.7447 14.0646 17.9625 12.6949 14.1453 22.0662 22.3089 10.6801 151.684 39.7485 73.6947 12.881 16.0185
internal_count=1577 1214 363 946 122 896 268 241 311 147 111 157 115 52 164 61 50 86 50 63 44 50 82 72 36 585 147 226 42 51
is_linear=0
shrinkage=0.05


Tree=19
num_leaves=27
num_cat=0
split_feature=40 27 13 2 49 13 13 21 85 35 47 61 47 13 76 83 45 2 6 7 68 52 40 53 81 85
split_gain=280.478 42.2998 33.808 19.2802 18.878 14.105 12.0742 9.39133 9.37277 6.42716 6.20154 6.16898 6.16064 5.47904 5.19361 5.05352 3.89484 3.13722 2.73135 2.38353 2.16762 2.15651 1.59758 1.21651 0.517627 0.383204
threshold=73.91520700222469 -53.499999999999993 0.96604262588843315 29.500000000000004 0.066795985968918323 0.98618133733682656 0.97238744214334139 132.88710784912112 983.50000000000011 0.63966351995865522 0.75746092610751015 0.40456617521509847 0.68333741493747835 0.90105525253846308 0.57763197181408643 725.50000000000011 0.44109367615951367 47.500000000000007 1.5767187121205777 1.0131578947368423 2.9414456019713064 0.81712962962962965 81.697003312817387 0.52034520316855182 -3.4999999999999996 1021.5000000000001
decision_type=10 10 8 10 10 10 10 10 10 10 10 10 10 10 10 8 10 8 8 8 8 8 10 8 10 10
left_child=2 4 3 24 8 11 13 10 -2 17 -5 -3 -13 20 15 -9 21 -10 -11 -12 -6 25 -14 -16 -1 -4
right_child=1 5 16 7 6 -7 -8 14 9 18 19 12 22 -15 23 -17 -18 -19 -20 -21 -22 -23 -24 -25 -26 -27
leaf_value=-0.016784106299918538 -0.041449769017856658 0.026339610752478444 -0.045969020370239623 -0.00038638929657174189 0.048435981038311232 -0.012455692819316286 -0.018007602383978309 0.052987752462114616 -0.040825049805391644 0.067564737128869845 0.073881543381118936 0.033433319628678806 0.049305889701995592 0.080264241566128006 -0.041992751669262737 -0.01827698975992759 -0.0054073289835876344 0.01035598924558318 0.011315949171240484 0.022271721869386304 0.0011036921925083483 -0.011446929046079501 0.090511547638501236 -0.0068859393290351539 -0.045342728158720633 -0.022575373517715294
leaf_weight=3.585079878568652 11.393834531307222 6.3876924812793723 176.06420198082924 5.714759528636935 4.3500589132309004 4.1695832759141913 5.2397705167531958 4.6819062083959588 4.2928400635719308 4.327033102512357 9.7753902971744502 7.485268145799636 6.5754632055759421 15.259790867567061 5.4124204665422413 3.7268608361482629 6.8898964524269095 6.1843703091144571 4.4420052170753488 4.2623449563980111 4.5020169317722329 5.5845844596624366 65.078345149755478 4.7675841003656396 14.225657701492308 4.6881218254566184
leaf_count=15 47 22 777 21 15 16 21 17 17 15 33 26 22 50 22 15 28 23 16 15 16 23 205 19 61 20
internal_value=-0.000861271 0.0530386 -0.0332969 0.000858559 0.0200687 0.0746255 0.0480345 0.0207517 -0.00739251 0.0138209 0.0438843 0.0789657 0.0828317 0.0625317 -0.00481458 0.0228169 -0.0431759 -0.0123444 0.0431466 0.0607341 0.026919 -0.0445361 0.0874609 -0.0276378 -0.0407921 -0.0454898
internal_weight=399.067 149.688 249.379 56.152 59.9917 89.6964 29.3516 38.3413 30.6401 19.2462 19.7525 85.5268 79.1391 24.1119 18.5888 8.40877 193.227 10.4772 8.76904 14.0377 8.85208 186.337 71.6538 10.18 17.8107 180.752
internal_count=1577 511 1066 218 220 291 102 142 118 71 69 275 253 81 73 32 848 40 31 48 31 820 227 41 76 797
is_linear=0
shrinkage=0.05


Tree=20
num_leaves=27
num_cat=0
split_feature=84 82 9 76 71 11 10 50 37 53 29 42 58 68 71 66 57 27 3 42 48 75 75 82 82 27
split_gain=204.356 45.5494 23.6427 18.5118 10.4857 14.0498 8.63435 7.90617 7.84273 7.7316 7.30747 12.4788 11.1396 7.24263 4.70426 3.5955 3.4287 2.0231 1.72416 4.08518 1.31331 0.7839 0.628254 0.346564 0.248942 0.115456
threshold=0.24322425201276698 0.83024117534641539 1.0558315819089443 0.53637306952639197 0.83219483731846655 1989.5000000000002 0.29921957528748527 0.170374336486211 16.936200792320069 0.20249491681426432 260.50000000000006 16.636509636411997 1.5484029576447789 2.7942071714364114 0.59530835977839291 0.49044235322985769 15.500000000000002 0.75000000000000011 17.783769295679907 9.2866149080807965 0.43283384517632112 0.99685098350126855 1.1172132442082763 1.6156723225688745 1.8796053907310453 8.2500000000000018
decision_type=10 8 10 8 10 10 10 10 2 8 8 10 10 8 10 10 10 10 8 10 8 8 8 10 10 8
left_child=1 7 3 6 5 15 13 -1 -9 -8 11 12 -5 -3 16 -2 -10 21 19 -12 23 -6 -19 -20 -25 -13
right_child=4 2 -4 10 17 -7 9 8 14 -11 18 25 -14 -15 -16 -17 -18 22 20 -21 -22 -23 -24 24 -26 -27
leaf_value=0.093739336020693148 -0.035991071344864616 0.095702718145122406 0.065426554104298457 -0.033671550418188194 0.055017580180654495 0.10687768601721287 0.050785618728573845 0.072427352418028709 -0.03847542935356605 -0.035191999061429287 -0.038705485379734617 -0.040154902813871837 0.072039401888764731 0.0055774983006931685 0.043414411567753525 0.023923192744327904 0.019091292130184234 0.075094770773925235 -0.043128033268458051 0.023520945321610365 -0.01381436913486439 0.10751108588073766 0.033335985601415187 -0.0093290435962935254 -0.032496037120571253 -0.015659928805150717
leaf_weight=5.2291488051414516 3.2072197347879392 3.5156785994768152 5.6273982375860205 3.209374204277994 4.1773883104324332 3.7947687804698935 2.581758946180341 5.1227299273014095 5.5125082135200483 9.0078725069761276 6.2744125276803953 12.096661537885662 5.7249687761068344 4.6639399081468591 3.8888433277606955 5.1856579035520554 3.4989607185125351 5.6714384704828236 135.42253981530666 3.3087769448757172 5.3688510358333579 30.884876191616058 4.1978371739387521 3.2202640622854224 3.0419548451900482 2.3599484413862237
leaf_count=21 15 16 27 19 16 16 14 21 29 52 35 77 29 23 17 23 17 21 867 19 31 106 15 21 20 15
internal_value=0.000487347 -0.0207088 -0.0282489 -0.0312 0.0842424 0.0385976 0.0141295 0.0443232 0.0258118 -0.0135266 -0.0362283 -0.00966691 0.0344992 0.0505199 0.00342191 -0.000366412 -0.0164492 0.0955137 -0.0401083 -0.0170282 -0.0414872 0.102956 0.062034 -0.0424317 -0.0235078 -0.0374281
internal_weight=285.796 228.677 205.424 199.797 57.1192 12.1876 19.7692 23.2522 18.023 11.5896 180.028 23.391 8.93434 8.17962 12.9003 8.39288 9.01147 44.9315 156.637 9.58319 147.054 35.0623 9.86928 141.685 6.26222 14.4566
internal_count=1582 1370 1265 1238 212 54 105 105 84 66 1133 140 48 39 63 38 46 158 993 54 939 122 36 908 41 92
is_linear=0
shrinkage=0.05


Tree=21
num_leaves=31
num_cat=0
split_feature=39 80 5 27 72 73 83 40 50 72 75 45 76 31 39 53 47 7 61 33 84 9 47 79 5 52 34 68 66 50
split_gain=109.595 27.6021 18.1275 15.5978 12.9142 18.5593 12.1234 16.1047 9.35396 8.08159 7.72484 7.21784 7.00886 6.5579 6.39376 6.37135 6.16093 6.1216 6.77551 5.90242 5.35777 5.33763 5.12914 4.58431 4.44676 3.59474 3.40416 2.95751 2.74292 5.58713
threshold=30.988936627751887 46.500000000000007 1.1259948126978265 -51.249999999999993 0.59020601546176732 681.20466908103379 544.50000000000011 92.972417740187794 0.38874878941816599 0.56925754450138732 0.97878194708229549 0.28574289123204027 0.60326248393102055 115.85000000000015 43.597846278101009 0.41800180888531996 0.818259899446803 0.98684210526315808 0.5826440295597265 0.3114952001441823 0.051289152525977058 0.89746283963264528 0.68013480526043557 528.50000000000011 0.88702681506860726 0.13702380952380958 0.10186738739141825 1.2771541411236165 0.50610185813276898 0.13507821558117672
decision_type=8 8 10 10 10 10 8 8 8 10 10 8 10 10 10 10 10 10 10 10 10 10 10 10 10 10 8 10 10 8
left_child=1 2 3 11 5 -3 -2 14 9 -4 12 -1 25 19 15 16 17 20 -19 -7 21 -8 -11 -18 -13 -5 -16 -27 29 -9
right_child=6 4 8 10 -6 13 7 28 -10 22 -12 24 -14 -15 26 -17 23 18 -20 -21 -22 -23 -24 -25 -26 27 -28 -29 -30 -31
leaf_value=0.048170129370740847 -0.038677607104371785 -0.03373131856064867 0.058757424598070575 0.028247214011112 -0.036623489957922868 0.01804268351751721 -0.013010063548263376 0.030562391764209426 -0.02568163087780613 0.038783763565834094 0.0018581937686992672 -0.043522476103350499 0.0060992790697361283 0.0030511892200543629 0.064797792852504907 -0.034868936080312947 -0.037209691305819963 -0.0056399870062114089 0.06188100198707186 0.078729349565441253 -0.019632539687091416 0.05756434365257232 -0.025977228908676799 0.017123898901821283 0.018114373066169743 0.032307036851053038 0.0024855693892387653 0.081613799229112882 -0.040184353137267814 -0.028712738151225527
leaf_weight=6.3687461465597179 79.959999069571495 12.095442444086073 10.481170967221262 5.5366148501634589 15.72138276696205 7.3888306617736879 4.3149263411760348 4.0669824928045299 10.79423378407955 3.9633743166923505 4.5656176060438147 5.3732519000768644 4.278772607445716 8.8766832053661329 4.6044119745492909 12.425989821553229 11.789395138621332 5.5186817497014991 9.4664310812950117 10.242829337716101 14.976350352168081 4.9583168476819992 6.9642398655414581 4.8773478865623465 4.6240928471088409 5.1351062655448905 3.7353818863630304 50.545000374317169 41.245559528470039 19.439674183726311
leaf_count=23 357 51 37 19 68 27 17 18 42 15 17 21 17 33 18 51 50 21 35 36 59 19 27 19 17 17 15 161 190 85
internal_value=5.84295e-05 0.0297861 0.0432076 0.0550357 0.000226142 0.015779 -0.0231962 -0.0142327 0.0107616 0.0294623 0.0651857 0.0103334 0.0695059 0.0387749 0.00132125 -0.00392782 0.00344182 0.014194 0.0382173 0.055631 -0.00157695 0.0266556 -0.00120649 -0.0212403 -0.0159587 0.0737685 0.0401426 0.0777167 -0.0323887 -0.0176287
internal_weight=394.335 172.955 118.63 86.4272 54.3252 38.6038 221.379 141.419 32.203 21.4088 70.0611 16.3661 65.4955 26.5083 76.6672 68.3274 55.9014 39.2347 14.9851 17.6317 24.2496 9.27324 10.9276 16.6667 9.99734 61.2167 8.33979 55.6801 64.7522 23.5067
internal_count=1582 628 413 292 215 147 954 597 121 79 231 61 214 96 304 271 220 151 56 63 95 36 42 69 38 197 33 178 293 103
is_linear=0
shrinkage=0.05


Tree=22
num_leaves=31
num_cat=0
split_feature=76 72 34 83 0 80 45 30 28 82 28 89 13 49 63 7 40 35 19 55 69 2 72 26 55 49 83 88 65 30
split_gain=175.216 30.5253 31.2035 21.3341 16.6147 15.5146 14.1519 11.3712 9.45559 9.20591 8.73076 7.27144 6.32924 4.6735 5.51596 4.91583 4.29531 4.14672 3.32983 3.32806 4.04495 2.93945 2.84052 4.67275 9.22626 4.3519 2.40741 3.47768 2.2999 2.22269
threshold=0.60154399149584514 0.56944265942466188 0.091187079780734856 527.50000000000011 2178.0000000000005 71.500000000000014 0.35826212796518714 314.00000000000006 -165.70000000000024 1.1602696308200529 -126.29999999999994 1.5000000000000002 0.99194938651186193 0.041053789025885072 1.8716079538075236 0.913664596273292 83.342626699203464 0.63650909066200267 391.50000000000006 0.14647669097130908 5347.522665111399 36.500000000000007 0.51768913980369358 486.50000000000006 0.076174516796894229 0.036809844225274224 606.50000000000011 0.25755232029117386 0.23712972942491226 78.250000000000014
decision_type=10 8 8 10 10 10 10 10 8 8 10 10 10 8 8 10 10 10 10 8 10 10 10 10 10 8 10 8 8 10
left_child=1 5 7 4 -2 22 9 13 -5 11 -7 29 21 -3 15 -15 18 -13 -6 -10 -21 -12 -1 25 -25 -24 27 -11 -19 -4
right_child=3 2 6 8 16 10 -8 -9 19 26 12 17 -14 14 -16 -17 -18 28 -20 20 -22 -23 23 24 -26 -27 -28 -29 -30 -31
leaf_value=-0.047164455054545779 -0.024840096117325072 0.00600595467227911 -0.042467439679071711 0.050502622309198143 0.025293301582752239 0.043199942181772012 -0.034699150595574345 0.045700892902754663 -0.045031356139928334 0.079023986125718537 -0.00026349678214898197 0.059768496606255578 0.021139870219388748 0.017948178486399964 -0.044589270707764382 -0.033206221800255009 0.018762935783248585 0.032966119288620019 0.075665112283383698 0.025157319519413409 -0.032241368464399477 -0.037898672799962341 0.0024337823345857968 0.037611213632226019 -0.031729080469703831 -0.040183814490756913 0.018866575818475121 0.033301249239708154 -0.01059650105725795 0.0046912568398786792
leaf_weight=55.648964285850525 4.3947859555482855 8.137199252843855 4.658331826329233 8.4801124334335309 4.76687067747116 7.3409886062145224 7.4856723695993415 4.7055000066757193 4.3025580644607553 12.991384580731397 7.3591558635234859 6.6573170572519329 8.6176863312721235 7.9451812654733684 36.864223673939705 9.0371159762144071 4.6944533288478842 4.6579787731170628 73.442415773868561 6.8775354325771332 4.0355522930622101 16.702131018042564 6.3516858518123618 6.1370743960142162 13.805071622133253 79.584665343165398 5.0037101507186881 9.3010795712470991 5.7549214661121377 4.1519554555416107
leaf_count=225 16 29 18 27 15 24 28 15 15 42 26 22 29 28 143 33 15 16 223 23 15 63 24 22 52 312 17 30 20 15
internal_value=-0.000220312 -0.0185643 0.000611931 0.0538171 0.0651358 -0.0306244 0.026337 -0.0228317 0.0111685 0.0354109 -0.00266804 0.0132618 -0.0139486 -0.0286773 -0.0339326 -0.00960639 0.0701447 0.031688 0.072953 -0.0125161 0.00300716 -0.0268578 -0.0374918 -0.0320141 -0.00961302 -0.0370421 0.0552005 0.0621958 0.0100713 -0.0220305
internal_weight=439.893 328.899 127.352 110.994 87.2985 201.547 60.6624 66.6892 23.6958 53.1767 40.02 25.8805 32.679 61.9837 53.8465 16.9823 82.9037 17.0702 78.2093 15.2156 10.9131 24.0613 161.527 105.878 19.9421 85.9364 27.2962 22.2925 10.4129 8.81029
internal_count=1582 1233 456 349 269 777 208 248 80 180 142 91 118 233 204 61 253 58 238 53 38 89 635 410 74 336 89 72 36 33
is_linear=0
shrinkage=0.05


Tree=23
num_leaves=27
num_cat=0
split_feature=13 59 28 44 44 64 49 53 34 39 82 80 5 13 5 81 55 55 59 85 83 37 6 28 33 43
split_gain=249.505 62.9858 27.752 14.056 12.5748 9.23072 12.2828 8.55948 7.71954 7.15797 6.27517 5.41103 6.26292 8.50982 7.17444 5.34198 5.04254 4.09242 4.17384 2.74889 3.11187 2.42678 1.84261 1.79906 0.840459 0.6374
threshold=0.97113828838280358 34.139321505742636 -120.14999999999985 1.5956923780330481 2.31917377513212 39.930194928637832 0.086919487445374435 0.17639111139366317 0.17651365295160074 51.107244921493908 1.4075871988493349 78.250000000000014 1.0279311130277717 0.93843418162792391 1.5441163157324587 47.850000000000485 0.26209813192403636 0.23316655423038399 37.272123784103314 876.50000000000011 606.50000000000011 11.930431864594205 1.5182416027529062 -89.85000000000035 0.27337300072886245 2.0600907194383766
decision_type=8 10 10 10 10 10 8 10 10 10 10 8 10 10 8 10 8 8 10 8 10 2 8 8 10 10
left_child=1 7 4 17 11 19 23 25 10 22 21 12 -3 14 -14 -9 -15 -4 -19 -2 -21 -5 -6 -7 -23 -1
right_child=5 2 3 8 9 6 -8 15 -10 -11 -12 -13 13 16 -16 -17 -18 18 -20 20 -22 24 -24 -25 -26 -27
leaf_value=-0.020301027850245318 -0.044634732922091136 -0.041052822614426998 0.046879851726912926 0.03352973091730109 0.089657541569428179 -0.043548896120406709 0.057235475412452608 0.045704584785933887 0.019103662414770937 0.011012701810283434 0.016399265658634678 -0.041466074007390989 0.077286466891990063 0.01760329312409729 -0.0030815648416148409 -0.022847031729547031 -0.042688356654738066 -0.033024359655469453 0.029255633510387763 0.0021238682573454016 -0.039146280693327928 0.084564366332560842 0.037066492903287743 -0.0022869074989133073 0.043008903754467268 -0.04565445960191556
leaf_weight=5.7856277972459855 165.8275858014822 3.9029632508754757 6.9401445984840366 4.4974732100963584 7.7249165773391733 7.6431032419204712 4.7905828058719626 5.1205040067434293 6.8682618886232367 7.47519427537918 4.5952646285295478 4.8955662548542014 7.2590500563383111 7.4997798800468418 4.0715534240007409 4.4529851973056793 4.9007897973060617 4.4363110512495041 4.3308379352092743 7.7298346310853985 9.8291732072830182 75.260406017303467 4.824443295598031 3.9711603522300738 4.5071417391300193 16.568504437804222
leaf_count=24 759 15 25 15 25 32 17 19 23 27 16 20 25 28 15 18 19 17 15 32 43 235 16 15 15 72
internal_value=-0.000165699 0.0398252 0.0522878 0.0663563 0.0217751 -0.0393843 -0.003237 -0.0238306 0.0735271 0.0519146 0.0774742 0.00222689 0.0111452 0.0210428 0.0504991 0.0146735 -0.00763183 0.0208687 -0.00241357 -0.0425827 -0.0218428 0.0805735 0.0736674 -0.0307403 0.0827779 -0.0402428
internal_weight=395.709 195.918 163.99 111.436 52.5543 199.791 16.4048 31.9276 95.7285 20.0246 88.8603 32.5297 27.6341 23.7312 11.3306 9.57349 12.4006 15.7073 8.76715 183.387 17.559 84.265 12.5494 11.6143 79.7675 22.3541
internal_count=1582 684 551 361 190 898 64 133 304 68 281 122 102 87 40 37 47 57 32 834 75 265 41 47 250 96
is_linear=0
shrinkage=0.05


Tree=24
num_leaves=26
num_cat=0
split_feature=84 82 9 76 71 11 37 60 29 42 58 31 81 12 53 66 82 3 69 28 12 48 82 82 48
split_gain=180.497 42.2105 21.9417 17.8636 8.42194 12.2773 8.13544 8.06599 7.17615 11.5949 9.9216 7.10819 6.4183 3.79159 3.49617 3.39173 1.82433 1.71025 5.17906 1.65395 1.46252 1.3175 0.366795 0.250759 0.127304
threshold=0.24322425201276698 0.83024117534641539 1.0558315819089443 0.53637306952639197 0.83219483731846655 1989.5000000000002 13.290934787675837 0.20397408970120129 260.50000000000006 16.636509636411997 1.5484029576447789 484.19999999999987 -84.600000000000009 0.94373864478396363 0.19288399859519348 0.49044235322985769 0.76082957306490806 17.783769295679907 1786.5061812845299 35.999999999999964 0.66265256371113368 0.43283384517632112 1.6156723225688745 1.8796053907310453 0.064611063094209178
decision_type=10 8 10 8 10 10 2 10 8 10 10 8 8 10 10 10 8 8 10 10 10 8 10 10 10
left_child=1 11 3 6 5 15 7 -3 9 10 -5 12 16 -13 -8 -2 -1 18 -10 20 -6 22 -19 -24 -11
right_child=4 2 -4 8 19 -7 14 -9 17 24 -12 13 -14 -15 -16 -17 -18 21 -20 -21 -22 -23 23 -25 -26
leaf_value=0.095752013485736906 -0.035562841061151755 -0.0054729191534541258 0.061019474135963717 -0.03326525372533206 0.094858306786711991 0.098238280256477808 0.01927715572452756 0.087415443845622956 -0.038742676840659157 -0.015054410992585766 0.066321763331768882 0.029351322433591787 0.012527902500642613 -0.034293794996920667 -0.033335585851151268 0.022794246276560501 0.03604291007738581 -0.042805456813695096 0.033659055818137738 0.041092427132987434 0.045934314806762848 -0.01333993062669845 -0.0087980572478537876 -0.031967506621627208 -0.03976435919013975
leaf_weight=7.1077599972486469 3.1357562243938428 3.8693321049213427 5.8545291423797599 3.1220727711915988 37.978690147399902 4.0331658273935309 4.3333871662616712 4.502130851149559 6.7419874519109708 2.3027433753013602 6.0216258317232132 4.1941402703523663 5.564574837684634 3.2591757774353027 7.1148667335510254 5.2567694932222366 3.632227525115014 130.00004416704178 2.7321667820215225 4.2627232968807212 4.5933697074651709 5.2932189106941214 3.1662626564502707 2.9259917885065079 11.647567197680472
leaf_count=27 15 21 27 19 126 16 24 20 39 15 29 20 25 18 40 23 15 867 15 15 17 31 21 20 77
internal_value=0.00051262 -0.0201226 -0.0276489 -0.0306274 0.0773414 0.0364963 0.0137668 0.0484793 -0.0357353 -0.00930017 0.032391 0.0416807 0.0592638 0.000756104 -0.0134719 -0.000474941 0.0803487 -0.0396942 -0.0166433 0.0871884 0.090755 -0.0411111 -0.0420861 -0.0228643 -0.0369653
internal_weight=282.646 223.386 199.628 193.773 59.2605 12.4257 19.8197 8.37146 173.954 23.094 9.1437 23.7579 16.3046 7.45332 11.4483 8.39253 10.74 150.86 9.47415 46.8348 42.5721 141.386 136.092 6.09225 13.9503
internal_count=1582 1370 1265 1238 212 54 105 41 1133 140 48 105 67 38 64 38 42 993 54 158 143 939 908 41 92
is_linear=0
shrinkage=0.05


Tree=25
num_leaves=31
num_cat=0
split_feature=39 9 41 1 30 83 40 22 76 21 21 47 55 41 44 53 60 23 10 21 45 34 17 25 40 90 62 47 19 55
split_gain=98.5282 24.312 25.8451 13.9678 12.7933 11.614 15.0418 10.3062 8.06293 10.1263 8.32536 7.95119 6.81381 5.69177 5.43084 5.33037 5.96336 7.77857 4.75701 4.84622 4.58082 4.32651 4.26207 3.46236 3.36688 3.32372 3.22583 4.71424 3.43874 2.91766
threshold=30.988936627751887 1.0127953843304023 5.5447624663425854 1602.8205673267837 11.500000000000002 544.50000000000011 92.972417740187794 280.50000000000006 0.58478308666356504 208.46228790283206 58.597759246826179 0.55483539567526596 0.28073700333310192 10.318336374531668 1.2608207228359105 0.08860443052263603 0.30285719784665216 477.25000000000006 0.37458464154892729 144.72778320312503 0.24834355634420793 0.14219478216818646 264.50000000000006 344.50000000000006 62.114678165433588 0.21831453766625245 22.500000000000004 0.79115480040924213 1384.2 0.098262682003314797
decision_type=8 10 10 10 10 8 8 8 10 10 10 10 10 10 10 8 8 10 10 10 10 8 8 10 10 10 10 10 8 8
left_child=1 2 -1 7 13 -2 12 -3 9 10 -6 -11 15 -4 22 -7 18 25 19 -17 23 -16 -10 -12 -19 -18 28 -28 -8 -20
right_child=5 3 4 -5 8 6 26 -9 14 11 20 -13 -14 -15 21 16 17 24 29 -21 -22 -23 -24 -25 -26 -27 27 -29 -30 -31
leaf_value=-0.030555489364002639 -0.03782330634824449 0.063994350627237795 0.011436722116842326 -0.038486078646938322 -0.011297323864790479 0.054475927114834101 -0.042279754967020702 -0.024389724220735338 0.061457483450469301 0.045151865618937304 0.021871649230933234 -0.033359272338192907 -0.023188765728617947 0.07579626098665268 -0.028439031561176571 0.042542711641737181 0.018198504908908144 0.017472075883454671 0.0072036178288750197 -0.012211711949304519 0.0092364083768991436 0.022933875564698839 -0.0025575774752665467 0.065391184802076563 0.078086623405969474 -0.03857071397254886 -0.035045353217718796 0.021011782443760334 -0.0031823894563075849 -0.035834269935100541
leaf_weight=12.384116038680075 77.297489210963249 7.0216238349676141 4.280551701784133 18.592426717281342 4.7873664796352378 5.0903214365243903 43.127893447875977 4.8884447515010843 5.46920070052147 4.4368622303009015 6.5684971809387198 6.9284514635801315 19.795814990997314 31.449455425143242 10.074597567319866 6.3745710700750342 4.7089119553565997 4.6786533296108228 5.023869693279269 8.2007862329483014 5.3037085831165305 5.593381494283677 4.2187374979257592 42.12233367562294 5.4754249900579453 3.7688437700271606 6.8319776356220228 6.2784953862428665 6.6409120112657538 13.32726603746414
leaf_count=52 357 25 15 81 17 19 205 20 20 15 22 26 82 98 40 24 18 17 20 33 19 21 17 140 20 16 31 29 28 55
internal_value=9.96604e-05 0.0280171 0.036584 -0.0121995 0.0431029 -0.022366 -0.0135818 0.0286382 0.0329491 0.0415926 0.0498177 -0.00153679 0.00136521 0.0686071 0.00836603 0.010199 0.00487423 0.026733 -0.00791819 0.0129292 0.0553433 -0.00982357 0.0359502 0.0600786 0.0542279 -0.00844546 -0.0314902 -0.00861348 -0.0372282 -0.0242887
internal_weight=390.741 174.12 143.617 30.5025 131.233 216.621 139.324 11.9101 95.5031 70.1472 58.7819 11.3653 76.4445 35.73 25.3559 56.6486 51.5583 18.6318 32.9265 14.5754 53.9945 15.668 9.68794 48.6908 10.1541 8.47776 62.8793 13.1105 49.7688 18.3511
internal_count=1582 628 502 126 450 954 597 45 337 239 198 41 304 113 98 222 203 71 132 57 181 61 37 162 37 34 293 60 233 75
is_linear=0
shrinkage=0.05


Tree=26
num_leaves=31
num_cat=0
split_feature=76 72 34 83 71 80 45 58 30 28 28 13 35 49 56 58 40 6 56 19 10 72 22 55 53 35 86 43 55 2
split_gain=156.432 28.4401 28.4037 18.9916 15.038 14.5617 12.9019 10.603 10.5465 8.56511 7.8983 5.84479 5.40332 4.40127 3.96798 5.84556 3.84262 3.51813 4.24976 3.03025 2.87883 2.81604 4.61825 6.74594 5.11662 4.80527 4.00637 4.10119 2.79105 2.7458
threshold=0.60154399149584514 0.56944265942466188 0.091187079780734856 527.50000000000011 0.59530835977839291 71.500000000000014 0.35826212796518714 1.2298252638411207 314.00000000000006 -165.70000000000024 -126.29999999999994 0.99194938651186193 0.68754087885220849 0.041053789025885072 0.61085748972360798 1.4836900948119105 83.342626699203464 1.1367614110910051 0.67895050239346055 391.50000000000006 0.40466344997595 0.51768913980369358 294.95000000000005 0.072964937375156816 0.051874744539277658 0.65062807500362407 0.27399326836994703 2.3914232511782276 0.3497079102262603 36.500000000000007
decision_type=10 8 8 10 10 10 10 8 10 8 10 10 10 8 10 8 10 10 10 10 10 10 10 10 10 10 10 10 8 10
left_child=1 5 8 4 16 21 7 20 13 -5 -7 29 14 -3 15 -9 19 18 -15 -2 -4 -1 -23 24 25 -24 -25 -28 -11 -12
right_child=3 2 6 9 -6 10 -8 12 -10 28 11 -13 -14 17 -16 -17 -18 -19 -20 -21 -22 22 23 26 -26 -27 27 -29 -30 -31
leaf_value=-0.046275782126961873 0.023762754091685503 0.0058121890583651067 0.014554282506899047 0.047434126265234078 -0.019826887592464686 0.040693848201619205 -0.033875824646887265 -0.012574009016316962 0.043627765374692172 -0.027135021578127999 -0.00043367440223693451 0.020064454124906279 0.0067580540762003927 -0.031038334277649123 0.06719899144959729 0.049697092731787823 0.01777971280908219 -0.044491912799536723 0.013300826537968198 0.07151163428758589 -0.035920777752622576 -0.042630545003051523 0.055914613550963645 -0.040477801478548799 -0.027836672250145855 -0.011579967560195999 0.028334711535126213 -0.027272207026476827 0.015184459852303742 -0.036936001426920433
leaf_weight=53.691481620073318 4.799672156572341 8.142766669392584 4.5042098909616453 8.6017360389232618 4.9713849276304236 7.4409342706203452 7.3304066658020011 5.0180924236774418 4.7544353306293479 9.855508878827095 7.3687311261892345 8.6786292195320112 8.4149517118930799 16.267836838960651 19.712586581707001 10.880744278430939 4.7181029617786399 29.159709364175797 7.1857215464115134 73.300457149744034 5.0664517730474472 46.975440785288811 5.4373840093612653 29.666039198637009 5.4218590706586829 3.974068894982338 4.4875024259090406 7.4430323541164398 5.2747364938259134 16.312042132019997
leaf_count=225 15 29 15 27 18 24 28 18 15 35 26 29 29 63 64 35 15 115 26 221 19 190 20 119 21 15 16 29 18 63
internal_value=-0.000224556 -0.0178472 0.000670906 0.0505734 0.0612058 -0.0296819 0.0250334 0.0335633 -0.022023 0.0103576 -0.00258273 -0.0134556 0.0437579 -0.0277837 0.0520775 0.0304617 0.0662485 -0.0329947 -0.0174653 0.0689147 -0.0130363 -0.0364877 -0.0310109 -0.0207642 0.00780513 0.0290396 -0.0308961 -0.00578269 -0.0123548 -0.0260554
internal_weight=434.857 323.335 126.438 111.522 87.7896 196.897 60.9274 53.597 65.5105 23.732 39.8003 32.3594 44.0264 60.756 35.6114 15.8988 82.8182 52.6133 23.4536 78.1001 9.57066 157.097 103.405 56.4299 14.8333 9.41145 41.5966 11.9305 15.1302 23.6808
internal_count=1582 1233 456 349 269 777 208 180 248 80 142 118 146 233 117 53 251 204 89 236 34 635 410 220 56 35 164 45 53 89
is_linear=0
shrinkage=0.05


Tree=27
num_leaves=27
num_cat=0
split_feature=40 28 13 13 2 5 13 37 52 64 55 47 55 72 76 16 10 44 34 85 83 60 43 6 55 47
split_gain=237.829 35.2337 27.6263 16.7537 15.0439 11.5099 11.0421 12.3586 8.52339 6.79496 5.52518 5.25993 4.45728 3.708 7.46051 4.21526 3.48689 3.11083 2.47755 2.10897 4.39679 1.49596 4.15623 1.24064 0.247904 0.143213
threshold=70.468377912565842 -117.95000000000003 0.9638237726537312 0.93593306384651243 26.500000000000004 1.0279311130277717 0.97872368650617902 11.930431864594205 0.10545713177292125 50.104207491789047 0.18441882548180161 0.7696391531965171 0.092159030859020066 0.55479330004387706 0.56031969422299721 136.74971771240237 0.31468968968968974 2.3777111292861126 0.1791584196910348 858.50000000000011 595.50000000000011 0.11920268105313399 3.6275270106267787 1.8538831855507565 0.15887995089424123 0.74359325497027562
decision_type=10 10 8 8 10 10 10 2 10 10 10 8 10 10 10 10 10 10 10 8 8 10 10 8 8 8
left_child=2 3 4 5 -1 -2 7 -3 17 25 13 -12 -10 14 -6 -15 -11 24 21 -4 -21 22 -9 -22 -5 -7
right_child=1 6 19 8 10 9 -8 18 12 16 11 -13 -14 15 -16 -17 -18 -19 -20 20 23 -23 -24 -25 -26 -27
leaf_value=-0.043920257912439566 -0.031077869240663716 0.0037185454760235524 -0.044181419021375762 -0.020269831059076038 -0.019719389903287542 0.085995190354709927 0.00053560748545101241 0.019888846890613817 -0.014612440962086621 -0.013429830432033786 0.074514697862412244 0.01116709605213036 0.045749515401511412 0.019725638204506835 0.056775037875266547 -0.037770978531268068 0.042918889269591927 0.0042061642389528914 0.030414305020521632 0.01688625146872668 -0.0444337879936628 0.080315272768625129 0.07045321442975791 -0.01423187107082341 -0.045467193125371001 0.045932350496077821
leaf_weight=12.883242025971411 3.9116815030574825 7.134176328778266 156.66940021514893 3.8005926609039351 5.2682686597108859 9.3026357293128967 6.560860648751258 6.6567518413066891 4.382420748472212 4.0875329226255399 5.604446962475774 7.3431744575500497 6.8405843675136566 4.3101729452609998 5.8022879511117935 7.4952387064695358 5.533052071928978 4.8746754527091971 5.2063192129135123 4.2737124413251903 12.982640504837038 61.810627683997154 16.09922456741333 6.1822506934404364 10.991742238402367 4.6524798721075067
leaf_count=59 15 24 746 15 20 30 25 22 17 15 20 26 24 15 21 31 19 18 17 18 58 191 49 26 46 15
internal_value=-0.000221032 0.0460065 -0.0329766 0.0146058 0.000442769 0.0423005 0.0634136 0.0676217 -0.0105919 0.0552446 0.0171565 0.041964 0.0229119 0.00194617 0.0217549 -0.0168778 0.0199675 -0.0298944 0.0726031 -0.0419668 -0.0259616 0.0748146 0.0571216 -0.0358801 -0.0406867 0.0766031
internal_weight=390.66 161.845 228.815 58.3774 48.7068 27.4874 103.468 96.9071 30.89 23.5757 35.8236 12.9476 11.223 22.876 11.0706 11.8054 9.62058 19.667 89.7729 180.108 23.4386 84.5666 22.756 19.1649 14.7923 13.9551
internal_count=1582 542 1040 214 192 94 328 303 120 79 133 46 41 87 41 46 34 79 279 848 102 262 71 84 61 45
is_linear=0
shrinkage=0.05


Tree=28
num_leaves=27
num_cat=0
split_feature=84 82 9 76 71 64 68 10 26 7 76 6 48 4 56 62 5 19 27 24 55 83 27 3 87 53
split_gain=160.092 38.9318 20.5105 16.0476 6.94473 11.3097 6.9042 6.84775 6.76834 6.74468 6.24183 4.46435 3.62878 3.06844 3.693 2.85876 2.24853 2.14635 1.39064 1.33179 0.857354 0.786108 0.722824 0.449003 0.484805 0.305791
threshold=0.24322425201276698 0.85114357139856767 1.0558315819089443 0.53637306952639197 0.83219483731846655 18.014249128219706 2.8285876932914382 0.29445340128978575 439.50000000000006 0.61803713527851467 0.58520849656461216 1.2950293365561272 0.43283384517632112 17.783769295679907 0.6102909494796861 15.500000000000002 0.94668997785907372 359.00000000000006 0.75000000000000011 1375.6000000000001 0.19841930637460239 1333.5000000000002 22.250000000000004 17.783769295679907 0.9027249209958379 0.73111102134652262
decision_type=10 8 10 8 10 10 10 8 10 8 10 10 10 8 8 10 10 8 10 8 8 8 10 10 10 10
left_child=1 8 3 6 5 -2 7 -3 10 -5 16 -12 13 14 -11 -8 -1 -15 20 -10 -6 23 -20 24 -19 -25
right_child=4 2 -4 9 18 -7 15 -9 19 12 11 -13 -14 17 -16 -17 -18 21 22 -21 -22 -23 -24 25 -26 -27
leaf_value=0.091711575515187382 -0.013607450610743629 0.084576110666659404 0.056958393145238012 0.026540828137471925 0.049604142062829988 0.075972270670338071 0.011053106927693344 0.001645536862790855 -0.025557830728131854 -0.02954908073805226 -0.010266082014706603 0.055896512526750534 0.011581732782675391 -0.00088706150569671939 0.03293207680237293 -0.037405573971889421 0.032011062997496877 -0.031283056388670474 0.031772272031287262 0.014701483758378778 0.090867190968494049 -0.012905857710168998 0.069435715950606464 -0.042157823021054766 -0.0014274870304705435 -0.013857469178625091
leaf_weight=6.8985700309276634 6.1752773672342283 3.8382723480463037 6.0715666860342017 3.6161492615938178 5.6076243519783011 6.476159393787384 5.0728292465209943 5.2104497849941263 3.396837204694747 5.4727006703615162 5.7233487665653211 3.2642079591751099 3.3478452563285819 3.5305279642343512 2.7573125958442697 5.4743321537971497 3.8923851549625397 2.5448076874017707 5.8648859709501249 2.9604617357254028 32.261443436145782 3.6448205113410941 4.6365965604782104 136.87304178625345 2.3682556748390198 2.1943374425172797
leaf_count=25 28 16 27 16 19 26 27 28 16 33 28 14 19 23 15 33 17 16 20 14 103 22 16 952 14 15
internal_value=0.000507909 -0.0195647 -0.0273751 -0.0304187 0.0714259 0.0344538 0.011865 0.0417388 0.036711 -0.0354408 0.050549 0.0169543 -0.0369718 -0.0380575 -0.00731594 -0.0151598 0.0747184 -0.0396722 0.0802023 -0.0073599 0.0861904 -0.0405876 0.0529927 -0.0411945 -0.0195669 -0.0418134
internal_weight=279.175 218.153 192.017 185.946 61.022 12.6514 19.5959 9.04872 26.1358 166.35 19.7785 8.98756 162.734 159.386 8.23001 10.5472 10.791 151.156 48.3706 6.3573 37.8691 147.625 10.5015 143.98 4.91306 139.067
internal_count=1582 1370 1256 1229 212 54 104 44 114 1125 84 42 1109 1090 48 60 42 1042 158 30 122 1019 36 997 30 967
is_linear=0
shrinkage=0.05


Tree=29
num_leaves=31
num_cat=0
split_feature=39 9 41 2 72 11 83 40 50 22 78 55 16 53 60 25 37 10 7 83 22 61 48 33 72 62 47 55 68 44
split_gain=88.8489 21.443 22.9386 14.7261 13.6601 13.4678 11.1061 14.0702 8.83112 8.77476 6.84063 6.2663 5.51542 4.75972 5.49298 6.98777 4.67369 4.63251 4.64318 4.44096 4.0645 3.91021 3.80726 4.24751 3.19082 3.10228 4.47461 3.39112 3.00704 2.91582
threshold=30.988936627751887 1.0127953843304023 5.5447624663425854 19.500000000000004 0.56925754450138732 1359.5000000000002 544.50000000000011 92.972417740187794 0.39775731751983184 280.50000000000006 543.25000000000011 0.28073700333310192 216.80952453613284 0.08860443052263603 0.28195278397160622 491.50000000000006 4.8499876968438178 0.37458464154892729 1.0131578947368423 363.50000000000006 277.50000000000006 0.55280077982486941 0.24604152740641713 0.18174100941503321 0.58361110173578035 22.500000000000004 0.79115480040924213 0.089133280369825665 3.4744509744808085 1.608290237800355
decision_type=8 10 10 10 10 10 8 8 8 8 10 10 10 8 8 10 2 8 10 10 10 8 10 10 8 10 10 10 8 8
left_child=1 2 -1 10 8 9 -2 11 12 -3 16 13 22 -8 17 21 -4 18 -15 -6 -21 -16 -5 -24 -22 27 -27 28 -9 -17
right_child=6 5 3 4 19 -7 7 25 -10 -11 -12 -13 -14 14 15 29 -18 -19 -20 20 24 -23 23 -25 -26 26 -28 -29 -30 -31
leaf_value=-0.02966880376326066 -0.036991805575852729 0.059887056544939581 0.02484883095971124 0.073014266205571138 -0.041631535454049684 -0.03780083790650255 0.051131752343145147 0.017559355920335869 -0.0080352751988796729 -0.022767512859437802 0.007176813056912687 -0.022397228124553387 -0.00097796849872192645 -0.011547610139207007 -0.039873047491608749 0.068925490688773683 0.069226508214664098 -0.026484251140056165 0.045277787575810358 0.038466756740737025 -0.03240542325518591 0.017404890395579735 -0.0042873007285416653 0.051020254537950449 0.013892825018852448 -0.034426439897774622 0.020368974604868733 -0.044827032873204657 -0.028977986469712103 0.016693825584990024
